   0.00897,  -0.01344,   0.00693,  -0.04399,  -0.01955,  -0.11324,   0.00490,  -0.00121,  -0.04602,   0.00897,   0.02119,   0.00693,  -0.00529,   0.02934,  -0.00325,  -0.02769,   0.01508,  -0.04195,  -0.00325,  -0.00325,  -0.01547,   0.00082,   0.01304,  -0.02158,  -0.02566,   0.01304,  -0.07454,   0.01101,   0.02119,  -0.00529,  -0.01751,   0.01915,  -0.02362,  -0.00732,  -0.02566,  -0.02769,  -0.01955,   0.09655,   0.02730,  -0.06232,  -0.01955,  -0.00121,  -0.01751,   0.03138,   0.07619,   0.01304,   0.00693,  -0.00121,   0.00286,  -0.00529,  -0.00121,   0.00693,  -0.01751,   0.00082,   0.03138,   0.03341,   0.00490,   0.00693,   0.01712,   0.00082,   0.00286,  -0.05010,   0.00286,  -0.00121,   0.01304,  -0.02362,  -0.01547,  -0.00325,  -0.23953,  -0.01547,   0.00490,   0.00490,  -0.00325,   0.02730,  -0.01547,   0.03749,  -0.03584,  -0.00325,   0.03138,   0.01101,  -0.01955,  -0.00325,  -0.03380,   0.02527,  -0.00732,   0.02119,  -0.03788,   0.01712,  -0.01140,   0.02730,   0.02934,  -0.02566,   0.03138,  -0.00529,   0.01508,   0.01508,   0.01304,  -0.00529,   0.03341,   0.00490,   0.00490,  -0.01547,  -0.01344,  -0.01547,   0.03545,   0.02527,  -0.01344,  -0.00732,   0.01508,   0.04156,  -0.08269,   0.01508,   0.00897,   0.00082,   0.00490,   0.02934,   0.02527,  -0.02973,  -0.02973,   0.00286,   0.03545,  -0.00732,   0.02934,  -0.00732,  -0.01547,   0.01101,  -0.01344,  -0.02769,  -0.01344,  -0.03380,  -0.01751,  -0.04399,  -0.02158,  -0.00121,  -0.02158,   0.01712,  -0.03991,   0.08433,  -0.02769,   0.00286,   0.00286,  -0.00732,  -0.00325,   0.02323,  -0.00529,   0.00490,  -0.00529,  -0.00529,  -0.01344,  -0.01547,   0.00897,  -0.00936,   0.01508,  -0.01751,  -0.00121,  -0.01140,  -0.01344,  -0.00121,  -0.01547,  -0.01955,   0.07211,  -0.01140,  -0.00936,   0.02323,   0.01101,   0.00490,  -0.03177,   0.00897,   0.01101,  -0.04399,   0.05378,   0.01508,  -0.00732,   0.00490,   0.03952,   0.01304,  -0.02158,   0.00082,   0.01915,  -0.01140,   0.01101,  -0.01344,  -0.01751,   0.01304,  -0.01547,   0.01712,  -0.03788,   0.00897,   0.00897,   0.00082,   0.02119,   0.03341,  -0.01344,  -0.03380,   0.00693,   0.01712,   0.00897,  -0.02362,  -0.00325,  -0.00936,  -0.00936,   0.00490,   0.00082,   0.00286,   0.00693,   0.02730,   0.02730,  -0.01140,   0.04156,   0.00490,   0.00693,  -0.01140,   0.01712,   0.01915,  -0.00325,   0.01101,   0.00286,   0.01304,  -0.00325,   0.03952,  -0.00732,  -0.00936,  -0.01751,   0.00082,  -0.00732,  -0.00121,   0.00897,   0.03749,  -0.04602,   0.02119,  -0.00732,  -0.01344,  -0.02362,   0.01101,  -0.01751,  -0.00936,   0.01304,  -0.02362,  -0.02158,  -0.01547,   0.00082,   0.02934,  -0.01140,   0.00897,   0.00286,  -0.01140,   0.00082,  -0.01140,  -0.01140,  -0.01140,  -0.00732,  -0.02158,  -0.00325,   0.03341,  -0.01140,   0.00693
  -0.01955,  -0.05621,   0.02119,  -0.05214,  -0.04806,   0.03952,  -0.03788,  -0.01547,  -0.04806,   0.04563,  -0.03584,   0.03341,  -0.02362,   0.02934,   0.02119,   0.00693,  -0.03177,   0.02323,   0.02323,  -0.01955,   0.01915,  -0.00325,  -0.00325,  -0.00732,  -0.02362,  -0.01547,  -0.05621,   0.03138,   0.01304,   0.02323,  -0.02362,  -0.00936,  -0.03177,   0.03749,  -0.02158,  -0.03177,  -0.01955,  -0.00325,  -0.01140,  -0.00325,   0.01101,  -0.00732,   0.07008,  -0.00121,  -0.01140,  -0.03177,   0.01101,  -0.01955,  -0.03177,   0.02730,  -0.02769,   0.01101,  -0.05214,  -0.02769,   0.01101,  -0.01344,  -0.01751,  -0.01955,  -0.05417,   0.01508,   0.02527,   0.05378,   0.08637,  -0.04195,  -0.00936,   0.08841,  -0.00732,  -0.03788,  -0.03584,  -0.04806,  -0.00529,  -0.02158,  -0.03380,   0.00082,   0.02934,  -0.00732,   0.01101,   0.05582,  -0.00936,  -0.00121,  -0.02362,  -0.04602,  -0.03991,  -0.02158,   0.00082,   0.01101,  -0.01140,   0.01508,   0.02119,   0.02934,   0.00490,   0.02730,  -0.00732,  -0.02158,   0.02323,   0.02119,   0.03749,  -0.05621,  -0.02158,   0.00897,   0.02323,   0.12711,   0.06397,  -0.02973,   0.01101,   0.02323,  -0.00732,  -0.00732,   0.01101,  -0.06028,   0.00286,   0.07619,  -0.00529,  -0.00121,  -0.01547,   0.00490,   0.01304,  -0.01751,   0.02119,  -0.01751,   0.05582,   0.02527,   0.02527,   0.00490,  -0.01547,   0.01508,   0.02527,  -0.03584,  -0.01344,  -0.01547,   0.02323,  -0.02362,   0.04767,   0.02730,   0.04156,  -0.00121,  -0.01344,  -0.04399,   0.00286,  -0.02362,   0.06804,   0.02119,   0.06397,  -0.04602,  -0.00732,   0.00082,  -0.01751,   0.03749,   0.01304,  -0.01140,  -0.00121,  -0.10917,   0.00490,  -0.02158,   0.04360,  -0.01344,   0.11896,   0.01915,   0.01101,  -0.03584,   0.04360,   0.06193,  -0.01140,  -0.02566,   0.03138,   0.00490,  -0.00325,  -0.03380,   0.00897,  -0.02769,  -0.01547,  -0.04195,   0.00693,  -0.00325,   0.00082,  -0.00121,  -0.04602,  -0.01547,   0.01304,  -0.03380,  -0.02158,  -0.01344,  -0.00732,  -0.01547,  -0.02158,   0.00286,   0.00897,  -0.00121,  -0.00732,   0.00693,   0.01712,  -0.01955,  -0.02362,  -0.00325,  -0.01955,  -0.11324,  -0.00529,   0.01508,  -0.00325,   0.00286,   0.03545,  -0.05214,   0.02527,   0.07211,   0.04156,  -0.00121,   0.00897,  -0.01547,  -0.01344,  -0.04195,  -0.03788,  -0.02973,  -0.00732,   0.03138,  -0.02158,   0.00286,   0.01101,   0.00490,  -0.03380,  -0.00529,   0.00082,  -0.02973,  -0.00936,   0.00082,  -0.01955,  -0.02973,   0.00490,  -0.02973,   0.01915,   0.04767,   0.02527,  -0.02158,   0.00082,   0.05989,   0.02934,   0.10063,  -0.01955,  -0.00936,  -0.00529,   0.01101,  -0.02566,  -0.08472,   0.01508,  -0.00529,   0.00490,  -0.02769,   0.04360,  -0.01547,   0.02527,   0.07822,   0.01915,  -0.00936,  -0.03177,  -0.04195,  -0.01751,  -0.01955
  -0.01751,  -0.03380,  -0.00936,   0.00286,   0.00286,  -0.00936,   0.01101,  -0.04602,  -0.00325,  -0.01140,  -0.01140,   0.04156,   0.00082,  -0.00936,  -0.01547,  -0.00325,   0.00693,   0.02119,  -0.01344,  -0.01751,  -0.04399,  -0.02362,   0.01508,  -0.06843,   0.00897,  -0.05010,  -0.00325,  -0.01140,  -0.02769,  -0.04195,   0.05989,   0.01915,  -0.02158,   0.00693,   0.00286,   0.01915,  -0.00529,   0.01304,   0.02527,   0.01915,   0.00082,   0.04563,  -0.03991,   0.02934,   0.00490,  -0.02362,  -0.01344,   0.08433,   0.02730,  -0.02566,   0.00286,   0.01712,  -0.04195,   0.00897,   0.01508,   0.00286,  -0.03788,  -0.03788,   0.02323,   0.01712,   0.01508,   0.00082,  -0.00121,  -0.00936,   0.00286,   0.01508,   0.02934,  -0.04195,  -0.00529,  -0.01140,   0.00693,   0.01508,   0.01304,   0.04767,  -0.00732,   0.01304,  -0.02566,   0.02323,   0.00490,  -0.02566,  -0.04399,  -0.00529,   0.00693,   0.01915,   0.02119,  -0.02566,  -0.02362,   0.00490,  -0.03584,  -0.02158,   0.02119,   0.00286,  -0.02769,   0.07619,   0.03138,   0.02730,  -0.02362,  -0.00325,  -0.01955,  -0.00121,   0.00082,   0.00286,   0.00082,  -0.01751,   0.02119,  -0.02769,  -0.02158,   0.07619,   0.03138,  -0.00936,  -0.00325,   0.01915,   0.00693,   0.00082,  -0.05010,   0.00286,   0.01101,  -0.02362,   0.05582,  -0.00529,  -0.01955,  -0.00325,  -0.02769,   0.02934,  -0.00325,   0.01508,   0.00082,   0.02934,  -0.00325,  -0.02158,   0.00286,  -0.03584,  -0.04399,   0.02119,  -0.04195,  -0.02566,   0.00490,   0.00490,   0.01508,   0.02730,  -0.02973,   0.02934,   0.03138,  -0.00325,  -0.02362,  -0.02566,  -0.01140,  -0.03177,  -0.00325,   0.02934,  -0.00936,  -0.00732,  -0.01140,  -0.01955,   0.02730,  -0.05010,  -0.01344,  -0.02973,  -0.02769,   0.02119,   0.01101,   0.01915,   0.05785,  -0.01140,  -0.03584,  -0.03177,  -0.00325,   0.00897,   0.00897,   0.04156,   0.03749,  -0.00732,   0.01508,   0.11489,  -0.02769,   0.10470,  -0.01751,  -0.02566,  -0.00121,   0.06397,   0.00286,   0.00286,   0.02934,  -0.01955,  -0.01955,   0.00897,   0.00490,  -0.00325,   0.03138,  -0.02158,   0.06193,   0.01304,  -0.04399,   0.01508,   0.00897,  -0.00936,  -0.01955,   0.02730,  -0.00936,   0.01508,   0.00082,  -0.02158,  -0.01547,   0.00286,   0.00286,   0.00693,  -0.04195,  -0.00732,   0.00286,   0.01304,   0.00897,  -0.02158,  -0.02769,   0.00490,  -0.01344,   0.00693,  -0.00936,   0.02119,  -0.00121,   0.01304,   0.00490,  -0.00325,  -0.00529,   0.00693,   0.00286,   0.01101,  -0.05825,   0.01304,  -0.01140,   0.00490,   0.00693,   0.03749,   0.00490,   0.01508,   0.01712,   0.00082,  -0.01955,  -0.04399,  -0.02769,  -0.00121,  -0.01955,  -0.00121,   0.01304,   0.01508,   0.02527,  -0.03380,  -0.06232,  -0.05010,   0.05174,   0.00693,   0.06193,  -0.00325,  -0.04195,   0.02323,   0.00693,   0.00082
   0.01304,   0.04971,  -0.02566,  -0.05417,  -0.01751,   0.01712,  -0.00936,  -0.03788,  -0.04602,   0.02730,   0.02934,   0.02119,   0.00490,  -0.01751,  -0.01140,  -0.00325,  -0.00121,   0.00082,   0.02323,  -0.00121,  -0.01751,   0.00082,  -0.02158,  -0.02362,  -0.05621,   0.00082,   0.00897,  -0.01955,  -0.00325,   0.02119,  -0.00325,   0.01508,   0.00693,  -0.00732,  -0.05214,   0.01712,  -0.06232,  -0.04806,  -0.01751,   0.08637,  -0.02158,  -0.00121,   0.03749,  -0.02769,   0.03545,  -0.01955,  -0.07250,  -0.00121,  -0.01751,   0.02323,   0.03545,   0.00897,  -0.01344,  -0.00936,  -0.01140,  -0.00529,   0.00693,   0.01712,   0.03952,  -0.01344,   0.01101,   0.04971,  -0.01955,   0.00693,   0.00693,  -0.01751,  -0.00529,  -0.00936,  -0.02973,   0.00082,   0.01508,  -0.07861,  -0.02769,  -0.00936,  -0.00732,  -0.03380,   0.07415,   0.02323,  -0.05621,  -0.00529,  -0.02362,   0.06193,  -0.02362,   0.00490,  -0.01140,  -0.00529,   0.00286,  -0.01140,   0.01304,  -0.01344,  -0.00529,  -0.02769,  -0.01344,  -0.00732,   0.02934,  -0.01344,   0.00490,   0.01101,   0.00490,  -0.02158,  -0.02769,  -0.00529,   0.01508,  -0.04806,  -0.00732,   0.05378,   0.01304,  -0.00732,   0.01508,  -0.00936,  -0.00121,   0.01508,  -0.00325,   0.01915,  -0.02362,   0.00897,  -0.00325,  -0.00325,  -0.01751,   0.03138,   0.02730,   0.02119,  -0.00121,   0.02323,   0.00693,  -0.02362,  -0.02566,  -0.04399,  -0.03788,  -0.00936,  -0.03380,  -0.00325,   0.02527,  -0.00325,  -0.01140,   0.03341,  -0.02158,   0.04971,   0.01101,  -0.01344,  -0.02158,  -0.02566,  -0.00936,  -0.02362,   0.02119,  -0.00529,  -0.01547,  -0.00529,  -0.05621,  -0.02362,   0.00286,  -0.02158,  -0.01344,  -0.01955,  -0.00121,  -0.02158,  -0.01344,  -0.03380,  -0.02158,   0.01101,   0.07415,  -0.01751,   0.00897,   0.00286,   0.00082,   0.01915,  -0.00121,  -0.03177,  -0.00121,   0.02934,   0.00082,  -0.00732,  -0.00732,  -0.03177,  -0.00121,   0.03341,  -0.04399,   0.02934,   0.01712,   0.00082,   0.00693,   0.00490,  -0.03177,   0.00286,   0.04360,  -0.01547,  -0.00325,   0.01508,  -0.01140,  -0.02769,  -0.03380,  -0.03788,  -0.00325,  -0.00936,   0.02730,   0.01508,  -0.01955,   0.03952,   0.01508,  -0.01344,  -0.01955,   0.00082,   0.01304,  -0.00732,  -0.01140,  -0.01955,   0.04156,  -0.00121,   0.00082,  -0.02769,   0.00286,   0.01712,  -0.04602,  -0.00325,   0.01101,  -0.00529,  -0.01344,   0.01712,  -0.00529,   0.00082,  -0.00121,   0.02323,  -0.03991,  -0.02158,  -0.02362,  -0.00121,  -0.02158,  -0.02566,   0.02119,  -0.00936,   0.01508,  -0.04399,   0.00490,  -0.01140,   0.01508,  -0.03177,   0.03545,  -0.03788,   0.17192,  -0.03380,   0.00897,   0.06804,  -0.00121,   0.03749,  -0.04602,   0.01712,  -0.00732,  -0.00732,  -0.00732,  -0.01751,   0.00693,  -0.02769,   0.02119,   0.02323,  -0.06232,  -0.03584
  -0.03991,  -0.02973,   0.01508,   0.07008,  -0.00121,  -0.02158,   0.02323,  -0.02158,   0.03138,   0.01101,  -0.03380,   0.03749,  -0.01344,  -0.02769,   0.00693,   0.00286,   0.04971,   0.03341,   0.01304,  -0.00936,  -0.02566,   0.00897,  -0.01955,  -0.03380,  -0.01344,  -0.01955,   0.00286,  -0.01955,  -0.07454,  -0.02973,   0.05378,  -0.01140,   0.01101,  -0.03584,   0.02119,  -0.02158,  -0.04602,  -0.00732,   0.00286,  -0.02158,   0.00490,  -0.01751,  -0.03380,   0.02934,  -0.00732,   0.00897,   0.02119,   0.00286,   0.00693,  -0.00732,   0.02323,   0.03138,  -0.02973,  -0.02158,  -0.02769,   0.01712,  -0.02362,  -0.02362,  -0.02362,  -0.02769,   0.00082,  -0.00121,  -0.03584,   0.03138,   0.01101,  -0.02158,  -0.05010,  -0.00325,  -0.00529,   0.02934,   0.03138,  -0.01547,  -0.02973,   0.04767,  -0.03584,  -0.06028,  -0.03584,   0.00897,  -0.05214,   0.02119,  -0.06436,  -0.02566,  -0.02158,   0.09044,  -0.00529,  -0.02769,  -0.02362,   0.00693,   0.00693,  -0.01344,   0.01508,   0.03138,   0.01304,  -0.01140,   0.01304,   0.03749,   0.00490,   0.00490,  -0.03991,  -0.03380,  -0.01344,  -0.01344,   0.06804,  -0.02158,  -0.00529,  -0.05417,   0.04156,   0.01304,  -0.00936,  -0.00529,  -0.01344,   0.02934,   0.00897,   0.02527,  -0.00121,   0.01304,   0.05378,   0.01508,  -0.01955,  -0.02566,  -0.03177,  -0.01344,   0.04156,   0.05378,   0.00490,   0.00082,   0.05174,   0.00897,  -0.02362,   0.00897,  -0.02566,  -0.03584,   0.00490,  -0.01955,   0.00693,   0.00490,   0.00490,   0.02730,   0.00286,  -0.01751,  -0.00732,   0.00082,   0.00490,   0.02730,   0.05174,   0.00286,  -0.01955,  -0.01344,  -0.01140,   0.03341,   0.00490,   0.01712,   0.02527,  -0.01140,   0.02527,  -0.01751,   0.00082,  -0.02158,   0.03138,   0.01712,  -0.07250,   0.01915,   0.02323,  -0.00936,  -0.02158,  -0.03380,   0.08230,   0.01508,   0.09248,  -0.00936,  -0.02566,  -0.02769,   0.01101,   0.00693,  -0.01751,   0.00082,   0.06804,  -0.01140,   0.05785,  -0.00529,  -0.02362,  -0.01344,   0.00897,   0.00693,   0.08433,   0.00693,   0.03749,   0.00693,  -0.06639,  -0.03991,  -0.03177,  -0.01140,  -0.00121,  -0.00529,   0.02323,  -0.01344,   0.07619,   0.01101,  -0.00936,   0.00693,   0.01101,  -0.04806,   0.03341,   0.02527,   0.00897,  -0.02362,   0.03749,  -0.01955,  -0.00529,  -0.01751,   0.01712,  -0.03584,   0.00490,  -0.00325,  -0.02362,   0.01101,  -0.01344,   0.01508,  -0.00529,  -0.03991,   0.00082,   0.01508,  -0.01344,  -0.00529,  -0.00529,   0.01915,   0.01915,  -0.00732,   0.06804,   0.01712,  -0.00529,   0.00082,  -0.00529,  -0.00732,  -0.00529,   0.04563,  -0.05010,  -0.01751,   0.00897,   0.02119,  -0.00121,  -0.03584,   0.03952,   0.01304,   0.02730,  -0.00325,  -0.01547,   0.01101,  -0.03380,   0.02323,   0.01915,   0.00490,   0.01508,   0.08841,   0.01101,   0.03545
  -0.03584,   0.03138,  -0.00325,  -0.03177,  -0.02158,  -0.02158,  -0.00325,  -0.03788,   0.01101,   0.04156,   0.00286,  -0.02566,  -0.02769,   0.03749,   0.00693,   0.03545,  -0.03380,  -0.00732,   0.03341,  -0.03991,  -0.03380,   0.00490,   0.00490,  -0.01547,   0.00082,   0.02323,   0.01712,   0.01712,   0.02119,  -0.04195,   0.00082,  -0.01547,  -0.04806,  -0.00529,  -0.05417,  -0.01955,  -0.01955,  -0.00325,   0.02119,  -0.02566,   0.01101,  -0.06232,   0.02934,   0.00082,   0.01508,   0.01101,   0.02119,  -0.03380,  -0.00732,   0.01508,   0.00490,  -0.05621,  -0.04195,  -0.01751,   0.00693,  -0.02973,   0.00286,   0.02323,  -0.02566,  -0.03788,   0.01101,  -0.02158,   0.00693,  -0.06436,  -0.07250,  -0.04195,   0.05378,  -0.05621,  -0.00325,   0.00082,   0.00897,   0.00693,   0.00082,  -0.00529,  -0.03380,  -0.01547,  -0.01955,  -0.01751,   0.01304,  -0.00529,   0.01304,  -0.00936,  -0.00121,   0.06193,  -0.00936,  -0.00121,  -0.02566,  -0.02973,   0.00286,   0.01304,   0.00286,  -0.04399,   0.00897,   0.00490,   0.02527,  -0.00529,   0.00490,   0.00693,   0.03138,   0.03341,   0.10470,  -0.01955,   0.01508,   0.01101,  -0.01751,  -0.01751,  -0.02973,   0.04563,   0.01915,   0.00897,   0.00082,  -0.03177,  -0.05621,  -0.03177,   0.06193,   0.00897,   0.02119,   0.01101,  -0.03991,  -0.01344,  -0.05825,   0.03749,   0.01101,  -0.03584,   0.00082,   0.00490,   0.02527,  -0.03788,   0.00490,   0.00693,  -0.01344,  -0.00325,  -0.01955,   0.02119,  -0.01140,   0.03138,  -0.00121,  -0.01140,  -0.00121,   0.00082,  -0.02362,   0.00082,  -0.01751,  -0.00936,  -0.05621,   0.01712,   0.03341,   0.04156,  -0.00529,  -0.02158,   0.04156,  -0.01344,  -0.00529,   0.00490,  -0.02158,  -0.03177,  -0.01344,   0.00286,  -0.00936,   0.00897,   0.00490,  -0.00529,  -0.02158,  -0.03380,  -0.04806,  -0.01955,   0.00693,   0.01712,   0.00490,  -0.01344,   0.01915,  -0.00732,   0.03341,   0.00897,   0.00286,  -0.01547,  -0.00936,   0.00082,  -0.01140,  -0.00325,   0.02527,  -0.02158,   0.00490,  -0.05825,   0.00490,  -0.00325,  -0.01751,  -0.03380,  -0.00325,   0.00082,  -0.00121,   0.00490,  -0.03991,   0.00897,   0.00693,  -0.01751,   0.00286,  -0.01955,   0.00286,  -0.04399,  -0.00325,   0.00490,  -0.01955,  -0.02362,  -0.00121,   0.02730,  -0.00121,   0.07008,  -0.01344,  -0.00936,   0.00897,   0.01101,   0.00286,  -0.01547,  -0.01140,  -0.01140,   0.00490,  -0.00121,  -0.01140,   0.01712,  -0.00732,  -0.00732,  -0.01140,   0.00082,  -0.02973,  -0.00121,  -0.03380,  -0.00529,   0.02119,  -0.02362,  -0.01955,   0.01508,   0.00693,   0.00286,  -0.00325,   0.00693,   0.01101,   0.01304,   0.00490,   0.00082,  -0.03177,  -0.01344,  -0.02158,   0.00286,  -0.01751,   0.03545,  -0.03788,  -0.05010,   0.02527,  -0.00325,  -0.05214,  -0.00732,  -0.05214,  -0.00529,  -0.00732,  -0.01751
  -0.01547,  -0.03584,   0.01101,  -0.01955,   0.01915,   0.01304,   0.03545,   0.02323,  -0.02566,   0.03952,  -0.02769,   0.02934,  -0.00529,   0.02527,   0.00490,   0.02934,   0.01101,   0.01712,   0.00082,  -0.01547,  -0.03177,   0.02527,  -0.00325,   0.01304,   0.00693,   0.00897,  -0.01547,   0.00897,  -0.00732,  -0.02566,   0.01101,   0.00897,  -0.02362,   0.00693,  -0.03177,   0.03138,   0.00082,  -0.00936,   0.01508,  -0.02973,  -0.03584,   0.00693,   0.03341,  -0.01140,  -0.03788,   0.01101,  -0.02973,   0.01508,   0.02323,   0.00693,   0.03341,   0.03749,  -0.00732,  -0.03177,  -0.00529,   0.00897,  -0.02362,   0.00490,  -0.01140,  -0.02158,  -0.00732,  -0.01344,   0.01101,  -0.03177,   0.01508,  -0.05010,   0.01508,   0.01304,  -0.04399,  -0.01955,   0.00286,  -0.02566,  -0.01547,  -0.00121,   0.09044,   0.03341,   0.07619,  -0.01955,  -0.00732,   0.01101,  -0.00936,  -0.06232,  -0.04195,  -0.02769,  -0.05010,  -0.01344,   0.03545,   0.01508,   0.02119,  -0.03584,  -0.00325,  -0.01344,   0.00897,  -0.00529,  -0.01547,  -0.00529,  -0.03584,  -0.05417,  -0.00325,  -0.00121,   0.01508,   0.03545,   0.00286,   0.00490,   0.02934,  -0.00121,   0.00897,   0.01915,  -0.00936,   0.05582,   0.02119,  -0.00325,   0.01508,   0.00490,   0.01101,  -0.01547,  -0.02362,  -0.04195,   0.02119,  -0.01344,  -0.01140,  -0.00732,   0.02323,   0.03138,  -0.00529,   0.00693,   0.02323,  -0.02158,   0.03138,  -0.01547,  -0.00325,  -0.02769,  -0.01955,  -0.02973,  -0.00121,  -0.01140,  -0.06436,  -0.01751,  -0.00732,  -0.01547,   0.06600,  -0.00529,  -0.01140,  -0.01547,   0.02323,  -0.00121,   0.00897,   0.00897,   0.01508,   0.02323,  -0.00121,  -0.00121,   0.00693,  -0.03788,   0.01712,   0.02119,   0.01712,   0.00490,  -0.00529,  -0.00121,  -0.00121,   0.04563,   0.01101,   0.00286,  -0.00732,  -0.02362,  -0.05417,  -0.00936,  -0.00936,  -0.01955,  -0.03177,  -0.01140,  -0.02769,  -0.00529,  -0.00121,  -0.01344,   0.00082,  -0.00529,   0.01508,   0.00082,   0.00490,   0.00490,  -0.01140,  -0.01751,   0.03341,   0.02119,   0.02527,   0.02323,   0.00693,   0.00897,  -0.00325,   0.02119,   0.02119,   0.01712,   0.04767,  -0.03584,  -0.00121,   0.02119,   0.04971,   0.00286,   0.03138,  -0.02769,   0.01101,   0.02730,  -0.02362,  -0.01751,  -0.00732,   0.01304,  -0.00121,  -0.02973,   0.01304,   0.11896,   0.01304,   0.01915,  -0.00732,   0.00693,   0.02730,  -0.00529,   0.00082,  -0.00529,  -0.00121,   0.00286,   0.07008,   0.01101,   0.01508,   0.07415,  -0.00121,   0.01915,   0.02323,   0.02119,   0.01101,   0.02323,  -0.00529,  -0.00325,   0.00490,   0.01304,  -0.02769,  -0.01955,   0.01304,   0.01101,   0.01508,  -0.02566,  -0.02566,  -0.07454,  -0.02362,   0.01915,  -0.03788,   0.00490,  -0.00325,   0.03138,   0.01101,  -0.00936,   0.00286,  -0.02973,  -0.01344,   0.01508
   0.03545,  -0.07047,   0.01712,   0.03952,  -0.02362,  -0.01751,  -0.05825,   0.04156,   0.00286,  -0.03177,  -0.00121,   0.00082,  -0.00936,  -0.03177,  -0.00121,   0.00082,  -0.03991,   0.07008,  -0.00529,  -0.09898,  -0.04195,  -0.06843,  -0.00732,   0.00693,   0.12507,  -0.05214,  -0.01547,   0.00897,  -0.00325,  -0.02769,   0.01915,   0.03545,  -0.01751,   0.00082,  -0.01344,  -0.02769,  -0.01547,   0.02730,  -0.10917,   0.00693,  -0.01344,   0.04156,  -0.04806,   0.07008,  -0.03380,   0.02527,   0.03545,   0.01712,   0.00286,   0.00082,   0.01304,   0.00490,  -0.00325,   0.03749,  -0.07658,  -0.02362,   0.01712,  -0.04602,  -0.00936,   0.01101,  -0.02158,  -0.03380,  -0.07047,   0.02934,   0.00082,   0.00082,  -0.02362,  -0.01140,   0.00897,   0.02527,  -0.02158,   0.03138,  -0.22323,  -0.07861,   0.00286,   0.01304,  -0.02566,   0.05174,  -0.01547,  -0.01344,   0.01304,   0.01304,   0.00490,  -0.01955,   0.10267,   0.01304,   0.02527,  -0.02769,   0.01915,  -0.01344,   0.00693,  -0.01344,  -0.03584,   0.00082,  -0.03788,  -0.01140,  -0.03584,   0.02730,   0.02119,   0.00286,   0.04360,  -0.03380,   0.02527,   0.07415,  -0.02362,  -0.03380,   0.02527,   0.01304,   0.01304,  -0.00732,  -0.00529,  -0.01344,  -0.01751,   0.01304,   0.00490,   0.00286,  -0.00121,  -0.02566,  -0.00936,  -0.00732,   0.01508,  -0.02769,  -0.04195,   0.01508,   0.04156,   0.00286,  -0.03991,  -0.01344,  -0.03788,  -0.02973,  -0.00936,   0.01915,   0.09859,  -0.03584,  -0.00121,  -0.00325,  -0.00529,  -0.04399,   0.01915,  -0.04602,  -0.02769,   0.02730,  -0.01547,   0.01304,  -0.02769,   0.03138,   0.01508,   0.04767,   0.00490,   0.01712,   0.02934,  -0.05214,  -0.01955,  -0.01344,   0.01915,  -0.02566,   0.01304,   0.04767,   0.01508,  -0.01955,   0.03545,   0.00490,  -0.00732,   0.00897,  -0.01955,  -0.00121,   0.10470,   0.02119,  -0.01751,   0.02119,   0.06804,   0.00693,  -0.04806,   0.01712,   0.01101,   0.00082,  -0.05417,   0.02323,   0.00897,   0.00897,   0.05378,  -0.01140,   0.03138,   0.02527,  -0.05214,   0.00490,  -0.03991,   0.00286,  -0.01751,   0.00490,   0.00082,  -0.00732,  -0.03991,   0.06193,  -0.07861,   0.05582,   0.00286,  -0.00529,   0.00693,   0.00897,  -0.00936,  -0.00732,   0.04156,  -0.01140,   0.00897,  -0.05010,   0.02119,   0.00082,  -0.02566,  -0.01344,   0.01712,  -0.01751,   0.05582,   0.00693,   0.00897,   0.00286,  -0.00732,   0.09248,  -0.05621,   0.00490,  -0.00325,  -0.01140,   0.02527,  -0.04602,   0.00490,   0.01712,  -0.00936,   0.00897,  -0.05010,  -0.01955,   0.03341,   0.02730,   0.05989,   0.00693,   0.00286,  -0.04602,   0.05785,  -0.02973,   0.04563,  -0.00732,  -0.00325,   0.07415,  -0.01140,   0.08230,  -0.03584,  -0.03584,  -0.01344,  -0.06843,  -0.02158,  -0.00732,   0.01712,   0.02527,   0.01915,  -0.00325,  -0.02769,  -0.10917
  -0.06436,  -0.07250,  -0.01955,  -0.01344,   0.03749,   0.01508,  -0.05010,   0.04767,   0.02730,   0.03545,  -0.01751,  -0.01547,  -0.01547,   0.00897,  -0.02973,  -0.01751,  -0.04399,   0.00693,   0.01101,  -0.01140,   0.02934,   0.04360,  -0.00732,  -0.00529,   0.03749,   0.00693,   0.01508,  -0.03177,  -0.02158,   0.01915,  -0.01955,  -0.02362,  -0.00936,   0.02527,  -0.01547,   0.01101,  -0.03991,   0.01508,   0.00286,  -0.05214,  -0.00325,   0.00082,   0.00693,  -0.03380,  -0.01955,   0.00897,   0.02934,   0.00693,   0.01101,   0.01915,  -0.06436,  -0.00529,  -0.06028,   0.01101,  -0.01955,   0.00286,   0.05582,   0.01712,  -0.02362,  -0.00121,   0.00897,   0.00897,  -0.05825,  -0.03991,   0.00693,  -0.03584,  -0.00529,   0.02119,  -0.00529,   0.00897,   0.01304,  -0.00529,  -0.00121,   0.01101,  -0.03584,   0.02730,  -0.07454,  -0.01751,  -0.04602,  -0.01140,  -0.04195,  -0.02362,   0.00693,  -0.03991,   0.12507,  -0.00732,   0.02119,   0.00082,  -0.01547,   0.00897,  -0.02158,  -0.04806,  -0.03177,   0.03952,   0.03545,   0.00693,  -0.02769,   0.01304,   0.00082,  -0.02362,   0.00286,   0.00286,   0.00286,  -0.00732,   0.03545,  -0.00732,   0.01304,  -0.01751,   0.03545,   0.00082,   0.03545,   0.05785,  -0.00936,   0.01101,   0.01712,   0.00286,  -0.01344,   0.00286,  -0.00325,  -0.00325,  -0.02158,  -0.01547,   0.08841,   0.01712,  -0.00732,   0.02119,  -0.02973,  -0.02973,   0.00693,  -0.02158,   0.00286,  -0.01547,   0.02730,  -0.01344,  -0.01751,   0.00082,  -0.05417,  -0.04399,  -0.02362,   0.02730,   0.00693,   0.00897,   0.03952,   0.00082,   0.03545,  -0.03584,   0.03545,  -0.01955,  -0.00121,   0.00897,   0.00082,   0.03545,   0.01304,  -0.02973,  -0.00936,  -0.02362,  -0.12343,   0.00082,  -0.00936,  -0.02566,  -0.00325,  -0.02362,  -0.01955,   0.01712,   0.01712,  -0.01751,  -0.03788,   0.01508,  -0.00325,  -0.00325,  -0.02362,   0.00082,  -0.05010,  -0.01547,  -0.02769,  -0.00529,   0.01712,   0.01304,   0.03341,   0.00897,  -0.00936,   0.00082,  -0.00121,  -0.00325,   0.06193,  -0.03788,   0.00693,  -0.00936,   0.00082,   0.04360,   0.02119,  -0.01751,   0.03952,  -0.00325,  -0.00936,   0.00490,  -0.02362,  -0.02158,  -0.01955,   0.00693,  -0.06028,  -0.03788,  -0.01955,  -0.01344,   0.06600,   0.00286,   0.00286,   0.01304,  -0.02769,   0.01712,  -0.01955,   0.11081,   0.00897,   0.01101,  -0.01140,   0.01712,   0.00286,  -0.02769,  -0.03380,  -0.01140,   0.02323,  -0.04806,  -0.00936,  -0.01955,   0.01508,  -0.00325,  -0.02566,  -0.03584,   0.01101,   0.02934,  -0.03177,   0.00490,   0.02119,  -0.01344,  -0.02362,  -0.03584,   0.04767,   0.03749,  -0.02362,   0.00693,  -0.00121,  -0.04399,   0.00693,   0.00490,   0.00693,  -0.01955,   0.01915,  -0.03380,  -0.01140,   0.04156,   0.01101,   0.01304,   0.00082,   0.05378,  -0.03991,  -0.04806
   0.06193,   0.05174,   0.01712,  -0.01955,   0.01915,   0.01508,   0.07211,  -0.09898,  -0.04195,   0.02934,   0.04360,  -0.00325,  -0.01955,   0.02119,  -0.01751,  -0.00936,  -0.08065,   0.10470,   0.02934,  -0.01751,  -0.01344,   0.01304,   0.00286,  -0.05010,  -0.01955,  -0.06639,   0.02323,  -0.05214,   0.02323,  -0.01344,   0.00286,  -0.03380,  -0.07250,  -0.12954,  -0.07047,   0.14137,   0.01304,  -0.00121,  -0.03177,  -0.02973,   0.11489,  -0.02566,   0.00693,  -0.03584,  -0.07454,  -0.00936,   0.01712,   0.00693,  -0.04399,  -0.01140,  -0.01955,   0.00897,  -0.03380,   0.01101,   0.02934,   0.02527,   0.08230,  -0.01140,  -0.12750,  -0.01344,   0.06804,  -0.07454,  -0.05417,  -0.05417,   0.00490,   0.12711,   0.00490,  -0.00121,  -0.01140,   0.01915,   0.00897,  -0.02566,   0.04156,  -0.01751,  -0.05417,   0.08433,  -0.02362,   0.02323,   0.01508,  -0.08676,   0.03138,   0.01508,   0.00490,   0.01508,  -0.02362,   0.02119,  -0.04602,  -0.05417,   0.00490,  -0.03584,  -0.02769,   0.06804,   0.03138,  -0.01344,  -0.00732,  -0.02769,   0.03749,  -0.01751,  -0.03380,   0.00897,  -0.00732,   0.07415,  -0.22730,   0.02119,   0.01915,   0.05174,   0.01101,  -0.00325,  -0.00325,  -0.07454,  -0.00732,   0.02934,  -0.00732,  -0.00529,  -0.03177,  -0.00936,  -0.03584,   0.07822,   0.02730,  -0.02158,   0.02527,   0.00897,  -0.03380,   0.02934,  -0.03788,   0.06600,  -0.03991,  -0.03380,  -0.07658,   0.06193,  -0.03991,  -0.00936,   0.00490,  -0.08676,  -0.03788,  -0.00121,  -0.00121,  -0.06232,   0.05582,  -0.03584,  -0.11731,  -0.05825,   0.03952,  -0.03177,  -0.02566,  -0.02566,  -0.03991,   0.04971,   0.00693,  -0.03380,   0.01508,   0.01712,   0.00286,   0.01304,   0.02119,   0.00897,   0.05174,  -0.03788,  -0.01140,  -0.01547,   0.01712,   0.01508,  -0.03584,   0.01304,   0.05582,   0.00286,  -0.09287,   0.00490,   0.00082,   0.00082,  -0.05825,  -0.00121,   0.02527,   0.02323,   0.12711,   0.04971,   0.01304,   0.00897,   0.01101,  -0.00325,   0.00693,   0.01508,   0.00082,  -0.01140,   0.02934,  -0.00936,   0.00897,  -0.03991,   0.03138,  -0.02362,   0.00897,  -0.01140,   0.00897,   0.03138,   0.00897,   0.02323,  -0.00529,   0.07619,   0.00082,  -0.00936,   0.03545,   0.05174,   0.01304,   0.02527,  -0.02973,  -0.00325,  -0.04602,   0.00490,   0.01304,  -0.00325,  -0.01751,   0.00897,  -0.00529,  -0.00936,  -0.00732,  -0.00529,   0.00693,   0.13118,   0.00286,   0.01101,   0.01508,  -0.16009,  -0.09898,  -0.06028,   0.00490,  -0.03991,  -0.02769,   0.01712,   0.11896,   0.00490,   0.01101,   0.06804,   0.05174,  -0.00936,  -0.01547,  -0.01751,  -0.00529,   0.00693,   0.00286,  -0.07250,  -0.02362,  -0.07454,  -0.00529,  -0.08269,  -0.05825,   0.02119,   0.00082,   0.02730,  -0.03177,   0.02119,  -0.01955,   0.00693,  -0.00325,  -0.00325,  -0.00121,  -0.01344
  -0.00936,   0.03545,  -0.03584,  -0.04602,   0.04971,   0.03749,  -0.02769,  -0.02973,   0.01915,  -0.01547,  -0.12546,   0.03749,   0.00082,   0.02119,  -0.00121,   0.00490,  -0.01344,  -0.02566,  -0.00936,  -0.01547,   0.01508,   0.00693,  -0.03177,  -0.01955,   0.03749,   0.00897,  -0.01140,  -0.01344,  -0.02362,   0.00693,  -0.00732,   0.05378,   0.00490,   0.03341,  -0.03177,  -0.05417,   0.01101,  -0.01955,   0.00082,  -0.02158,   0.01101,   0.02730,   0.04563,  -0.01547,   0.00286,   0.01712,   0.00693,   0.02730,  -0.01140,  -0.00121,   0.03749,  -0.00529,  -0.02566,  -0.05010,  -0.02973,   0.01508,   0.02119,   0.00897,  -0.00325,   0.00490,   0.02730,   0.04563,  -0.06639,  -0.00936,  -0.01955,  -0.04602,   0.00897,   0.00693,  -0.03177,  -0.00732,   0.01304,   0.01915,  -0.00121,   0.01712,  -0.02769,   0.01101,   0.02934,  -0.00529,   0.06397,  -0.00936,   0.03341,  -0.03991,   0.07211,  -0.06639,  -0.00325,  -0.03177,  -0.00121,   0.00693,   0.00286,   0.01508,  -0.15398,  -0.05825,  -0.00121,   0.01915,   0.01304,  -0.00529,   0.01304,  -0.00529,  -0.01547,   0.00490,   0.00082,  -0.02158,   0.00286,   0.02119,   0.02934,  -0.00936,  -0.00325,  -0.01955,   0.00897,   0.01304,   0.05174,  -0.04399,   0.00082,   0.00286,   0.01304,  -0.00936,   0.07619,  -0.01955,   0.00693,  -0.02158,   0.01508,  -0.01140,   0.02119,  -0.03788,  -0.00529,  -0.00732,  -0.05214,   0.00082,   0.03952,   0.00082,  -0.01751,  -0.01955,  -0.00936,  -0.03991,  -0.03584,   0.01712,   0.05582,  -0.03584,   0.01712,  -0.03584,  -0.00325,  -0.01344,  -0.00529,  -0.01547,   0.01101,   0.00693,  -0.00529,   0.00082,   0.02119,   0.00693,  -0.00325,   0.00693,  -0.04806,  -0.00529,   0.00490,  -0.01955,  -0.08880,   0.04767,  -0.00325,  -0.01547,   0.02730,  -0.03177,  -0.00529,  -0.00325,  -0.00732,  -0.00529,  -0.00121,  -0.02769,  -0.01344,   0.00897,   0.03952,  -0.01140,  -0.00936,  -0.00325,   0.01304,   0.03341,   0.01508,  -0.01344,  -0.00529,   0.01101,  -0.00936,  -0.00325,  -0.01547,  -0.00121,   0.10674,   0.02323,  -0.09287,  -0.00121,   0.00693,   0.01304,   0.03749,  -0.03788,  -0.00936,  -0.07047,  -0.03584,   0.07008,   0.01508,  -0.02362,   0.03341,  -0.01547,  -0.03380,  -0.03177,  -0.02158,   0.03138,   0.03341,   0.02730,   0.02730,   0.01304,  -0.04602,   0.01712,  -0.00732,   0.03749,  -0.02973,  -0.00529,  -0.02362,   0.01101,  -0.02769,   0.02934,   0.04156,  -0.00325,   0.00897,   0.03952,   0.02119,   0.00897,   0.00286,   0.01304,   0.02527,   0.00082,  -0.00529,   0.02527,  -0.00936,  -0.00121,   0.02730,  -0.02769,  -0.01955,  -0.00325,   0.02934,   0.02527,  -0.00121,  -0.00325,  -0.03788,  -0.03177,  -0.00121,   0.05989,  -0.05825,   0.03138,  -0.00121,   0.01712,  -0.01344,  -0.04602,  -0.00936,   0.01712,   0.00897,  -0.01547,  -0.01955,   0.00082
  -0.00325,  -0.04602,  -0.02158,   0.00082,  -0.02566,   0.01101,  -0.03584,  -0.05214,  -0.01955,  -0.01547,  -0.01751,   0.02119,   0.01915,   0.01508,  -0.00121,  -0.01344,   0.02119,  -0.05010,  -0.01344,  -0.00325,  -0.01751,  -0.01751,  -0.04602,  -0.01140,   0.04360,   0.01915,  -0.02566,   0.02323,   0.01101,   0.00286,   0.03545,   0.01915,  -0.04195,   0.02527,   0.07619,   0.02527,  -0.01547,  -0.02362,   0.13729,   0.02934,   0.02934,  -0.03177,  -0.05214,   0.00082,   0.01304,   0.02730,  -0.02362,   0.05378,  -0.00325,   0.04767,   0.01508,   0.00693,  -0.00936,  -0.01547,  -0.02769,   0.01101,   0.14340,  -0.03991,  -0.02973,  -0.07250,   0.01712,  -0.01140,   0.00082,   0.00897,  -0.02158,   0.00897,   0.04156,   0.00490,   0.00082,  -0.01547,   0.02119,   0.02934,   0.00286,   0.06397,   0.00286,  -0.05417,   0.00286,  -0.03788,  -0.01751,  -0.01344,  -0.01344,   0.04360,  -0.00732,   0.04156,   0.01101,  -0.03177,  -0.00121,  -0.03991,  -0.04399,   0.00490,  -0.00121,  -0.00732,  -0.01140,   0.03138,  -0.00732,   0.04360,  -0.00732,   0.02730,   0.02119,   0.01712,  -0.00325,   0.01508,  -0.00529,   0.01712,  -0.15398,  -0.00529,   0.05174,  -0.06232,  -0.03177,  -0.01955,   0.00286,   0.04360,  -0.00732,   0.04971,   0.04156,   0.01304,  -0.01751,  -0.03584,  -0.02158,  -0.03177,  -0.01547,   0.03138,  -0.00121,  -0.00325,   0.00082,  -0.05825,  -0.01547,  -0.01955,   0.02119,   0.01915,  -0.03584,  -0.07047,  -0.00325,   0.00897,   0.03341,   0.02730,   0.01508,   0.03952,  -0.02158,   0.03138,   0.04563,  -0.00936,   0.00286,   0.03545,   0.02730,  -0.02362,   0.02119,   0.02730,  -0.02158,  -0.03380,   0.03749,   0.00082,   0.00286,   0.01101,   0.02934,   0.00082,  -0.02973,   0.00286,  -0.02973,   0.00286,   0.02730,  -0.04602,   0.00897,  -0.00732,  -0.00325,   0.01304,  -0.00732,  -0.02566,   0.02730,  -0.00325,   0.02119,  -0.00529,   0.03341,  -0.02973,   0.01304,   0.01915,  -0.01344,   0.04156,  -0.00121,  -0.02158,   0.02119,  -0.03380,   0.00897,   0.02323,   0.03952,  -0.04399,  -0.01547,   0.02323,   0.03341,  -0.00936,   0.01304,   0.02119,   0.01101,   0.04971,  -0.02158,   0.01508,  -0.02973,   0.00082,   0.03749,  -0.02973,  -0.01344,  -0.06232,   0.01101,  -0.01955,  -0.01547,  -0.00732,  -0.03991,   0.01101,  -0.00936,  -0.00936,  -0.00732,  -0.00936,   0.00082,   0.00082,  -0.01344,  -0.01140,  -0.02973,   0.02527,   0.04767,   0.01304,   0.00490,  -0.05010,   0.05174,   0.04971,  -0.01344,   0.01712,   0.00082,  -0.01547,   0.04767,   0.03341,  -0.00732,   0.01508,   0.02527,  -0.02362,  -0.03177,  -0.06028,   0.08637,  -0.02566,  -0.01547,  -0.00936,   0.00897,  -0.01140,   0.00897,   0.02323,  -0.01344,   0.02934,  -0.01344,  -0.05825,   0.00897,  -0.01140,  -0.00732,   0.04156,  -0.02973,  -0.00529,  -0.00529,  -0.01344
  -0.02158,  -0.02769,  -0.01140,  -0.02362,  -0.00936,  -0.08269,  -0.00732,   0.02323,  -0.02158,  -0.02973,   0.01915,   0.00286,   0.01915,  -0.01344,  -0.02362,  -0.01344,   0.01508,   0.02527,   0.01101,   0.00897,   0.00490,  -0.00529,  -0.00121,  -0.02566,  -0.09491,   0.00693,   0.00286,  -0.01547,   0.00286,  -0.01955,   0.00693,  -0.00936,  -0.00936,   0.00490,  -0.04602,  -0.01751,  -0.00936,   0.07415,   0.05989,  -0.00529,  -0.01547,   0.00286,   0.02527,   0.03341,   0.07211,   0.02323,   0.03749,   0.01101,   0.00286,  -0.00121,   0.01304,  -0.02769,  -0.00529,   0.01101,   0.02527,   0.01304,  -0.00121,   0.00490,   0.00693,   0.00082,   0.00693,   0.00897,  -0.00732,   0.01712,   0.00082,  -0.03380,  -0.00732,   0.00490,  -0.13157,   0.02119,  -0.01140,   0.03138,  -0.00936,   0.02730,   0.03138,   0.03545,   0.08841,  -0.02158,   0.01304,   0.03545,   0.00897,   0.04563,  -0.01140,   0.01712,   0.06397,  -0.00936,   0.00082,   0.04360,   0.00693,  -0.01140,   0.05582,  -0.00121,  -0.02158,  -0.01140,  -0.00325,  -0.01344,  -0.00529,   0.01712,  -0.00121,   0.01508,  -0.00936,  -0.02973,  -0.00121,  -0.06436,   0.02730,   0.12303,   0.02730,  -0.00121,   0.00897,   0.00897,  -0.14583,  -0.00529,  -0.00732,   0.00286,  -0.00121,  -0.00529,  -0.01140,   0.01712,   0.01508,  -0.01751,  -0.01751,  -0.00732,   0.01915,   0.02527,   0.00082,   0.02119,   0.03952,  -0.02769,  -0.00936,  -0.01955,   0.01508,   0.00286,  -0.01955,  -0.03380,   0.00490,  -0.00121,  -0.03991,   0.01915,  -0.01751,  -0.00325,   0.02730,   0.01508,   0.01101,   0.01915,   0.00897,  -0.00325,  -0.01344,  -0.02362,  -0.01547,  -0.01547,   0.00082,  -0.02158,  -0.01547,   0.00286,   0.02119,  -0.00121,   0.01304,  -0.01955,  -0.01344,   0.01915,  -0.05010,  -0.00732,   0.01508,  -0.00936,  -0.00529,   0.00693,  -0.01547,  -0.00529,   0.01304,  -0.01955,  -0.01140,   0.06600,   0.02323,  -0.00936,   0.01712,   0.00693,   0.00693,  -0.00529,  -0.01955,   0.00490,  -0.00325,   0.00082,   0.00897,   0.01101,   0.01304,  -0.03788,  -0.00121,  -0.00732,   0.00082,  -0.00732,  -0.00325,  -0.02362,  -0.00121,  -0.01955,  -0.00529,   0.00082,   0.00286,  -0.00936,   0.02119,  -0.00121,  -0.00325,   0.01712,   0.02323,  -0.00325,   0.00490,   0.00082,   0.00490,  -0.01547,  -0.01140,   0.01304,  -0.01140,   0.04360,  -0.05825,   0.00693,   0.02527,   0.00490,   0.00693,  -0.01547,   0.04156,   0.00693,   0.03749,   0.02527,   0.00897,   0.02934,   0.00286,  -0.03177,   0.00286,  -0.08065,  -0.04399,  -0.00121,   0.00082,  -0.00732,  -0.04806,   0.02730,  -0.00325,  -0.02973,  -0.02362,  -0.02566,  -0.08065,   0.00490,   0.00693,  -0.03788,   0.01101,  -0.01751,  -0.03584,   0.00490,   0.00490,  -0.00936,   0.00693,   0.04156,   0.02527,  -0.09898,   0.00082,   0.00693,   0.07822,  -0.00529
  -0.00325,  -0.00529,  -0.01955,   0.03749,  -0.02362,   0.03341,  -0.02769,   0.00082,   0.00490,   0.00490,  -0.01547,   0.01712,  -0.00529,  -0.00529,   0.01508,   0.06193,  -0.00121,   0.01712,   0.01508,   0.00490,   0.02119,   0.05582,  -0.01955,  -0.01547,  -0.02769,   0.06600,   0.00082,   0.03138,   0.06804,   0.01915,  -0.02973,  -0.06639,   0.03545,  -0.07047,   0.02730,  -0.03380,  -0.03584,   0.01508,  -0.01751,  -0.00121,  -0.01955,  -0.03380,  -0.01140,   0.05989,   0.01915,   0.03138,   0.02119,   0.00490,  -0.01140,   0.04971,   0.00693,  -0.03788,   0.01101,  -0.01751,  -0.03788,  -0.04806,  -0.09491,   0.10267,   0.02119,  -0.00121,  -0.02362,   0.02119,  -0.00325,  -0.01955,  -0.00325,  -0.00121,   0.01304,   0.03138,  -0.01751,  -0.03584,  -0.01140,  -0.03380,   0.01712,  -0.01751,   0.04971,  -0.00732,   0.02934,   0.00490,   0.02119,   0.03749,  -0.05010,   0.02119,  -0.05214,   0.01915,   0.01101,   0.01101,   0.03749,   0.00082,  -0.01751,  -0.01955,   0.03138,   0.03952,  -0.03380,  -0.01751,   0.03545,  -0.01955,  -0.00121,   0.01508,   0.01915,  -0.00936,  -0.01140,   0.02730,  -0.00732,   0.01508,   0.02730,  -0.02362,  -0.01547,   0.00693,   0.03138,   0.01304,   0.00693,   0.01915,   0.01304,  -0.02158,  -0.00732,   0.02119,   0.00693,   0.00897,  -0.00325,   0.05785,   0.05174,   0.04156,   0.01101,   0.05582,   0.00286,   0.06804,  -0.05417,   0.00082,  -0.01547,  -0.03991,  -0.03380,   0.10674,   0.01712,   0.03138,   0.01508,  -0.00936,  -0.00325,   0.04156,   0.01915,  -0.01547,   0.01712,   0.02934,   0.03952,  -0.00732,  -0.01751,   0.01712,  -0.02973,   0.00693,   0.00082,   0.01712,   0.05378,  -0.00325,   0.01915,  -0.02362,  -0.01344,  -0.01955,   0.01712,  -0.04399,   0.00082,   0.04156,  -0.04602,  -0.05417,   0.00286,   0.01508,   0.02323,   0.03341,  -0.01547,  -0.02769,  -0.02973,   0.00693,   0.02119,   0.02934,  -0.02362,  -0.06843,   0.02119,  -0.01547,  -0.03380,  -0.03177,  -0.01751,  -0.00529,   0.05582,  -0.00325,   0.05989,   0.00693,  -0.05214,  -0.02973,  -0.00732,  -0.00325,   0.03749,  -0.01547,   0.00286,   0.00897,  -0.03991,   0.02527,  -0.05417,  -0.03380,   0.01101,  -0.01751,   0.03952,  -0.01344,  -0.02362,   0.08841,  -0.01344,  -0.00732,   0.00082,   0.02730,  -0.01547,   0.00693,   0.02119,   0.01915,   0.02119,   0.01508,   0.02119,   0.00897,  -0.01547,  -0.01140,  -0.00732,   0.00490,   0.02730,   0.00490,  -0.02158,   0.05582,  -0.02158,  -0.04399,  -0.00529,   0.00490,  -0.00732,  -0.02362,  -0.00732,  -0.02566,   0.00490,  -0.02158,   0.00082,  -0.01955,  -0.00529,  -0.00936,  -0.00936,  -0.02362,   0.01915,   0.02527,  -0.02769,   0.01915,  -0.02566,  -0.00529,  -0.05621,  -0.02566,  -0.02973,  -0.05214,   0.00693,  -0.00121,   0.02527,   0.00693,  -0.00121,  -0.05417,  -0.01751,   0.05582
   0.00082,  -0.04806,   0.01915,   0.06804,  -0.04806,  -0.06436,   0.00082,   0.00286,  -0.00529,  -0.02973,  -0.02566,  -0.06436,  -0.00732,   0.00897,   0.01712,   0.03138,  -0.07454,  -0.02158,  -0.01140,   0.00286,   0.00286,   0.01508,  -0.00529,   0.00286,  -0.14379,  -0.00121,   0.07008,  -0.01955,  -0.00121,  -0.01547,   0.03341,   0.01304,   0.02119,  -0.00732,  -0.05214,  -0.00325,   0.00693,   0.02730,  -0.02566,   0.02119,  -0.01547,   0.00490,   0.07211,  -0.06843,   0.17192,  -0.03584,  -0.03584,   0.02323,  -0.00325,   0.00082,  -0.01955,  -0.00529,  -0.05621,  -0.01547,  -0.03788,  -0.01547,   0.01304,   0.04156,  -0.00936,   0.02119,  -0.06639,   0.04971,   0.03952,   0.03341,  -0.00121,  -0.06232,   0.03138,  -0.00121,  -0.01751,   0.02934,   0.03749,  -0.03380,  -0.04195,  -0.04806,  -0.03991,   0.03749,  -0.01751,   0.02527,   0.01508,   0.03952,  -0.01955,  -0.02973,  -0.09287,   0.00082,  -0.07250,  -0.02973,   0.00286,   0.02323,   0.03138,  -0.05825,   0.01712,  -0.05417,  -0.02973,  -0.00936,  -0.00732,  -0.00121,   0.00693,  -0.01344,   0.02730,   0.02323,  -0.00529,   0.03341,   0.00693,  -0.04399,  -0.00732,   0.02934,   0.01915,  -0.00121,   0.00082,   0.02730,   0.05582,   0.08841,   0.00490,   0.01712,   0.01915,   0.00286,  -0.05621,  -0.04806,  -0.02973,   0.02323,   0.00490,  -0.00325,   0.03341,   0.01915,  -0.02158,  -0.00936,  -0.02769,  -0.00529,   0.00693,   0.05174,   0.01915,  -0.00529,  -0.04195,   0.00897,  -0.01547,   0.02730,  -0.08065,   0.08637,  -0.03177,   0.00082,  -0.05010,   0.02527,  -0.02158,   0.05582,   0.00082,  -0.01344,  -0.01751,   0.04563,  -0.00936,   0.01915,  -0.01344,  -0.01140,   0.00286,   0.00693,  -0.01140,   0.02934,   0.01101,   0.03341,  -0.00936,   0.02730,  -0.04602,  -0.01955,  -0.00121,   0.00897,   0.00490,  -0.00121,   0.06397,  -0.03991,  -0.04602,   0.00897,   0.07008,  -0.03380,  -0.02362,   0.01304,   0.05378,   0.00082,  -0.01140,   0.02323,   0.02730,   0.01304,  -0.00121,   0.01304,  -0.02769,   0.00286,  -0.00529,  -0.03177,   0.03952,   0.00286,  -0.01344,  -0.02362,  -0.00121,  -0.02566,  -0.00121,   0.04971,   0.06804,  -0.02362,  -0.00529,  -0.02973,   0.00082,  -0.01344,  -0.01955,  -0.01955,  -0.02362,  -0.00936,  -0.00121,  -0.02566,   0.00693,  -0.02973,  -0.07250,  -0.00936,   0.02323,   0.09044,   0.07619,   0.02323,  -0.01751,   0.01915,   0.02527,  -0.06639,  -0.00732,   0.00897,   0.01304,   0.00082,  -0.02158,   0.00082,   0.00082,  -0.01547,  -0.03991,   0.01101,  -0.02769,  -0.00325,  -0.01140,  -0.01547,  -0.00529,  -0.03177,  -0.00121,   0.06397,  -0.03991,  -0.01955,   0.01712,   0.03749,   0.00693,  -0.05010,  -0.00936,   0.16784,   0.03749,   0.00693,  -0.03177,  -0.02973,  -0.01547,  -0.02566,  -0.01955,   0.01712,  -0.00732,   0.02323,   0.00897,   0.02730
  -0.03177,  -0.00121,   0.02934,  -0.00529,   0.01101,  -0.01547,   0.02119,  -0.00936,   0.01101,  -0.01751,  -0.01344,   0.00082,  -0.01751,  -0.03788,   0.03545,   0.00286,  -0.02566,  -0.00325,   0.03545,  -0.00936,  -0.00529,   0.01712,   0.01101,   0.02119,  -0.02158,  -0.02158,   0.03138,  -0.02158,  -0.00325,  -0.01547,  -0.00732,  -0.01344,  -0.02769,  -0.09695,  -0.00936,  -0.01955,   0.00286,   0.05989,  -0.00325,   0.01915,  -0.01751,  -0.00732,   0.02323,   0.00897,   0.04767,   0.03545,  -0.01751,   0.01508,  -0.00121,   0.00490,   0.01915,   0.00082,  -0.01344,  -0.05010,   0.00897,  -0.01547,   0.00693,  -0.04195,   0.08433,  -0.02362,  -0.05621,  -0.05621,   0.03545,  -0.06639,  -0.01751,   0.03341,  -0.02362,   0.01101,   0.02323,  -0.03991,  -0.00121,   0.07619,  -0.02973,  -0.02973,   0.03341,   0.02119,   0.05174,  -0.01140,   0.05174,   0.09655,  -0.03177,  -0.01751,  -0.00325,   0.04767,   0.01101,  -0.03788,   0.02323,  -0.00936,  -0.00529,  -0.00325,   0.00897,  -0.02769,  -0.02973,  -0.01547,  -0.01547,  -0.01547,  -0.05010,   0.03749,   0.00693,   0.04156,   0.00490,   0.01915,   0.11285,   0.00082,   0.02119,   0.03749,  -0.00732,  -0.01547,   0.01304,   0.06193,  -0.01140,   0.03138,  -0.01547,  -0.03788,  -0.02362,   0.03952,   0.01915,  -0.06028,   0.01712,  -0.00121,   0.01101,   0.00490,  -0.01140,   0.00082,  -0.01344,  -0.02973,  -0.02362,  -0.03380,   0.00693,  -0.11935,  -0.01140,   0.02119,  -0.01140,  -0.01140,  -0.02158,   0.00286,  -0.01547,  -0.02769,  -0.00732,  -0.05214,  -0.00529,   0.04563,   0.01712,   0.00082,   0.00693,  -0.01751,  -0.02973,  -0.02362,   0.00286,   0.06397,  -0.01140,   0.02730,  -0.03177,   0.00082,  -0.02362,  -0.02566,   0.00490,   0.03545,   0.00490,   0.00897,   0.00082,  -0.03177,  -0.04399,  -0.02158,  -0.01140,  -0.03584,   0.05378,   0.00693,   0.01712,   0.02119,   0.02934,  -0.02362,   0.02730,  -0.05010,   0.04156,   0.03545,  -0.00529,   0.03138,  -0.03380,   0.00693,   0.02323,  -0.02769,   0.02323,  -0.00732,   0.01304,   0.02934,  -0.03788,  -0.01955,   0.02730,  -0.02362,  -0.01547,  -0.00732,   0.00286,  -0.07861,   0.04156,  -0.05214,   0.03341,   0.03138,   0.01915,   0.00286,   0.01508,  -0.02158,  -0.01955,   0.00082,  -0.05010,   0.00490,  -0.02566,  -0.02158,  -0.01547,  -0.02158,  -0.02158,   0.04971,  -0.00732,  -0.00936,   0.01304,  -0.01140,   0.00897,  -0.01140,   0.00082,   0.00693,   0.01101,   0.09859,  -0.00121,   0.01712,   0.00286,   0.00082,   0.02730,   0.00490,  -0.04195,   0.02323,  -0.02769,  -0.02362,   0.02730,  -0.01751,  -0.01547,   0.04156,  -0.04602,   0.00286,   0.05582,   0.01101,   0.03341,  -0.03991,  -0.01140,  -0.01547,  -0.01140,  -0.00732,  -0.00325,  -0.00529,   0.02527,  -0.02973,   0.00082,   0.00693,   0.00693,  -0.07250,  -0.02158,  -0.00529
   0.01101,  -0.03380,  -0.00121,  -0.00732,   0.05378,   0.02934,   0.02730,   0.01508,   0.01712,  -0.01547,   0.03749,   0.01712,  -0.00529,   0.02730,   0.02934,  -0.02769,  -0.02769,   0.05582,   0.04360,   0.02119,  -0.02973,  -0.00325,   0.05785,  -0.02566,   0.06804,  -0.01344,  -0.08880,  -0.00121,  -0.01955,  -0.01344,  -0.00121,   0.00490,  -0.00529,  -0.00325,  -0.01751,   0.00490,  -0.06436,  -0.02769,   0.00490,  -0.01344,   0.02323,  -0.01140,  -0.03788,  -0.01140,  -0.05010,   0.03749,   0.00286,   0.00082,  -0.01955,   0.01508,  -0.01547,  -0.02362,   0.01915,  -0.03991,  -0.04602,  -0.00732,  -0.01751,  -0.00121,   0.02119,  -0.00732,  -0.00936,   0.01915,  -0.02158,  -0.01955,  -0.00936,  -0.05621,  -0.00121,  -0.00936,  -0.00325,  -0.00936,  -0.04195,   0.03749,  -0.00529,  -0.02362,   0.09859,  -0.01344,  -0.05621,  -0.01751,  -0.01751,   0.01712,  -0.01140,   0.01304,  -0.04195,   0.02730,   0.05378,   0.01712,   0.01712,   0.17803,  -0.03584,  -0.00529,   0.02527,  -0.07454,  -0.01955,   0.02323,  -0.04602,   0.00286,   0.01304,  -0.00936,   0.00286,   0.00286,   0.01508,  -0.00121,  -0.04602,   0.01712,   0.00897,  -0.00529,  -0.00529,  -0.01955,  -0.00121,   0.02119,   0.00082,   0.03341,  -0.01751,   0.04563,   0.01712,   0.00693,  -0.00936,   0.01304,  -0.03584,  -0.02158,  -0.00732,   0.01915,  -0.03584,  -0.01344,   0.02527,   0.01101,  -0.00325,  -0.02769,   0.05582,  -0.02362,  -0.00121,  -0.04806,   0.02934,   0.03545,  -0.00936,   0.01915,  -0.03380,  -0.00732,  -0.01140,  -0.00732,   0.00286,   0.05174,   0.04971,   0.01304,   0.00693,  -0.00325,  -0.01140,   0.01304,  -0.01344,   0.03545,  -0.00325,   0.01712,  -0.00121,  -0.01344,  -0.00936,   0.00490,   0.05785,  -0.01751,  -0.00121,   0.00082,   0.00286,  -0.02973,  -0.00732,  -0.03380,   0.00693,   0.03341,   0.00693,  -0.00732,   0.08230,   0.00693,  -0.01955,   0.01101,  -0.05010,  -0.01344,  -0.02973,   0.02119,  -0.05417,   0.01508,   0.01101,  -0.01140,   0.01101,  -0.07250,  -0.04195,   0.05378,  -0.06843,  -0.01140,  -0.00936,  -0.00325,   0.04156,  -0.01344,   0.01101,  -0.00325,  -0.00936,  -0.01751,  -0.02566,  -0.00325,  -0.00325,  -0.00325,   0.04156,  -0.04399,  -0.05621,  -0.00529,   0.02323,  -0.06436,  -0.03380,  -0.00936,   0.02730,   0.01101,  -0.03991,   0.02730,   0.01101,   0.01712,   0.05378,   0.01304,   0.03341,   0.01712,  -0.00325,   0.03138,  -0.08880,  -0.00936,   0.00693,  -0.03584,   0.03952,   0.00897,   0.00490,  -0.01751,  -0.02566,   0.01508,  -0.00732,   0.01304,  -0.00936,   0.02527,  -0.02769,   0.00490,  -0.01140,  -0.05417,   0.07008,  -0.02973,   0.01101,   0.02730,   0.00693,   0.02527,  -0.01344,   0.00082,  -0.00121,   0.02527,  -0.01140,  -0.00936,  -0.02362,   0.02527,   0.00693,   0.01915,   0.01712,  -0.00732,   0.00286,  -0.04602
   0.01508,   0.00286,  -0.06436,   0.02527,   0.03952,  -0.03380,   0.01915,  -0.02362,   0.01101,   0.00490,  -0.01955,   0.00490,  -0.02362,   0.04156,   0.05174,   0.01915,  -0.03788,  -0.01344,  -0.01547,   0.03545,   0.01712,  -0.01140,   0.03138,  -0.02158,  -0.01140,   0.02119,  -0.00732,  -0.01140,   0.02934,   0.04360,  -0.05825,  -0.05010,   0.02323,   0.04767,   0.00897,   0.04971,  -0.01344,  -0.00529,   0.21062,   0.02527,   0.01712,  -0.05417,  -0.09084,   0.04156,   0.01304,  -0.00325,  -0.05214,   0.02934,  -0.02566,  -0.00936,   0.02119,  -0.02566,   0.04156,   0.01712,  -0.02566,   0.05378,   0.08433,  -0.00325,  -0.01547,  -0.04399,  -0.00732,  -0.04399,  -0.02769,  -0.01344,   0.02527,   0.02119,   0.01712,   0.01508,   0.00897,  -0.02769,  -0.01955,   0.02934,   0.05989,   0.00897,   0.04767,  -0.06639,  -0.00325,   0.03138,  -0.01547,  -0.00325,  -0.00325,  -0.01547,  -0.02566,  -0.02973,   0.00490,   0.00693,  -0.01140,   0.05378,  -0.03177,   0.01304,   0.01712,  -0.03177,  -0.02769,   0.01712,  -0.02973,   0.01304,   0.02934,   0.01508,   0.04563,   0.00693,   0.00082,   0.01101,   0.02119,  -0.01955,  -0.10509,  -0.02566,   0.01101,  -0.01344,   0.09859,  -0.02362,  -0.02566,   0.02323,   0.00897,  -0.07861,   0.01101,   0.03138,  -0.03788,  -0.00529,  -0.00529,  -0.02769,   0.00286,   0.00490,   0.00082,  -0.03380,   0.00897,  -0.00936,  -0.00936,  -0.00325,  -0.05825,  -0.01547,  -0.01140,  -0.01751,   0.01508,  -0.00325,   0.02730,  -0.01547,  -0.01547,   0.00693,   0.01508,  -0.00121,   0.00082,   0.02730,  -0.04195,  -0.00529,   0.00897,  -0.00121,   0.00082,   0.01101,   0.02119,   0.00082,  -0.02769,   0.02730,   0.03545,  -0.02769,   0.01712,   0.00082,  -0.06639,  -0.00121,   0.00693,   0.01304,  -0.00529,  -0.00732,   0.00490,   0.01508,   0.03952,   0.01101,   0.08841,   0.01101,   0.00693,   0.03545,   0.00897,  -0.03991,  -0.06028,  -0.05825,   0.04563,   0.01304,  -0.03177,   0.01712,   0.05989,   0.00286,  -0.00121,  -0.02769,   0.01915,   0.00286,  -0.02158,  -0.03380,   0.02527,  -0.02566,   0.03545,  -0.02566,   0.02730,   0.04156,   0.03749,   0.07008,  -0.10509,   0.04971,  -0.00325,  -0.02362,   0.04971,   0.00286,  -0.06028,  -0.03584,   0.01304,  -0.02566,   0.00286,  -0.03380,  -0.01955,   0.03138,   0.00490,   0.01101,  -0.02158,   0.00286,   0.01304,  -0.03991,  -0.00121,   0.00490,  -0.04399,   0.00286,   0.03749,   0.03341,   0.00286,  -0.07250,   0.00286,  -0.02362,   0.00693,   0.04156,   0.00693,   0.01712,  -0.06436,   0.03749,  -0.00325,   0.01508,   0.00897,   0.02119,  -0.00529,  -0.04399,   0.04156,   0.00082,   0.00897,  -0.02769,   0.02527,   0.11081,  -0.01547,   0.00693,   0.02730,  -0.00936,   0.01508,  -0.01955,   0.03545,  -0.01955,  -0.03584,  -0.00121,  -0.01140,   0.02323,   0.00693,  -0.01751
  -0.03380,  -0.07047,   0.01915,  -0.04195,   0.01508,  -0.00529,  -0.05825,  -0.05417,  -0.02973,   0.00490,  -0.00529,   0.00286,  -0.02362,   0.00897,   0.01508,  -0.00732,   0.02527,   0.02934,  -0.03788,   0.01101,   0.00082,   0.00082,   0.00897,  -0.00936,   0.04971,   0.01101,   0.03952,   0.01101,  -0.00121,  -0.01547,   0.04156,   0.03341,  -0.04399,   0.00693,   0.00082,  -0.00529,  -0.00936,   0.03138,  -0.00732,  -0.03788,  -0.03177,  -0.00529,  -0.02973,  -0.01547,   0.00490,  -0.01140,   0.00286,  -0.00121,  -0.02158,   0.00490,   0.04156,  -0.02158,  -0.02362,  -0.05621,  -0.07861,  -0.04195,   0.02119,  -0.00936,   0.07619,  -0.01344,   0.05582,  -0.01955,   0.05989,  -0.01751,   0.00490,  -0.07861,  -0.00121,   0.01101,  -0.00936,  -0.01751,  -0.05010,   0.04767,  -0.01344,   0.04156,   0.04360,   0.00490,  -0.00121,  -0.02362,  -0.00529,  -0.06843,  -0.07250,  -0.04399,  -0.03177,  -0.02362,  -0.01955,   0.04971,   0.01915,  -0.00732,  -0.03788,   0.04563,  -0.00936,   0.05582,  -0.00121,  -0.00732,  -0.00732,  -0.04602,  -0.05010,  -0.12343,  -0.08065,  -0.04399,   0.00490,   0.04971,  -0.00936,  -0.05825,  -0.00121,  -0.00732,   0.01915,   0.03952,   0.02119,  -0.07658,  -0.00325,  -0.00529,  -0.03380,   0.02527,   0.04767,   0.01712,  -0.04806,   0.04971,  -0.03991,   0.04767,   0.00897,  -0.03788,  -0.00121,  -0.06028,  -0.03991,  -0.04602,  -0.02973,   0.01712,   0.01304,   0.06397,   0.01304,  -0.05621,  -0.07250,   0.04156,   0.03341,   0.01101,  -0.05417,   0.07211,   0.01508,   0.02323,  -0.07861,   0.00897,  -0.09084,   0.06193,   0.02934,  -0.03380,   0.02934,   0.01304,   0.00082,  -0.02769,  -0.01140,   0.02934,  -0.00529,  -0.00732,   0.00897,   0.01508,  -0.03177,   0.03138,  -0.01955,  -0.01547,   0.02527,   0.03952,   0.02934,  -0.01344,   0.01304,  -0.01751,   0.00286,   0.00286,   0.01508,  -0.09084,  -0.01140,  -0.01140,  -0.04399,   0.01304,  -0.09287,  -0.00936,  -0.11120,  -0.02362,   0.03341,  -0.01140,   0.00490,  -0.01140,   0.01508,  -0.04195,   0.08637,  -0.01955,   0.04156,  -0.01751,  -0.03584,   0.01508,   0.09248,  -0.01140,  -0.05417,   0.00693,  -0.03788,   0.03138,  -0.01955,  -0.13361,  -0.00529,  -0.02769,  -0.08472,  -0.03788,   0.04156,   0.02323,   0.00082,  -0.02973,   0.01101,   0.00490,  -0.05621,  -0.02769,   0.00897,  -0.00529,   0.02323,  -0.02362,   0.00286,   0.02119,   0.03138,  -0.05621,  -0.00325,  -0.02158,  -0.01344,   0.02527,  -0.03177,   0.00082,  -0.01547,  -0.03788,  -0.05010,  -0.00121,   0.03749,   0.00286,   0.00897,   0.02527,  -0.03788,  -0.00936,   0.00082,  -0.07250,   0.01712,  -0.02158,  -0.02566,  -0.16009,  -0.07047,   0.01508,  -0.01140,  -0.00529,  -0.01344,  -0.00325,   0.02934,  -0.01751,  -0.03584,  -0.00325,  -0.01140,   0.00693,  -0.04602,  -0.04399,   0.02934,  -0.06843
  -0.00732,  -0.01344,  -0.01547,  -0.05417,   0.01304,  -0.00121,   0.02934,  -0.00732,  -0.03584,   0.02527,  -0.01140,   0.07415,   0.00286,  -0.01344,   0.03138,  -0.05214,  -0.01140,   0.00286,   0.01101,   0.00693,   0.04360,  -0.00529,  -0.01140,  -0.02362,   0.04971,   0.03341,  -0.09084,   0.00082,   0.00897,  -0.01140,   0.02934,  -0.02362,   0.00490,   0.03952,   0.00693,   0.04563,  -0.00325,   0.00490,   0.05378,  -0.00936,  -0.00529,   0.00490,  -0.02158,  -0.00121,  -0.00529,  -0.04602,   0.00490,   0.02934,  -0.03177,   0.00490,  -0.00529,   0.02730,  -0.00121,  -0.01547,   0.04767,  -0.04806,  -0.02158,  -0.03788,  -0.02362,   0.01508,   0.04563,  -0.02362,   0.04563,  -0.05010,   0.00082,   0.05174,  -0.00529,  -0.02973,  -0.02769,  -0.01140,   0.05174,  -0.01140,  -0.00732,  -0.00325,   0.02934,   0.03545,  -0.02769,  -0.00121,   0.04767,   0.00897,  -0.04399,   0.05378,   0.02934,   0.08026,   0.00082,  -0.01547,  -0.01344,  -0.01140,  -0.00936,   0.00082,   0.03341,  -0.04806,  -0.02362,   0.01304,   0.01304,   0.02323,   0.01101,   0.01508,   0.03341,  -0.03380,  -0.03991,   0.02730,  -0.01547,   0.00897,  -0.03788,   0.01304,  -0.04602,   0.00286,  -0.03380,  -0.03788,   0.01101,  -0.00936,   0.03749,   0.01712,  -0.00936,  -0.01344,   0.01712,  -0.01547,   0.03341,  -0.02566,   0.11081,  -0.00936,   0.06600,  -0.01547,  -0.03177,  -0.01344,  -0.01955,  -0.00529,   0.00897,   0.00082,  -0.03788,   0.02527,   0.04767,  -0.00325,   0.03545,   0.05989,   0.00286,  -0.01140,   0.01101,   0.01508,   0.04767,  -0.02769,   0.02323,  -0.05621,   0.03138,  -0.00121,  -0.03380,  -0.01547,   0.03341,   0.01508,  -0.01547,  -0.06639,  -0.01140,   0.01304,   0.01101,  -0.05417,  -0.02566,   0.01915,  -0.01140,   0.00693,   0.04563,  -0.03177,  -0.01140,  -0.01344,   0.04767,  -0.00529,  -0.05825,  -0.02973,   0.00693,  -0.04806,  -0.00936,  -0.01547,   0.00082,  -0.03991,  -0.02973,  -0.00732,  -0.01547,  -0.01751,  -0.04399,  -0.01547,  -0.06843,   0.00693,  -0.01344,  -0.01751,  -0.09898,  -0.01955,   0.00082,  -0.01547,   0.00082,   0.03341,   0.09655,  -0.01751,  -0.00325,  -0.03788,  -0.02566,  -0.06843,  -0.01547,   0.03749,   0.00082,  -0.02973,  -0.00529,   0.09044,  -0.00936,   0.03341,   0.01915,  -0.01547,  -0.00325,   0.00082,   0.01915,  -0.00121,  -0.02158,   0.00286,   0.01101,   0.01712,  -0.01751,   0.01712,  -0.01955,   0.02119,  -0.03991,   0.00082,  -0.02973,  -0.03788,  -0.05621,   0.00693,  -0.01547,  -0.06436,  -0.00936,  -0.00325,  -0.07250,   0.01915,   0.05174,   0.03545,  -0.04399,  -0.05417,   0.00490,  -0.01547,   0.02730,   0.01508,  -0.06436,   0.03749,  -0.08269,   0.01304,  -0.00121,  -0.01751,  -0.00325,  -0.01955,   0.00490,  -0.00936,  -0.03788,  -0.01955,  -0.00325,  -0.02769,  -0.00732,  -0.06639,   0.04767,  -0.03584
   0.00897,   0.02730,   0.01304,   0.02323,  -0.03380,   0.01712,  -0.01344,  -0.00732,   0.04360,  -0.00121,   0.07415,  -0.01547,   0.00082,   0.00082,   0.00286,  -0.01751,  -0.05010,  -0.02362,   0.00693,  -0.00732,   0.00082,   0.01304,  -0.00325,  -0.01140,   0.02934,  -0.00121,  -0.02769,   0.02730,  -0.00936,   0.01508,  -0.00325,  -0.02566,  -0.05417,  -0.05825,   0.01712,  -0.01751,  -0.06028,  -0.04399,   0.04767,  -0.00936,  -0.02769,  -0.03177,  -0.01751,   0.00897,   0.02119,  -0.01955,   0.01304,  -0.00325,  -0.00325,   0.00693,   0.09655,   0.01915,  -0.04602,  -0.00121,   0.00082,   0.06193,  -0.01140,  -0.02973,  -0.01955,  -0.00325,  -0.02362,  -0.01547,   0.00693,   0.00490,  -0.00325,  -0.02769,  -0.01140,   0.00082,  -0.05417,   0.00897,  -0.01140,  -0.00732,   0.01915,   0.01712,   0.00693,  -0.00732,  -0.02158,   0.01304,   0.01712,  -0.02566,  -0.03177,  -0.01547,   0.00693,   0.00693,   0.01101,   0.02119,   0.00490,  -0.01955,  -0.00529,  -0.01140,  -0.00121,  -0.02362,   0.00082,   0.01101,   0.03138,  -0.00325,  -0.01955,  -0.01547,   0.01101,   0.00693,   0.01712,   0.01915,  -0.02362,  -0.03991,   0.00286,   0.01508,  -0.02769,   0.00082,   0.01915,  -0.03177,  -0.02566,   0.01712,   0.02934,  -0.01140,   0.00490,   0.01101,  -0.00936,  -0.00936,  -0.00936,  -0.03380,  -0.00732,  -0.00121,  -0.01955,  -0.02973,   0.00082,  -0.00529,  -0.01140,  -0.01140,   0.01915,  -0.00529,   0.03138,  -0.01344,  -0.06028,  -0.02769,  -0.02362,  -0.00732,   0.06397,  -0.02566,  -0.03177,   0.02934,  -0.02362,  -0.00325,  -0.02769,   0.02730,   0.00082,   0.00897,   0.00286,   0.02119,   0.01304,  -0.01140,   0.00490,  -0.03991,  -0.00529,  -0.01751,  -0.01547,   0.00897,  -0.00325,   0.03749,   0.01915,  -0.16009,   0.05378,   0.00897,   0.00082,  -0.01344,  -0.01140,  -0.00325,  -0.01547,  -0.00325,  -0.00732,  -0.00732,  -0.01344,  -0.05825,  -0.02973,  -0.01751,  -0.01140,   0.00082,   0.01101,  -0.01955,  -0.02362,  -0.01751,  -0.00121,  -0.01344,  -0.01751,   0.00693,  -0.00121,   0.00082,  -0.00529,   0.01712,  -0.02973,   0.01508,   0.01508,  -0.03991,  -0.00325,   0.03749,   0.03341,   0.03138,   0.01712,  -0.02769,   0.00082,  -0.01344,  -0.02158,  -0.03991,  -0.07250,  -0.00529,  -0.00936,  -0.00732,  -0.03788,  -0.01547,   0.01915,  -0.04399,   0.00490,  -0.01955,   0.09859,  -0.00529,   0.02323,   0.00286,  -0.00732,   0.05785,   0.01304,  -0.04399,  -0.00732,   0.04360,  -0.00732,   0.00286,  -0.00936,   0.02934,  -0.03991,  -0.02973,  -0.03380,   0.00897,  -0.02973,  -0.00121,   0.00490,   0.00897,  -0.00529,   0.00693,   0.03749,  -0.01547,  -0.00121,   0.04360,   0.00286,  -0.03380,  -0.00732,  -0.00325,   0.03749,  -0.01344,  -0.00936,  -0.00936,   0.00082,   0.03341,   0.00490,   0.00693,  -0.01344,   0.02934,   0.04563,  -0.00936
   0.00082,   0.01508,  -0.02362,  -0.02566,  -0.01140,  -0.02158,   0.00897,   0.00082,   0.02730,   0.02934,   0.01101,  -0.00732,  -0.06028,  -0.00121,  -0.01344,   0.01304,   0.05174,  -0.00325,  -0.05010,  -0.00732,  -0.02362,   0.01304,  -0.02973,  -0.05010,   0.01508,  -0.01344,   0.01508,   0.00897,   0.00490,  -0.05010,  -0.01751,   0.01712,  -0.00936,  -0.00529,  -0.01140,   0.06397,  -0.01140,  -0.03380,   0.00082,   0.00693,  -0.02362,  -0.03991,   0.00082,  -0.01547,   0.01304,   0.00286,  -0.01547,  -0.04195,  -0.06843,  -0.00325,   0.01915,  -0.03788,  -0.04399,  -0.01751,   0.00082,  -0.02769,   0.03545,  -0.00121,   0.00693,   0.04563,  -0.04806,  -0.00936,   0.02730,  -0.02362,   0.00082,  -0.06028,   0.02730,   0.03952,   0.00490,  -0.00325,  -0.00325,  -0.00936,  -0.03584,   0.02730,  -0.00529,   0.00693,  -0.01751,   0.02730,  -0.01751,  -0.03177,   0.00082,  -0.00529,  -0.00936,  -0.01344,  -0.04195,  -0.00121,  -0.01547,   0.01101,   0.03952,   0.01915,  -0.00529,  -0.03584,  -0.01955,   0.00693,  -0.04399,   0.03341,   0.00286,   0.01101,   0.02730,  -0.00121,   0.04156,  -0.03380,   0.00082,   0.02730,  -0.00936,   0.00693,   0.00082,   0.14137,   0.02730,  -0.01547,  -0.01140,  -0.00121,  -0.02158,  -0.01547,  -0.00325,  -0.00121,  -0.00936,   0.00490,  -0.01547,  -0.01751,  -0.07250,   0.01101,  -0.02566,  -0.03788,   0.02527,  -0.04806,  -0.01547,   0.00082,   0.01101,  -0.01955,   0.00693,  -0.05010,   0.00082,   0.02934,  -0.02973,  -0.06232,   0.00082,  -0.00936,  -0.00529,   0.01508,   0.03545,  -0.01751,   0.00490,   0.00897,   0.04971,   0.00693,   0.03952,   0.05582,   0.01915,  -0.03788,  -0.02769,  -0.01547,   0.00693,  -0.01344,   0.02527,   0.01712,  -0.01140,  -0.01140,  -0.00121,   0.00082,  -0.00936,  -0.05214,   0.02934,  -0.00732,  -0.06436,  -0.03380,  -0.02158,   0.05989,   0.00897,  -0.00121,  -0.01751,  -0.01344,  -0.01344,  -0.01547,  -0.02973,  -0.04806,  -0.02566,  -0.00325,   0.00897,   0.03138,  -0.03177,  -0.00936,   0.01508,   0.02934,  -0.01140,   0.00693,   0.00082,   0.00693,   0.01915,  -0.02158,   0.02119,   0.00286,  -0.02973,   0.02119,   0.00286,  -0.01547,  -0.02973,   0.01712,   0.00490,  -0.01955,  -0.00529,  -0.00529,  -0.01140,   0.01304,   0.10267,  -0.03991,   0.00286,  -0.01547,  -0.00121,  -0.01547,   0.01101,  -0.00732,   0.00286,   0.01304,   0.04563,  -0.08472,  -0.00121,  -0.04806,  -0.01140,   0.02527,  -0.05417,  -0.03584,  -0.02566,  -0.02769,  -0.00732,  -0.01751,  -0.07658,  -0.00936,   0.00897,   0.02527,  -0.00732,   0.01101,  -0.01344,  -0.02362,   0.02730,   0.00286,   0.00286,  -0.00325,  -0.01547,  -0.01547,  -0.01344,  -0.00325,  -0.04602,  -0.00121,  -0.02769,  -0.02566,  -0.00936,  -0.02158,  -0.04806,  -0.00936,  -0.00529,   0.00082,  -0.05417,  -0.00732,   0.00693,  -0.00121
  -0.06843,   0.07619,   0.01915,  -0.02566,   0.01101,  -0.05214,   0.01915,   0.03138,   0.00897,   0.00286,  -0.02566,   0.05174,   0.00693,   0.01101,   0.01304,  -0.02362,  -0.05417,  -0.02973,  -0.01344,  -0.01547,  -0.03380,  -0.00325,   0.00693,   0.00693,  -0.00936,  -0.02158,   0.02323,   0.01508,  -0.01955,   0.00490,  -0.01751,   0.11489,  -0.04399,   0.05989,   0.02323,  -0.03177,   0.00897,   0.00490,   0.02730,  -0.03584,  -0.08880,   0.04360,  -0.02769,  -0.03584,  -0.08065,  -0.02973,  -0.02158,  -0.04602,   0.01712,  -0.00732,   0.02730,   0.00897,  -0.02362,   0.00693,  -0.02769,   0.02934,   0.01101,   0.01304,  -0.01955,  -0.07047,  -0.00325,   0.01712,   0.00286,  -0.08065,  -0.01547,  -0.01140,  -0.00732,   0.00082,  -0.02566,   0.04360,  -0.03788,   0.08433,  -0.00325,   0.03545,   0.04563,  -0.00121,   0.08433,  -0.01344,   0.02934,   0.03749,   0.00897,  -0.02566,  -0.01955,  -0.00325,  -0.02973,  -0.01751,   0.04360,   0.00082,  -0.02362,  -0.02973,  -0.00936,  -0.01140,   0.07008,   0.00490,  -0.08065,  -0.02973,  -0.01955,  -0.08269,  -0.04399,   0.04563,   0.04767,  -0.02158,  -0.00529,   0.00286,   0.02527,  -0.01140,   0.04971,   0.04563,   0.02527,   0.01101,   0.00693,  -0.03788,   0.01712,   0.01101,  -0.00325,   0.00490,   0.02323,  -0.00732,   0.05582,  -0.03991,  -0.02158,   0.03138,  -0.00121,  -0.05825,  -0.00121,  -0.00325,  -0.01751,   0.01304,   0.00082,  -0.12954,   0.00490,  -0.06436,  -0.01140,  -0.01955,  -0.03177,   0.00286,   0.03138,  -0.02566,   0.02323,   0.00490,   0.03545,   0.00490,   0.01712,  -0.05417,  -0.00732,   0.00490,   0.01508,   0.05378,   0.04156,   0.02119,   0.00082,  -0.02973,   0.01304,  -0.02158,   0.02730,  -0.00325,  -0.05214,  -0.00121,   0.01712,   0.00897,   0.01712,  -0.00529,  -0.05010,  -0.01140,  -0.00529,   0.00082,  -0.04195,  -0.01955,   0.02730,  -0.02362,   0.03341,  -0.00325,   0.00490,   0.09044,   0.01915,   0.01304,  -0.00732,   0.00490,  -0.00529,   0.03341,  -0.03380,  -0.00732,   0.02119,   0.02730,  -0.00529,  -0.03380,  -0.05417,  -0.00936,  -0.00529,  -0.03177,   0.00082,   0.00490,  -0.01751,  -0.03991,   0.00897,   0.01915,  -0.02769,  -0.00936,   0.04360,  -0.00529,  -0.02769,   0.05582,  -0.05417,   0.05378,  -0.02973,  -0.03788,   0.02934,   0.03341,  -0.00529,   0.03545,  -0.05417,   0.02730,  -0.00529,   0.00693,   0.02730,   0.05174,   0.01915,   0.00490,  -0.02158,  -0.01140,  -0.00732,   0.00897,   0.10063,   0.03952,   0.00082,   0.03545,  -0.03991,  -0.02158,  -0.02566,   0.02730,  -0.01751,  -0.05417,   0.01712,   0.01712,  -0.01344,   0.01915,   0.02119,   0.03341,  -0.00325,  -0.02362,  -0.04195,  -0.02362,  -0.03177,  -0.01751,  -0.01955,  -0.02566,  -0.03177,   0.00490,   0.01101,   0.01915,   0.02934,   0.01508,  -0.00325,  -0.03991,  -0.00121,  -0.08269
   0.01304,  -0.00325,  -0.02973,   0.01712,   0.01915,   0.00490,   0.05378,  -0.02566,   0.02323,   0.00693,   0.02119,   0.02323,  -0.02566,   0.00693,   0.03545,   0.00693,  -0.01344,  -0.00529,   0.02934,   0.00897,  -0.07454,  -0.00121,  -0.00936,  -0.03584,   0.00286,   0.05378,   0.00286,   0.00490,   0.00082,  -0.06028,  -0.00529,   0.02323,   0.02119,  -0.01140,  -0.00325,  -0.00325,  -0.02362,  -0.00732,  -0.05825,  -0.01140,  -0.02973,   0.01101,  -0.00121,   0.05378,   0.02323,   0.01508,   0.02323,   0.12507,  -0.05214,  -0.04195,   0.00490,  -0.07658,  -0.05621,  -0.04399,  -0.04806,  -0.00121,  -0.00325,  -0.04195,  -0.02158,  -0.01751,   0.11081,   0.00082,   0.02119,  -0.00529,  -0.02362,  -0.01547,   0.02934,   0.02730,  -0.00732,  -0.05010,   0.03952,  -0.00936,  -0.00121,   0.04971,   0.00286,   0.00897,   0.00286,   0.04156,  -0.01547,  -0.00529,   0.00897,  -0.00529,   0.00082,  -0.00325,   0.00897,   0.04156,   0.00286,  -0.02566,   0.08433,  -0.02158,  -0.01140,  -0.04195,  -0.03380,   0.01915,   0.03341,   0.00897,  -0.02362,  -0.00936,  -0.03177,  -0.04399,   0.03138,   0.04971,   0.00286,   0.02323,   0.00693,  -0.04195,  -0.00121,   0.01508,  -0.02158,  -0.02158,  -0.00529,   0.02119,  -0.01955,   0.00897,  -0.03177,  -0.01344,  -0.01751,   0.01101,   0.00286,  -0.03177,   0.04971,  -0.00121,  -0.00325,  -0.00325,  -0.03584,   0.01915,  -0.00325,   0.01712,  -0.00936,  -0.01344,   0.02527,  -0.05417,  -0.02158,   0.02527,   0.00082,  -0.06639,   0.01712,   0.02730,  -0.00529,  -0.01751,  -0.00121,   0.01508,  -0.03991,  -0.01140,   0.00082,  -0.05621,  -0.02158,  -0.03380,   0.02323,   0.03138,  -0.06436,  -0.01344,   0.02119,  -0.05010,  -0.00936,  -0.02973,   0.00897,  -0.00325,  -0.02769,  -0.01344,   0.00693,   0.04563,  -0.01751,   0.00897,  -0.01344,  -0.06232,   0.00490,   0.02730,   0.00897,  -0.00732,   0.02527,  -0.02362,  -0.01547,   0.00693,  -0.00529,   0.02730,  -0.00121,   0.00897,   0.04360,  -0.00732,   0.01304,  -0.02566,  -0.00529,  -0.01547,   0.01304,   0.01304,  -0.01140,   0.06397,   0.02119,   0.02323,   0.04156,   0.03545,  -0.01344,  -0.02362,   0.02323,  -0.02566,  -0.00325,  -0.02158,   0.04563,  -0.00732,   0.00286,  -0.00325,   0.01304,  -0.01140,   0.04156,  -0.02362,   0.00082,  -0.02158,   0.01304,  -0.00325,   0.03341,   0.00490,  -0.03991,  -0.03788,  -0.01344,   0.01915,  -0.00732,  -0.00121,   0.00286,   0.00490,  -0.03380,   0.00897,  -0.00529,  -0.01955,   0.00490,   0.01712,  -0.00325,   0.00490,   0.01915,   0.02119,  -0.01344,   0.01915,   0.00897,  -0.02973,   0.04767,   0.01915,   0.02934,   0.00490,  -0.03991,   0.00897,  -0.07454,  -0.00325,  -0.01751,   0.00490,   0.02323,   0.00897,  -0.15194,  -0.02362,   0.05582,   0.01508,   0.00490,  -0.01344,  -0.02362,   0.02323,   0.01304,  -0.00936
  -0.02362,  -0.02566,   0.02730,  -0.00121,  -0.00325,   0.00286,  -0.00529,   0.05174,   0.01915,  -0.05621,  -0.00529,   0.01508,  -0.02362,  -0.01547,  -0.00529,  -0.02362,   0.05378,  -0.07047,   0.02119,   0.01915,  -0.01140,  -0.01751,   0.00082,  -0.01547,   0.06397,  -0.00732,   0.01508,  -0.00121,  -0.06028,  -0.01547,  -0.05825,  -0.02769,   0.03138,  -0.02769,   0.01304,  -0.02769,   0.01101,  -0.00732,  -0.04195,  -0.00732,  -0.01955,   0.01712,  -0.00529,   0.01915,  -0.00529,  -0.01751,  -0.01751,  -0.01751,   0.00897,  -0.00121,  -0.00529,  -0.02158,  -0.01140,  -0.02769,  -0.10713,   0.06193,   0.00693,   0.03545,   0.02730,   0.03545,   0.01304,   0.01304,   0.01712,   0.00082,  -0.00529,  -0.05621,  -0.01751,  -0.01140,  -0.01344,  -0.00121,  -0.00936,  -0.03991,   0.03749,   0.01101,   0.01712,  -0.05010,   0.04563,   0.02119,  -0.02362,   0.01101,   0.00082,   0.03341,   0.01101,  -0.04602,   0.01508,   0.00897,  -0.01955,   0.00490,  -0.02158,  -0.02362,  -0.02566,   0.00082,  -0.02362,  -0.00732,  -0.01751,  -0.03380,  -0.01140,  -0.00732,   0.04767,  -0.03380,   0.01915,  -0.02566,   0.01915,   0.07822,  -0.01955,  -0.03788,   0.04971,  -0.01547,   0.00693,  -0.01140,  -0.01955,   0.01304,  -0.03380,   0.02119,  -0.00325,  -0.01344,  -0.02158,   0.01508,   0.00082,  -0.01140,  -0.01344,   0.00286,  -0.04195,  -0.03177,   0.00286,   0.02119,  -0.00732,   0.00082,   0.05582,  -0.02158,  -0.00936,  -0.02158,  -0.03788,  -0.00936,   0.01304,   0.01101,  -0.04399,   0.02323,   0.00490,  -0.02566,  -0.01140,   0.01304,  -0.01751,   0.05378,   0.01304,  -0.02973,  -0.00325,  -0.00121,  -0.00529,   0.01508,  -0.02973,  -0.02566,  -0.03380,  -0.00732,  -0.00325,   0.06600,  -0.00121,  -0.01344,  -0.00325,  -0.00121,  -0.01344,  -0.02769,   0.01101,   0.01304,  -0.00732,  -0.01751,   0.01304,   0.01304,   0.00897,  -0.01140,   0.02934,   0.01712,  -0.02566,   0.04156,  -0.01751,   0.00490,  -0.02566,  -0.00936,   0.01712,   0.01101,  -0.01140,   0.01508,  -0.02973,  -0.01547,  -0.01547,  -0.02158,   0.02527,  -0.01344,   0.04156,   0.01915,  -0.04602,   0.00286,   0.00082,  -0.00325,  -0.01955,  -0.01751,   0.04156,  -0.18860,  -0.00936,  -0.00325,  -0.05010,  -0.02362,  -0.00936,  -0.00936,   0.01915,   0.03138,   0.02119,   0.02119,   0.00082,  -0.01547,  -0.00121,  -0.00325,  -0.00529,   0.01304,  -0.01955,  -0.01955,  -0.01751,   0.03341,   0.02323,   0.01915,   0.00082,   0.14748,   0.06397,  -0.00732,   0.01915,   0.04767,  -0.04602,   0.01712,  -0.06639,  -0.06436,  -0.00121,   0.01915,  -0.01955,   0.01915,  -0.01751,   0.00490,   0.02527,  -0.00936,   0.01304,  -0.09084,  -0.02158,   0.00082,  -0.00529,  -0.07658,   0.02934,   0.00693,  -0.04195,  -0.00936,  -0.02973,   0.00082,   0.01915,   0.01304,  -0.01955,   0.08841,  -0.01547,   0.01712
  -0.03584,   0.02323,  -0.03177,   0.00286,   0.02119,  -0.00121,   0.00897,  -0.02566,  -0.00529,  -0.01751,   0.00897,   0.01508,  -0.01547,  -0.02362,  -0.06028,  -0.00732,   0.01915,  -0.02566,   0.04971,  -0.00732,   0.01508,  -0.00529,   0.00082,   0.04767,  -0.01344,  -0.11528,  -0.03584,  -0.02362,  -0.00732,  -0.03584,   0.10674,  -0.01955,  -0.03584,   0.01304,  -0.01547,  -0.01955,   0.00897,   0.00082,   0.02527,   0.02323,  -0.07861,  -0.03991,  -0.00529,  -0.01751,   0.01101,  -0.01547,   0.00490,  -0.05214,  -0.05214,  -0.13157,  -0.01140,  -0.02158,   0.05174,  -0.02158,   0.02323,   0.01915,   0.00897,  -0.04195,  -0.00121,  -0.03991,   0.00082,  -0.01140,   0.00286,  -0.02362,   0.07415,   0.00693,   0.01915,   0.03952,   0.00897,  -0.05214,   0.00693,   0.04156,   0.00693,  -0.02362,  -0.03584,   0.01508,  -0.00732,   0.01101,   0.00082,   0.01712,  -0.03380,   0.01915,  -0.01751,  -0.00121,   0.00082,  -0.01751,   0.01101,  -0.04602,   0.05989,   0.05378,   0.01508,   0.07211,  -0.03788,  -0.03584,   0.01304,   0.02527,  -0.00529,   0.04563,  -0.03788,   0.08637,   0.02934,  -0.01344,   0.00693,  -0.01955,   0.03545,  -0.00732,  -0.01547,  -0.00121,  -0.05417,   0.01101,   0.01101,  -0.04806,  -0.01140,  -0.00121,  -0.00121,  -0.03177,  -0.03788,   0.01101,   0.00082,   0.04971,   0.06193,  -0.02362,   0.00693,  -0.02973,   0.05582,  -0.03177,  -0.00732,  -0.01344,  -0.01344,  -0.01140,  -0.01547,   0.04563,  -0.00121,   0.05378,  -0.01955,  -0.09084,   0.00286,  -0.01140,   0.01915,  -0.00121,  -0.00732,  -0.00732,   0.02119,   0.00490,   0.01915,   0.05989,  -0.03177,  -0.02158,   0.00286,   0.04563,  -0.06028,   0.02323,  -0.01344,   0.01101,   0.09655,  -0.02973,  -0.01140,   0.01304,  -0.00325,   0.02323,   0.03749,   0.00286,  -0.02566,   0.00286,   0.03749,   0.02934,   0.01915,  -0.00732,  -0.01751,   0.01508,   0.04360,  -0.00121,  -0.01751,  -0.01547,   0.01101,  -0.00529,   0.03341,   0.00082,   0.02730,   0.02934,  -0.04195,   0.02119,  -0.01140,   0.06804,  -0.03584,  -0.00325,   0.01101,  -0.00529,  -0.03380,  -0.00529,   0.01915,  -0.00325,  -0.00732,  -0.02566,   0.00897,   0.02119,   0.00082,  -0.03380,  -0.00325,   0.01304,   0.01508,   0.06193,  -0.00529,  -0.00529,  -0.03788,   0.02119,   0.00082,  -0.00732,   0.01915,  -0.06639,  -0.06028,   0.00897,  -0.00529,  -0.01955,   0.03138,  -0.02362,  -0.01751,   0.01304,  -0.01140,  -0.01751,   0.01101,   0.03545,   0.00693,   0.01304,  -0.01547,  -0.00529,   0.02527,   0.00286,  -0.01344,   0.00082,  -0.01547,  -0.02769,  -0.00325,   0.07822,  -0.05825,   0.01101,  -0.00529,   0.00693,  -0.01751,  -0.03584,   0.02119,   0.03749,  -0.04806,   0.01304,  -0.02769,   0.01508,   0.01712,   0.02119,   0.03138,   0.00693,   0.00490,   0.01101,  -0.02362,  -0.00732,   0.01915,   0.00897
  -0.02158,   0.00286,  -0.01547,   0.03545,   0.00286,  -0.03177,   0.06600,  -0.05010,  -0.03788,  -0.02362,   0.02527,   0.05378,  -0.01751,   0.01304,   0.00286,   0.01304,  -0.00325,   0.03952,  -0.00936,  -0.02973,   0.03952,   0.07211,  -0.02158,   0.00490,   0.00082,   0.03341,  -0.00529,   0.01101,   0.01508,   0.04360,   0.00286,  -0.03177,   0.02119,  -0.06232,   0.00693,  -0.01751,  -0.02362,  -0.01140,  -0.05010,   0.02730,  -0.02769,  -0.02566,  -0.02362,   0.01712,  -0.04195,  -0.01751,  -0.02362,  -0.00529,   0.01712,   0.02323,   0.02934,   0.00490,  -0.03991,  -0.02566,   0.01712,   0.03138,  -0.00936,  -0.01344,  -0.00732,   0.00897,  -0.02973,  -0.01140,  -0.00732,  -0.00325,  -0.00529,  -0.00529,  -0.01547,  -0.01140,   0.02119,   0.00082,   0.00897,   0.00490,   0.00897,   0.03341,  -0.04602,  -0.03991,   0.05174,  -0.00936,   0.00490,  -0.00529,  -0.01751,  -0.02973,  -0.01547,   0.01915,  -0.00732,   0.01508,  -0.00121,   0.02527,   0.00693,  -0.00936,   0.00490,   0.02119,   0.01508,   0.00286,   0.01304,   0.03545,  -0.00732,   0.00286,   0.02934,   0.00897,   0.01304,  -0.01547,   0.00897,   0.04156,   0.01508,   0.02323,  -0.01140,   0.01304,  -0.02566,  -0.00732,  -0.03380,  -0.07658,  -0.00732,  -0.01547,  -0.00121,   0.02323,   0.03545,  -0.02362,   0.02527,   0.01101,  -0.01955,   0.01712,   0.02527,   0.03952,  -0.00121,  -0.01751,   0.03749,   0.02527,   0.02323,  -0.00325,   0.01304,  -0.00529,  -0.02362,   0.15766,   0.01712,   0.00490,   0.02323,  -0.00121,  -0.00936,  -0.00732,  -0.02362,   0.01508,   0.02119,  -0.00121,   0.00286,   0.02323,   0.01304,  -0.00121,   0.02527,   0.01304,  -0.01140,   0.00286,   0.04156,  -0.02158,   0.00490,  -0.03177,  -0.02362,  -0.00732,  -0.02158,   0.02119,   0.01304,   0.00286,   0.01304,  -0.01344,   0.02323,  -0.01955,   0.06600,   0.01508,  -0.04806,  -0.01955,  -0.00529,  -0.00121,   0.01915,  -0.03991,   0.00490,  -0.01955,  -0.03177,  -0.02566,  -0.00121,  -0.02769,   0.00286,   0.00490,  -0.02158,   0.00082,   0.04360,   0.00286,  -0.00121,   0.01915,   0.00693,   0.04360,  -0.00732,  -0.00529,  -0.00936,   0.04156,   0.05989,   0.05174,   0.05378,   0.01712,  -0.00325,  -0.02566,   0.04563,   0.02119,  -0.01751,  -0.01140,   0.00082,   0.02527,  -0.00121,   0.00897,   0.00693,  -0.00732,   0.03341,  -0.03177,  -0.00936,   0.00693,   0.01304,  -0.01751,  -0.00325,   0.03952,  -0.01955,   0.00286,   0.00693,  -0.00121,   0.00286,  -0.00529,   0.00490,   0.00490,  -0.02973,  -0.00529,   0.01101,   0.01712,   0.00897,   0.01101,  -0.01140,   0.02119,   0.00693,   0.01304,  -0.02158,  -0.01751,   0.02119,  -0.00529,  -0.00732,   0.01508,   0.02119,   0.03138,  -0.05010,  -0.00936,   0.00082,   0.05378,   0.00490,  -0.04195,  -0.01140,   0.02323,  -0.02973,  -0.02566,   0.02527,  -0.04399
  -0.00936,   0.01508,   0.01304,  -0.00325,  -0.03991,  -0.04195,  -0.01751,  -0.06232,  -0.03177,   0.02527,   0.00693,   0.01712,  -0.01140,   0.01101,   0.02934,  -0.02769,  -0.02362,  -0.01751,   0.00490,   0.04563,  -0.01140,  -0.03177,  -0.01344,   0.00286,  -0.00936,  -0.00732,   0.01712,  -0.01955,  -0.00121,  -0.00732,   0.02119,   0.00286,   0.01508,  -0.02769,  -0.00529,  -0.00936,   0.00490,  -0.01140,  -0.05825,  -0.02566,   0.01101,   0.01304,  -0.05214,  -0.00121,   0.04156,   0.00082,  -0.01751,  -0.02362,  -0.02566,  -0.03584,   0.06397,  -0.00732,   0.03749,   0.01101,  -0.01751,   0.00082,   0.00693,  -0.04806,   0.01304,   0.00286,  -0.02973,   0.00286,  -0.04806,  -0.01955,  -0.01547,  -0.03177,  -0.01344,  -0.00121,   0.02323,   0.00286,   0.01915,   0.03952,   0.11285,  -0.00121,   0.04360,  -0.01955,  -0.05010,  -0.01140,   0.03138,  -0.05825,   0.01304,  -0.01955,   0.07008,  -0.01547,  -0.10509,   0.01304,  -0.03177,   0.00082,  -0.00529,  -0.00529,   0.06804,  -0.02566,  -0.02362,   0.01712,   0.01101,   0.01101,  -0.01955,  -0.03177,   0.01712,   0.00897,  -0.01344,  -0.05417,  -0.01751,   0.02119,  -0.01955,   0.01915,  -0.03380,  -0.01751,   0.01508,  -0.03584,  -0.07250,  -0.00325,   0.01304,   0.00490,  -0.00732,  -0.03380,   0.00490,  -0.00936,   0.01915,   0.00897,  -0.02973,  -0.03177,   0.00897,   0.05378,  -0.01955,   0.05582,   0.00897,   0.01101,   0.05582,  -0.00121,  -0.02362,   0.03341,   0.04156,  -0.03991,  -0.02158,   0.02323,  -0.01955,  -0.01955,   0.22080,   0.01508,  -0.00732,  -0.01751,   0.00082,  -0.00732,   0.00490,  -0.01140,   0.00897,   0.00897,   0.01101,   0.04360,  -0.00325,   0.01712,  -0.10102,   0.00082,  -0.00121,   0.01304,   0.01508,   0.02323,  -0.01140,   0.08026,  -0.05010,  -0.03991,   0.00286,  -0.01344,   0.01508,  -0.00325,  -0.00325,   0.03138,  -0.01344,  -0.02158,  -0.03177,   0.00490,  -0.00529,  -0.02566,   0.00286,   0.00490,   0.00693,   0.02934,  -0.00121,   0.00490,  -0.00325,   0.01304,   0.04360,  -0.00936,  -0.02158,  -0.02362,  -0.02362,  -0.00936,   0.01101,   0.04156,   0.05378,   0.00286,  -0.00732,   0.02730,  -0.02158,  -0.02158,   0.00286,  -0.02769,   0.00897,   0.00490,   0.01915,  -0.00936,   0.01304,  -0.01751,   0.02730,  -0.02973,  -0.00325,  -0.03380,   0.03545,   0.01712,   0.01712,   0.01712,  -0.06028,  -0.00121,  -0.01547,   0.00286,  -0.01547,   0.00897,  -0.10102,   0.00286,   0.01304,  -0.02362,   0.05174,   0.00693,   0.00693,  -0.02769,   0.01304,  -0.03177,  -0.00325,   0.03952,  -0.01344,   0.03138,   0.08433,   0.02730,  -0.02769,   0.03341,   0.01101,  -0.00936,  -0.02769,   0.00082,   0.01101,   0.04360,  -0.01140,  -0.03177,  -0.02362,  -0.01140,   0.00490,  -0.03991,  -0.01751,   0.04767,  -0.00732,   0.14544,  -0.04602,   0.01101,  -0.17231,  -0.04806
  -0.02362,  -0.00529,   0.00897,  -0.07861,  -0.02973,   0.00286,  -0.02362,  -0.00121,  -0.04195,  -0.01751,   0.04563,   0.03952,   0.01915,   0.00490,   0.00490,   0.00897,  -0.00936,  -0.03584,  -0.00121,   0.01712,  -0.00325,   0.00490,  -0.01547,   0.02119,  -0.04399,  -0.00732,   0.00897,  -0.01344,  -0.01547,   0.01712,  -0.02566,   0.03138,  -0.01140,   0.01508,   0.00082,   0.02119,  -0.02362,   0.05989,   0.02323,  -0.11324,   0.02934,  -0.00121,  -0.00936,   0.00286,  -0.05621,  -0.04195,  -0.02973,  -0.00121,  -0.01547,  -0.00121,   0.02730,  -0.02362,  -0.01140,  -0.04602,  -0.02158,   0.02527,   0.01915,   0.04563,  -0.01955,   0.04360,  -0.01344,  -0.03584,  -0.05010,  -0.00732,   0.02934,  -0.04195,  -0.02158,  -0.00936,   0.04767,   0.02730,   0.01712,   0.04563,  -0.02362,   0.05174,   0.02323,  -0.00936,   0.02934,   0.03545,  -0.02362,  -0.07454,  -0.03788,   0.03545,   0.03952,   0.02730,  -0.03788,  -0.02973,  -0.00325,  -0.02158,   0.01304,   0.04767,  -0.10306,  -0.00325,   0.01101,   0.03749,   0.00286,  -0.04806,   0.01712,  -0.02362,   0.01915,   0.00286,   0.03545,   0.03749,   0.03341,   0.11896,   0.03341,  -0.02158,   0.00693,   0.01101,   0.01508,  -0.01751,   0.02323,  -0.04399,  -0.00732,   0.00693,  -0.02158,   0.00897,  -0.03584,  -0.07047,  -0.01955,   0.00082,   0.02730,  -0.03991,   0.02323,  -0.01344,  -0.03177,   0.02527,  -0.02566,  -0.01140,  -0.01344,   0.04563,  -0.00732,   0.00897,  -0.03177,   0.02119,   0.02527,  -0.02158,  -0.00732,  -0.03991,   0.04563,   0.03138,  -0.05214,   0.00897,  -0.00936,   0.00082,   0.02323,  -0.02566,   0.01915,  -0.00121,  -0.02362,  -0.01955,   0.01508,  -0.03177,  -0.04399,  -0.02158,  -0.02362,  -0.00121,  -0.05825,  -0.01955,  -0.02362,  -0.03788,   0.02934,  -0.01955,  -0.01140,   0.01101,   0.00286,   0.01712,   0.00286,   0.00082,  -0.00529,  -0.03380,  -0.00121,  -0.02566,  -0.05417,  -0.02973,   0.03749,   0.01712,  -0.01547,  -0.02362,   0.02730,  -0.01140,  -0.01344,  -0.00936,  -0.05825,  -0.02158,  -0.00121,  -0.02362,   0.13118,  -0.00732,  -0.03991,  -0.04806,   0.03545,  -0.03177,  -0.01547,   0.03341,   0.00082,   0.00082,  -0.03380,  -0.04195,   0.00897,  -0.00325,  -0.02566,   0.00897,  -0.03380,  -0.02769,   0.00082,   0.00082,  -0.01547,   0.00490,  -0.05621,   0.03952,  -0.00936,   0.01915,  -0.04399,  -0.00936,   0.02934,   0.01508,   0.02730,   0.03952,   0.01712,   0.02934,   0.01712,  -0.03380,  -0.01344,  -0.00936,  -0.00732,  -0.02158,  -0.02566,  -0.01140,  -0.01955,  -0.03788,   0.00286,  -0.01955,  -0.03584,  -0.00936,  -0.00325,   0.00897,   0.04156,  -0.01751,   0.06193,  -0.01955,  -0.02769,   0.05989,   0.00490,  -0.07250,   0.04563,   0.00082,  -0.00325,   0.00693,  -0.01547,   0.00693,   0.00490,  -0.01955,  -0.00732,  -0.01547,  -0.01344,  -0.00732
  -0.04195,   0.06600,   0.00897,  -0.01955,  -0.05621,  -0.02566,  -0.00732,   0.02934,  -0.01547,  -0.01751,   0.00490,  -0.04399,  -0.00529,   0.01712,  -0.01547,   0.03545,   0.08026,  -0.08065,  -0.01140,   0.02934,   0.01712,   0.01712,   0.03138,  -0.02158,  -0.13565,   0.01304,   0.04563,  -0.00325,   0.03749,   0.00897,  -0.02973,   0.01304,  -0.04399,   0.02730,   0.00286,   0.08841,   0.02527,   0.03138,  -0.03177,  -0.01547,   0.02119,  -0.01344,  -0.05010,   0.07008,   0.02527,  -0.00325,   0.06804,   0.05174,   0.01304,   0.00897,  -0.04195,   0.02527,  -0.07250,  -0.02769,   0.00082,  -0.02769,  -0.06436,   0.04563,  -0.01955,   0.01712,   0.01508,   0.07008,   0.07008,   0.01304,   0.00490,  -0.06843,   0.01304,  -0.00529,  -0.02158,   0.00082,   0.00693,   0.00286,  -0.02973,  -0.00529,  -0.02566,  -0.03177,  -0.01955,   0.07415,  -0.09695,  -0.03380,  -0.03584,  -0.05825,  -0.04806,   0.11489,  -0.10306,   0.03138,  -0.02158,   0.04563,  -0.00121,  -0.05010,  -0.01344,  -0.02973,   0.01712,   0.01508,  -0.01751,   0.01915,   0.05785,   0.01508,  -0.02769,  -0.00936,   0.01101,   0.02527,   0.01101,  -0.05010,   0.02527,   0.00693,  -0.02362,   0.00693,   0.02527,  -0.02362,  -0.02566,   0.06600,  -0.01547,   0.00082,   0.01508,  -0.01547,  -0.00936,   0.05582,  -0.00529,   0.02119,   0.02323,   0.01915,  -0.00732,   0.02730,   0.02730,  -0.02566,  -0.01140,   0.01508,   0.01101,  -0.03991,   0.03952,  -0.04195,  -0.01751,  -0.06436,  -0.00325,  -0.00325,  -0.04399,   0.03341,  -0.03584,  -0.03177,  -0.03584,   0.02730,  -0.01344,  -0.00529,   0.00490,   0.00897,  -0.02362,   0.01915,  -0.00936,  -0.01344,  -0.00325,   0.04563,  -0.00732,   0.03952,  -0.02362,   0.03749,  -0.01140,   0.01915,   0.00490,  -0.02769,   0.01304,  -0.02362,   0.07008,  -0.01344,   0.00082,   0.01101,  -0.01547,   0.01101,  -0.06232,  -0.02362,   0.03341,  -0.00121,  -0.02158,   0.03545,  -0.06843,   0.00082,   0.02934,  -0.02973,   0.01101,   0.00897,  -0.02566,  -0.01955,   0.01712,  -0.00325,  -0.00121,  -0.04602,   0.11896,   0.01915,  -0.01140,   0.00082,   0.01915,   0.01101,   0.00897,  -0.02973,   0.02730,  -0.02158,  -0.03991,   0.10063,  -0.00121,  -0.02769,   0.03138,  -0.01955,   0.01304,   0.00490,  -0.00121,  -0.00121,   0.01712,   0.01304,  -0.04806,   0.00897,   0.05785,  -0.01751,  -0.02973,   0.00286,  -0.00936,   0.01712,   0.01712,   0.00897,   0.02730,  -0.00936,  -0.00732,  -0.06232,   0.05582,   0.03341,   0.00693,  -0.03788,   0.00286,  -0.02158,   0.06397,  -0.01751,  -0.00936,   0.01101,  -0.04195,   0.04971,   0.00082,   0.05785,  -0.02973,  -0.00529,   0.03341,  -0.05417,  -0.02769,   0.02323,  -0.00732,   0.07619,   0.04767,  -0.01344,  -0.00121,   0.03341,  -0.05621,  -0.03584,  -0.00121,   0.03138,  -0.01547,  -0.00936,  -0.00529,   0.00286
   0.02730,  -0.00121,  -0.02158,   0.00082,  -0.00732,   0.00082,  -0.03380,  -0.01344,  -0.01547,  -0.04195,   0.02527,   0.01101,  -0.00121,  -0.09898,  -0.00936,  -0.05010,  -0.06232,   0.02323,  -0.02769,  -0.01140,   0.10878,   0.00082,  -0.02973,  -0.04399,  -0.00325,  -0.00529,  -0.02158,   0.01304,  -0.03991,  -0.03380,  -0.01751,  -0.04806,  -0.00325,  -0.00325,   0.01712,  -0.02158,  -0.02158,  -0.02973,  -0.00732,   0.01712,  -0.03380,   0.00693,   0.02527,   0.03749,   0.03138,   0.02730,   0.02730,  -0.11731,  -0.01140,  -0.00936,  -0.00121,   0.03545,   0.01508,  -0.02769,   0.08026,   0.00897,   0.01304,   0.01915,   0.03545,   0.03749,  -0.02973,  -0.01140,   0.01915,   0.00286,   0.08637,  -0.01751,  -0.02362,   0.03749,  -0.00121,  -0.03991,  -0.00732,  -0.02769,   0.01712,   0.00286,  -0.01751,   0.00693,  -0.04806,  -0.01140,   0.01712,   0.01101,   0.01101,  -0.01344,   0.05989,  -0.00121,   0.00693,  -0.00732,   0.00286,  -0.00732,   0.00490,   0.02119,  -0.00121,  -0.02158,  -0.00732,   0.02119,   0.02323,   0.00082,   0.08841,  -0.00732,  -0.01955,  -0.01751,  -0.02566,   0.01915,   0.02323,   0.01304,   0.01101,  -0.00936,   0.01712,   0.02323,  -0.02362,   0.01712,  -0.00529,   0.00693,  -0.00325,  -0.02566,  -0.00121,   0.03341,  -0.02158,  -0.02158,  -0.00936,   0.03952,   0.03341,  -0.05417,  -0.05010,  -0.06028,   0.10878,  -0.03177,   0.00082,  -0.01955,  -0.02362,  -0.01955,  -0.01751,  -0.06232,   0.00490,   0.02119,   0.01915,  -0.01955,  -0.00529,   0.00286,  -0.00732,   0.01304,  -0.02769,   0.00693,  -0.02973,   0.00490,   0.01304,   0.00897,  -0.07250,  -0.01751,   0.01915,  -0.03380,   0.00286,   0.01304,   0.02527,  -0.01751,  -0.00325,   0.00082,   0.01304,   0.02730,  -0.02158,  -0.00936,  -0.00121,   0.02934,   0.08026,  -0.02158,  -0.04602,  -0.03177,  -0.02362,   0.00286,  -0.02158,   0.00897,  -0.02769,   0.00286,  -0.01344,   0.00286,  -0.00121,  -0.10306,  -0.02362,  -0.00325,  -0.02158,   0.01915,  -0.01547,  -0.00936,  -0.03380,   0.01712,   0.01508,   0.02119,  -0.01547,  -0.10713,   0.02323,   0.04971,   0.02934,   0.00082,  -0.02158,  -0.01751,   0.03138,   0.00693,   0.04767,  -0.00529,  -0.01751,  -0.00529,  -0.02769,  -0.00732,  -0.01751,   0.00490,   0.03545,   0.08433,   0.02119,   0.03341,   0.01508,  -0.02769,  -0.00325,  -0.01140,   0.02323,   0.00082,  -0.01344,   0.01508,  -0.00732,   0.01915,  -0.00732,  -0.00936,   0.02323,  -0.01955,  -0.01751,  -0.00529,   0.03138,  -0.00936,   0.02730,   0.00693,   0.04156,   0.00490,  -0.00121,   0.01508,  -0.01547,  -0.01547,   0.01304,   0.00082,   0.00897,  -0.00325,  -0.01955,   0.01304,   0.01508,   0.01304,  -0.00936,   0.00286,  -0.02362,   0.01508,  -0.01955,   0.00897,   0.02934,   0.03545,  -0.01140,  -0.01955,  -0.00121,  -0.04195,  -0.01751,  -0.04806
  -0.01955,   0.02934,  -0.00936,  -0.00936,   0.00082,   0.02119,  -0.00325,  -0.05010,  -0.00529,  -0.03177,   0.00693,   0.03545,  -0.00121,   0.02119,   0.02323,   0.00490,  -0.05214,  -0.02566,   0.01101,   0.00490,   0.00693,  -0.01344,   0.02527,   0.08841,  -0.00325,   0.05378,   0.00693,  -0.02973,   0.02730,  -0.00325,  -0.04195,   0.00082,   0.00082,   0.00286,  -0.02362,  -0.01140,  -0.00121,   0.00082,   0.00490,   0.02119,  -0.06436,  -0.00121,   0.01304,   0.00286,   0.00693,  -0.01751,   0.00286,  -0.01955,   0.01304,   0.10878,   0.01915,   0.08637,   0.00693,  -0.03380,   0.03952,  -0.01547,   0.00897,   0.00693,   0.01915,  -0.03788,  -0.07861,   0.00286,   0.00693,  -0.00732,  -0.07047,  -0.04602,  -0.01547,  -0.03584,  -0.01751,  -0.01344,   0.01304,   0.03138,  -0.00732,  -0.00529,  -0.00732,   0.01508,   0.00286,  -0.01140,   0.01712,  -0.02362,  -0.05417,  -0.01344,   0.01508,  -0.01344,  -0.01547,   0.00693,  -0.00732,   0.02730,  -0.02769,   0.01508,   0.00693,  -0.01751,  -0.04806,  -0.03584,  -0.03584,   0.00693,  -0.00325,  -0.02566,  -0.02973,   0.03138,   0.05989,   0.04971,   0.00490,   0.00897,   0.03341,  -0.00936,  -0.00529,   0.05785,   0.01508,   0.00490,  -0.02362,  -0.02566,  -0.02362,   0.02119,   0.00490,  -0.02973,   0.00490,  -0.02158,  -0.00936,   0.07415,  -0.00121,   0.04971,   0.04767,   0.00897,   0.06397,  -0.00121,   0.01508,   0.00082,  -0.04806,  -0.02769,   0.00082,   0.03952,  -0.02566,   0.00897,  -0.01140,  -0.03991,   0.00286,  -0.01344,   0.01712,   0.01915,  -0.01140,  -0.03380,   0.01304,  -0.01751,  -0.02769,  -0.13565,  -0.05214,  -0.06028,   0.00490,  -0.00936,   0.18821,   0.02934,   0.00490,  -0.03584,  -0.02973,   0.03341,  -0.02769,  -0.00325,  -0.03380,   0.00082,  -0.00936,  -0.03788,   0.01304,   0.01712,  -0.02973,   0.01304,  -0.05214,  -0.01751,  -0.02566,   0.01304,  -0.00325,   0.02527,  -0.02362,   0.00693,  -0.00732,  -0.02973,  -0.02362,  -0.01140,  -0.10917,   0.01712,  -0.01344,  -0.01547,   0.00693,  -0.02973,   0.06193,  -0.01751,   0.01915,  -0.08880,  -0.02973,  -0.02566,   0.02934,  -0.01955,   0.03138,  -0.01547,   0.02119,   0.00693,   0.00693,   0.01915,  -0.01344,   0.00490,  -0.01344,   0.05378,  -0.00529,  -0.00121,  -0.02158,  -0.03788,  -0.01140,   0.00490,   0.01712,  -0.01547,   0.01101,  -0.00121,   0.01101,  -0.02158,  -0.02362,   0.02527,   0.02730,   0.03138,  -0.01344,  -0.00529,  -0.01955,  -0.00121,   0.02323,  -0.04195,   0.00286,   0.00490,  -0.00325,  -0.00121,   0.02323,   0.01915,  -0.03380,  -0.00936,   0.00490,   0.01304,  -0.06028,  -0.01140,   0.00490,   0.00693,  -0.02362,   0.01101,   0.02323,   0.00693,  -0.05010,   0.00286,   0.00693,   0.02934,   0.08433,  -0.00121,  -0.05214,   0.00693,  -0.00732,  -0.01140,  -0.01547,  -0.01344,   0.01508,  -0.00732
  -0.03991,  -0.02769,   0.02323,  -0.08065,   0.04971,  -0.03788,  -0.00325,  -0.00936,   0.03545,   0.01508,  -0.02769,   0.05378,  -0.01344,  -0.00732,   0.02119,  -0.00732,   0.00082,  -0.01751,   0.01712,   0.00490,  -0.01344,   0.00490,  -0.01140,  -0.00529,   0.02730,   0.00490,  -0.11120,   0.01508,  -0.01344,   0.01304,   0.03545,  -0.00936,  -0.00529,   0.02934,  -0.06232,  -0.00732,   0.00490,   0.00082,  -0.03177,   0.00286,   0.00490,   0.03138,   0.03952,  -0.00529,   0.02119,   0.01915,  -0.04602,  -0.05010,   0.02119,  -0.00936,  -0.00121,  -0.01140,  -0.02158,  -0.02158,   0.00490,   0.00693,  -0.00325,  -0.01344,   0.02323,  -0.01547,   0.02527,   0.03545,  -0.04806,  -0.00529,   0.01304,  -0.03584,  -0.01140,   0.00082,  -0.01547,  -0.00732,  -0.00121,  -0.11324,   0.00897,   0.00286,  -0.06639,  -0.01344,   0.07008,  -0.03177,   0.02527,  -0.00936,  -0.06639,   0.05174,  -0.00325,  -0.01751,   0.06600,   0.00490,  -0.00529,   0.02323,  -0.02362,   0.03952,  -0.06028,  -0.04602,  -0.00936,   0.01712,   0.02730,   0.00693,   0.05582,  -0.04195,  -0.01344,  -0.00325,  -0.01344,  -0.02769,  -0.06028,   0.01508,   0.01712,  -0.05621,  -0.00732,   0.00490,   0.00693,   0.04563,   0.04156,   0.00490,  -0.02566,   0.01508,   0.02527,   0.02934,   0.02323,   0.00693,  -0.04602,  -0.01751,  -0.02362,  -0.00529,   0.05989,   0.01915,   0.00082,  -0.01344,   0.05582,   0.00082,   0.04156,   0.00490,  -0.00936,  -0.01955,  -0.01547,   0.00286,  -0.00936,  -0.01547,   0.03138,  -0.03788,   0.01304,   0.00286,  -0.01140,   0.00286,  -0.01955,   0.01508,   0.00082,  -0.00121,  -0.00732,   0.00693,   0.04360,   0.02323,  -0.03177,  -0.00529,  -0.05621,   0.00490,   0.01304,  -0.02566,  -0.01547,   0.01712,  -0.02566,   0.03952,  -0.03584,   0.00082,   0.05989,  -0.01344,   0.01101,   0.02323,  -0.03177,   0.00693,   0.10470,   0.00082,   0.00286,  -0.05010,   0.09655,  -0.01547,  -0.03380,   0.00490,   0.00490,   0.00286,   0.01712,   0.00490,  -0.02158,   0.00897,   0.00490,  -0.01344,   0.07619,   0.08433,  -0.11731,   0.00897,  -0.00732,   0.02119,  -0.00325,   0.01915,   0.01712,  -0.05621,   0.00897,   0.00082,   0.01101,   0.04156,  -0.01547,   0.01712,  -0.05417,  -0.07250,  -0.02566,  -0.00121,   0.02323,  -0.01344,  -0.01751,   0.01508,   0.06193,   0.01712,   0.03341,  -0.03788,  -0.02362,   0.02323,  -0.02362,  -0.01344,  -0.04195,   0.05174,  -0.02769,   0.02323,   0.02527,   0.01712,  -0.01955,  -0.02769,  -0.00325,   0.01508,   0.04767,   0.00286,   0.09655,  -0.00121,  -0.00325,  -0.02769,   0.01304,  -0.01344,  -0.00121,  -0.06436,   0.02323,  -0.00325,   0.04156,  -0.02362,   0.00286,  -0.05621,  -0.02566,  -0.07047,  -0.01547,  -0.00936,   0.01915,   0.00693,  -0.03380,  -0.01547,  -0.00732,   0.00286,   0.00286,  -0.00732,  -0.01955,  -0.01955
   0.00490,   0.01508,  -0.00529,   0.01508,   0.02934,   0.05582,   0.06193,  -0.04806,   0.00082,  -0.01344,  -0.02362,   0.00897,  -0.00325,   0.01712,  -0.01547,   0.04767,  -0.01955,   0.01304,   0.02527,  -0.02158,  -0.04399,  -0.03991,  -0.01344,  -0.04602,  -0.00529,   0.02119,   0.01712,   0.00082,  -0.00325,   0.01101,  -0.00936,  -0.03177,   0.01508,  -0.02769,  -0.00732,   0.00286,  -0.01140,   0.01101,   0.00082,   0.02119,   0.10063,  -0.11935,   0.01304,   0.01915,  -0.00732,  -0.04602,  -0.03584,   0.02527,  -0.04602,   0.02527,   0.02119,  -0.05417,  -0.05214,  -0.02566,   0.01712,   0.00693,  -0.06436,   0.03749,  -0.06843,   0.03545,   0.01508,  -0.00121,  -0.01955,   0.02323,   0.01304,   0.08230,   0.02323,   0.00693,   0.00897,  -0.01751,   0.04360,   0.00897,   0.00693,   0.03138,  -0.01547,  -0.00732,  -0.05417,   0.00286,   0.03749,   0.01101,   0.01304,  -0.00121,   0.01101,  -0.01751,   0.01304,  -0.02566,  -0.01140,  -0.01751,  -0.01955,   0.02527,   0.00897,  -0.00325,  -0.03177,  -0.01547,   0.00897,   0.04767,  -0.12139,   0.01915,  -0.00936,   0.02527,   0.00693,   0.03952,  -0.00936,   0.02934,  -0.00732,  -0.00732,  -0.12343,   0.04767,   0.02323,   0.01101,  -0.02362,   0.01712,   0.01304,  -0.01140,   0.04156,   0.00082,   0.02730,   0.01101,  -0.01547,   0.02527,  -0.00529,   0.02730,  -0.01955,  -0.10306,  -0.05010,   0.00286,   0.03138,  -0.00121,   0.08230,  -0.01140,   0.05174,  -0.03788,  -0.00121,   0.04563,  -0.03177,   0.02730,   0.00693,   0.00490,   0.00286,   0.02527,  -0.03991,  -0.02566,   0.01712,  -0.01751,  -0.02973,  -0.01140,  -0.01751,  -0.06436,  -0.00121,   0.02730,  -0.02158,  -0.00732,   0.02119,  -0.12954,   0.00897,  -0.02362,   0.02527,  -0.01751,  -0.00325,   0.02730,   0.01915,   0.07415,   0.05582,  -0.00732,  -0.00936,   0.07619,  -0.00936,   0.00693,   0.00897,  -0.01751,   0.03749,  -0.00529,  -0.01751,  -0.00732,   0.00082,  -0.00325,  -0.01344,  -0.05621,  -0.01955,   0.00286,   0.02527,   0.01508,   0.00082,  -0.00936,   0.00082,  -0.00529,   0.01712,   0.04563,  -0.00325,  -0.00936,   0.01915,   0.00490,   0.01101,   0.00286,  -0.01955,  -0.01955,  -0.06028,   0.03138,  -0.00732,   0.07008,  -0.04602,  -0.04602,  -0.01547,   0.04563,   0.00693,   0.00897,   0.00490,  -0.00121,   0.00490,   0.04156,  -0.03584,  -0.01344,   0.01101,  -0.00121,   0.03545,   0.01101,   0.00897,   0.00490,   0.02527,   0.01508,  -0.01140,  -0.00325,  -0.08472,   0.05582,  -0.00529,  -0.01751,  -0.03177,   0.00082,   0.02119,   0.02527,  -0.05621,   0.03545,  -0.02158,   0.00693,   0.01304,  -0.01140,  -0.00529,  -0.06639,  -0.00121,   0.00897,   0.02527,   0.00490,  -0.01955,   0.01508,  -0.01955,  -0.03788,   0.00897,  -0.00732,   0.04156,   0.01304,  -0.00325,  -0.01140,  -0.01344,   0.00286,   0.00286,  -0.03788
  -0.02769,   0.05785,   0.02934,  -0.01547,  -0.01344,   0.00082,   0.03341,   0.02119,  -0.06232,  -0.06028,  -0.01547,  -0.00732,  -0.01344,   0.00490,   0.02119,  -0.02973,  -0.00121,   0.06804,  -0.02566,   0.00693,  -0.01344,  -0.00529,   0.00490,  -0.02362,  -0.02769,   0.03341,   0.00897,   0.04563,   0.01915,  -0.02769,  -0.01955,  -0.00121,  -0.07047,   0.03545,   0.02527,   0.06397,  -0.02566,  -0.01344,  -0.00936,  -0.02158,  -0.02362,   0.03952,  -0.06028,  -0.00936,  -0.00325,   0.04767,   0.01304,   0.02323,  -0.01955,   0.04360,   0.02527,  -0.00732,  -0.00325,  -0.02362,   0.07008,   0.02323,   0.07415,  -0.01547,   0.02934,  -0.04806,  -0.00732,   0.03341,   0.00490,   0.00897,   0.01915,  -0.03584,  -0.00325,  -0.00732,  -0.01751,  -0.00325,   0.02119,   0.03749,   0.03545,   0.01508,  -0.00325,  -0.02769,   0.02934,  -0.01751,  -0.02973,  -0.07250,  -0.05621,  -0.02973,   0.00490,   0.01101,   0.01304,  -0.03788,  -0.00121,  -0.02362,   0.02323,  -0.00529,  -0.00529,  -0.04399,   0.01304,   0.03545,  -0.03584,  -0.01140,   0.07008,   0.04360,   0.04563,  -0.01547,  -0.02769,   0.01508,   0.01508,  -0.04399,  -0.00325,   0.00693,  -0.06028,   0.04971,   0.05582,  -0.01344,  -0.02566,   0.00693,   0.02119,   0.00286,   0.03138,  -0.00936,  -0.03991,   0.02119,  -0.00936,  -0.00732,   0.00490,   0.01101,   0.02527,  -0.06232,  -0.04399,   0.01304,   0.02323,  -0.01955,  -0.06232,   0.01508,  -0.01140,   0.00897,   0.05174,   0.05989,  -0.02769,   0.02119,   0.04971,  -0.00325,   0.00082,  -0.01955,  -0.05417,  -0.01751,   0.08026,  -0.02158,   0.00286,  -0.00732,   0.06600,   0.00490,  -0.01751,  -0.01344,   0.00082,   0.02730,  -0.02566,   0.00286,   0.00082,  -0.02362,   0.01304,  -0.00325,  -0.03177,  -0.04195,  -0.00121,   0.01101,   0.08637,  -0.00121,  -0.02973,   0.04156,   0.01101,  -0.01955,  -0.01547,  -0.05417,   0.00082,   0.02119,  -0.00529,  -0.03788,   0.05582,   0.00490,  -0.05825,   0.01915,   0.00082,  -0.01344,  -0.02362,  -0.02362,  -0.02362,  -0.01751,  -0.03991,  -0.01955,   0.01101,  -0.07658,   0.00897,   0.00490,  -0.04195,   0.01712,   0.00897,  -0.00732,  -0.00936,  -0.01344,   0.02527,   0.01712,  -0.01344,  -0.01547,  -0.02973,  -0.03177,  -0.00325,  -0.00121,   0.00490,   0.00490,   0.02934,   0.02119,   0.00082,  -0.02769,  -0.01547,  -0.04602,   0.00490,   0.00490,  -0.00529,   0.00286,   0.00082,  -0.01751,  -0.01547,   0.01915,  -0.05417,   0.00490,  -0.03380,  -0.02566,   0.00082,  -0.04195,  -0.00325,  -0.00121,   0.00897,   0.02119,  -0.00936,  -0.02566,  -0.03380,   0.00693,  -0.01344,   0.00897,  -0.00529,   0.02527,  -0.01140,  -0.05417,   0.00693,  -0.00529,  -0.04399,   0.01508,  -0.03380,   0.00286,  -0.01751,  -0.01344,   0.03749,   0.07008,  -0.01547,  -0.00121,   0.00693,   0.01304,  -0.00325,  -0.02566
