  -0.00768,   0.01346,   0.00440,   0.03762,  -0.01070,  -0.00768,   0.00138,  -0.00466,   0.01044,  -0.01070,  -0.00164,  -0.03184,  -0.03184,  -0.01070,   0.01044,  -0.00164,  -0.00768,  -0.04090,   0.01346,   0.02252,   0.00742,   0.02554,  -0.00768,   0.09197,  -0.00768,   0.00440,   0.01648,  -0.00466,  -0.00768,  -0.01070,  -0.03184,  -0.01976,  -0.01372,   0.04064,   0.03158,  -0.01070,   0.01044,  -0.03788,  -0.01372,  -0.07713,  -0.01070,  -0.03486,   0.03762,   0.00440,   0.01648,   0.00440,  -0.01070,  -0.00164,  -0.01372,  -0.00164,   0.00440,  -0.04996,   0.02554,   0.00138,   0.00742,   0.02554,  -0.00466,   0.02554,   0.00138,  -0.00164,   0.00742,  -0.01372,   0.01346,  -0.02580,  -0.06807,   0.02856,   0.03158,  -0.04996,  -0.00768,   0.00440,  -0.00768,   0.03762,   0.01346,  -0.00164,   0.01044,  -0.04392,  -0.01674,  -0.04090,   0.00138,   0.04064,  -0.01674,   0.03460,  -0.01976,   0.02856,   0.01648,   0.01950,   0.01044,  -0.02882,  -0.01674,  -0.00466,  -0.01976,  -0.01674,  -0.00768,   0.01044,   0.00138,  -0.02882,  -0.00466,  -0.00466,   0.00138,  -0.01070,   0.02554,   0.00742,  -0.03184,   0.00138,   0.00440,  -0.00164,   0.00138,  -0.05298,   0.01044,  -0.04090,   0.00440,  -0.00164,   0.02856,   0.00742,   0.00138,  -0.01070,   0.02554,  -0.02882,  -0.02882,   0.03762,   0.05271,  -0.02882,  -0.00768,  -0.04090,  -0.05600,   0.02554,   0.03158,  -0.00768
  -0.01070,   0.01950,   0.00742,   0.01044,  -0.02580,  -0.03184,  -0.02278,   0.01950,   0.00440,   0.00742,   0.00138,  -0.01070,   0.01346,   0.01648,   0.01044,  -0.00768,  -0.01674,  -0.01976,   0.03762,   0.01346,  -0.00164,   0.02554,  -0.03486,   0.00440,  -0.01674,   0.00742,   0.02554,   0.01044,   0.03158,  -0.00466,  -0.01372,   0.03460,   0.00138,   0.10707,   0.01648,  -0.05600,  -0.02278,  -0.01976,  -0.00768,  -0.02278,  -0.06203,  -0.05902,   0.02554,   0.00440,   0.00742,  -0.00164,   0.01346,  -0.00466,  -0.02882,  -0.01070,   0.01648,  -0.00768,   0.04064,  -0.00768,  -0.02580,   0.01346,  -0.01674,   0.00440,  -0.00164,   0.03762,   0.01346,  -0.03184,  -0.01674,  -0.01070,  -0.00466,  -0.01070,   0.00138,  -0.01070,  -0.00768,  -0.00466,   0.01346,   0.01044,  -0.02278,  -0.00768,   0.00138,  -0.03788,   0.00742,  -0.07411,   0.02856,  -0.04392,   0.00440,   0.00440,  -0.02278,   0.03158,  -0.00768,   0.00440,   0.00138,   0.00742,  -0.00768,  -0.01674,  -0.00466,   0.04667,   0.00440,  -0.02278,  -0.01372,  -0.01674,  -0.01976,   0.00440,   0.01044,   0.01044,   0.01044,  -0.04090,  -0.03788,  -0.02580,   0.02252,   0.00742,   0.04667,  -0.02882,  -0.01976,   0.01044,  -0.01372,   0.01044,   0.07687,  -0.00164,  -0.00768,  -0.01372,  -0.01674,  -0.01674,  -0.00466,   0.01648,  -0.01070,  -0.01070,  -0.00466,   0.00138,  -0.02278,   0.00440,   0.02856,   0.01044
   0.00138,  -0.00164,  -0.00768,  -0.00466,  -0.01372,  -0.02278,   0.00742,   0.01044,  -0.01070,   0.04366,  -0.01070,  -0.01070,   0.01346,   0.00440,  -0.01372,   0.02252,   0.01950,   0.00440,   0.03460,  -0.00164,  -0.01976,   0.03158,  -0.01070,  -0.02580,  -0.00466,   0.02252,   0.01044,   0.01648,   0.01950,  -0.00768,  -0.00466,   0.05573,   0.01346,   0.08291,   0.03460,  -0.00768,  -0.01976,  -0.04090,  -0.02580,  -0.07713,  -0.03184,  -0.06203,   0.04366,   0.00440,   0.04667,   0.00138,   0.02554,   0.01044,  -0.04392,  -0.02580,  -0.00164,   0.00440,  -0.01372,   0.01346,  -0.03486,  -0.00466,   0.02252,  -0.01070,  -0.00466,  -0.00466,  -0.00466,  -0.01976,   0.02252,  -0.02882,   0.03460,   0.02252,   0.01044,  -0.01070,  -0.02278,   0.01044,   0.00742,   0.02856,  -0.02882,   0.00742,  -0.00466,   0.01648,  -0.02882,  -0.03184,   0.00440,   0.01950,   0.00742,   0.03460,   0.02856,  -0.01070,   0.03158,  -0.01372,   0.01648,   0.01346,   0.01044,  -0.02882,  -0.02278,  -0.04090,   0.01346,   0.01346,  -0.00466,  -0.03788,  -0.01674,   0.00138,  -0.03486,   0.01950,  -0.01976,  -0.08619,  -0.00768,  -0.04392,   0.01346,  -0.00768,   0.01044,  -0.04996,  -0.01674,   0.01044,  -0.02580,  -0.00768,   0.02554,  -0.01674,  -0.00164,  -0.00768,   0.00440,   0.01346,  -0.02580,  -0.00466,  -0.00466,  -0.02580,   0.03762,  -0.00466,  -0.01070,   0.00742,   0.01044,  -0.04392
  -0.01070,  -0.01674,   0.02252,   0.02554,   0.01648,  -0.01976,  -0.00164,  -0.03486,  -0.01674,   0.01044,  -0.01674,   0.01044,  -0.01674,  -0.00466,   0.01648,   0.01648,  -0.01070,   0.00440,   0.01648,   0.01044,   0.00440,   0.01044,  -0.02882,  -0.00466,  -0.00768,  -0.04392,   0.00742,  -0.00164,   0.01044,   0.01950,   0.00440,  -0.03486,   0.00440,  -0.01372,   0.01648,   0.00440,   0.01346,  -0.01070,   0.01346,  -0.06807,   0.02554,  -0.02882,   0.00138,   0.03158,   0.01950,  -0.02580,   0.01044,   0.00138,  -0.01674,   0.03158,  -0.02278,  -0.01372,   0.01950,   0.00742,  -0.02278,   0.01648,  -0.04694,   0.01044,  -0.02278,  -0.01070,  -0.01372,   0.07385,   0.04366,  -0.02882,   0.04969,   0.02856,   0.02554,  -0.04392,   0.00440,   0.08291,   0.01950,   0.04667,  -0.03486,   0.06781,   0.04366,   0.03762,  -0.01372,   0.03762,   0.02554,   0.02554,   0.00742,   0.00138,   0.00138,   0.02856,   0.01950,   0.01648,   0.00440,   0.04366,  -0.01674,  -0.00164,   0.01044,   0.04969,  -0.03486,   0.00440,   0.00742,   0.00440,   0.04667,   0.02856,  -0.02882,  -0.10431,   0.04064,   0.10707,  -0.05298,   0.01950,   0.02252,   0.01044,   0.02252,  -0.05600,   0.00440,  -0.02580,  -0.00466,  -0.04392,   0.06781,   0.02252,   0.02856,  -0.01976,  -0.03486,  -0.04996,   0.02252,   0.01346,   0.00440,  -0.02580,   0.03460,  -0.00466,  -0.06505,   0.06479,   0.03762,   0.00138
   0.02554,  -0.01372,  -0.09223,   0.01346,   0.01950,  -0.05298,  -0.05600,  -0.01372,  -0.03184,   0.04064,   0.01044,  -0.01372,   0.00440,   0.02554,   0.00138,  -0.02278,  -0.01976,   0.03158,   0.04064,   0.01648,   0.01044,   0.04366,  -0.09223,  -0.17376,  -0.06505,   0.01044,  -0.01674,  -0.01674,   0.03158,  -0.04694,  -0.00164,   0.06479,  -0.01372,   0.03762,  -0.01070,  -0.06807,  -0.01674,  -0.02278,   0.04667,  -0.01674,  -0.06505,  -0.07713,  -0.03184,  -0.00768,  -0.01976,  -0.00768,  -0.01070,   0.00138,  -0.04090,   0.00138,  -0.01674,   0.13425,   0.06781,  -0.00768,  -0.02882,   0.00138,   0.01950,   0.01346,  -0.04392,   0.18860,  -0.01070,   0.04064,   0.08895,  -0.07411,  -0.00164,  -0.02278,   0.01950,  -0.02278,  -0.01674,   0.08291,   0.00742,  -0.04392,   0.04667,  -0.03486,   0.05875,   0.01950,   0.03158,   0.02252,   0.01346,   0.11613,  -0.02580,   0.02252,   0.03158,  -0.07109,   0.03158,  -0.00164,   0.03460,   0.02856,   0.04064,  -0.01372,  -0.01070,  -0.02882,   0.00440,   0.02252,  -0.01070,  -0.01976,  -0.03184,   0.00138,   0.01950,  -0.04996,   0.00742,   0.04366,  -0.06807,   0.03460,   0.01648,   0.00440,   0.03460,  -0.06807,   0.04366,   0.04064,   0.02856,   0.00138,   0.00138,   0.03460,  -0.00164,   0.05875,   0.00742,  -0.08015,   0.07687,   0.02252,   0.00138,  -0.03184,   0.00440,  -0.00164,   0.09801,  -0.03184,  -0.00768,  -0.04694
   0.04667,   0.03460,  -0.08015,   0.00138,  -0.00164,   0.04064,  -0.07109,  -0.01372,   0.00138,   0.04667,  -0.01070,   0.00138,   0.00440,   0.01346,   0.01950,   0.04064,   0.02856,   0.02856,   0.07687,   0.00138,   0.01346,  -0.08015,  -0.04392,  -0.12847,  -0.00768,   0.04366,  -0.00768,  -0.00768,   0.02856,  -0.04090,   0.05271,   0.04064,   0.04366,   0.10707,  -0.02278,  -0.02580,  -0.01674,  -0.06807,  -0.01976,   0.00440,  -0.01674,  -0.13451,   0.00742,  -0.00768,   0.01346,   0.01044,  -0.00466,   0.01648,  -0.00768,   0.02252,   0.00742,   0.04667,   0.00138,  -0.00164,  -0.05902,  -0.00768,   0.01950,   0.01044,  -0.00768,   0.11613,  -0.00466,  -0.04996,   0.06177,  -0.04392,  -0.01372,  -0.00768,  -0.01372,   0.02856,  -0.01674,  -0.01976,  -0.01674,  -0.01372,   0.01044,  -0.02882,   0.05271,  -0.00768,  -0.05902,  -0.05298,  -0.00466,  -0.13753,  -0.01372,   0.03460,   0.00742,  -0.06505,   0.02856,  -0.00768,   0.04064,  -0.07109,   0.01950,  -0.02278,  -0.04694,  -0.11035,   0.00440,   0.01346,  -0.00466,  -0.02278,  -0.02580,   0.00138,  -0.02882,   0.01950,  -0.01674,  -0.07411,  -0.01674,   0.01044,  -0.01372,  -0.02580,  -0.01070,  -0.01372,  -0.01070,   0.01044,   0.01346,   0.00440,  -0.08015,  -0.00164,  -0.00164,   0.01346,   0.04969,  -0.00466,   0.00440,  -0.00466,  -0.01976,  -0.05600,  -0.04694,  -0.01976,   0.06177,  -0.00164,   0.02252,  -0.14055
  -0.02580,  -0.00164,  -0.00768,   0.01044,   0.01346,  -0.02580,   0.02856,   0.01346,   0.01648,  -0.00164,  -0.01674,   0.01044,  -0.00466,  -0.00164,   0.00742,   0.00742,  -0.02580,   0.01044,  -0.05298,  -0.00164,   0.01648,   0.00440,  -0.00164,  -0.01070,  -0.03788,  -0.01372,   0.02856,   0.02252,  -0.00164,   0.00138,  -0.01070,  -0.00466,  -0.02278,  -0.01070,   0.02856,  -0.03184,  -0.02278,  -0.01674,  -0.01976,  -0.04090,   0.02252,   0.03460,  -0.00164,   0.00742,   0.02554,  -0.01674,   0.01950,   0.01044,  -0.00466,  -0.02882,  -0.01674,   0.03460,  -0.00164,   0.01648,  -0.02278,   0.01648,  -0.01070,  -0.00466,  -0.01674,  -0.00164,   0.01044,   0.02252,   0.00440,  -0.00768,   0.03460,   0.01044,   0.02856,  -0.03184,  -0.01070,  -0.00768,   0.02252,   0.02252,   0.03460,  -0.02882,   0.02856,   0.05573,   0.00742,   0.01648,   0.01346,  -0.02278,  -0.00164,   0.01044,   0.01044,   0.03158,   0.00440,   0.02554,  -0.01372,  -0.03788,  -0.01372,   0.01044,  -0.00768,  -0.01976,  -0.01674,   0.01950,   0.01346,   0.01950,   0.00742,   0.02554,  -0.00164,  -0.04392,  -0.00164,   0.00742,  -0.03184,   0.00440,   0.00440,  -0.02580,   0.03460,  -0.00466,   0.00440,  -0.01674,  -0.01070,   0.00138,   0.03158,   0.01648,   0.00440,   0.02856,   0.01044,   0.02252,   0.00440,  -0.01372,   0.03762,   0.00742,   0.00742,   0.01044,   0.03460,   0.02554,   0.00742,  -0.00768
   0.00440,   0.02554,  -0.04996,  -0.01070,   0.03460,  -0.06203,   0.00742,   0.00742,   0.01950,   0.03762,  -0.01372,   0.00742,   0.01648,  -0.02882,   0.01346,  -0.00768,  -0.00768,   0.02856,  -0.02278,   0.00742,   0.01044,   0.01346,  -0.01070,  -0.08015,  -0.02882,   0.03460,   0.01044,   0.00138,   0.02252,  -0.01674,  -0.00466,   0.07083,   0.04064,  -0.08921,   0.00742,   0.01346,  -0.01070,  -0.01070,  -0.00466,   0.00138,   0.03762,  -0.01674,   0.00742,   0.00138,  -0.01372,   0.01346,  -0.00466,   0.01346,   0.00138,  -0.04392,  -0.02278,   0.01346,  -0.01976,   0.01044,  -0.04996,  -0.00768,  -0.00768,   0.01346,  -0.04694,   0.03460,  -0.01372,   0.12821,  -0.00466,   0.00138,   0.04667,  -0.00768,  -0.02278,  -0.00768,   0.01950,  -0.00466,   0.00742,   0.02856,  -0.03788,  -0.02882,   0.09197,  -0.00164,   0.01950,   0.08593,  -0.01372,   0.12821,   0.01346,   0.00138,   0.05271,  -0.04090,   0.03460,  -0.00164,   0.04064,   0.03460,   0.00742,   0.02554,   0.02554,  -0.03486,   0.01044,   0.01648,  -0.00768,  -0.09827,   0.00138,   0.01044,   0.01950,  -0.03788,   0.01950,   0.08291,  -0.01674,   0.03762,   0.01648,   0.00138,   0.01648,  -0.03788,  -0.01976,   0.00138,   0.01044,   0.01648,  -0.03486,   0.03460,  -0.00164,   0.04667,   0.03460,  -0.01372,  -0.00768,   0.00138,   0.01044,  -0.00164,  -0.01372,   0.03460,   0.02252,   0.00742,  -0.02882,  -0.00164
   0.01346,   0.01950,  -0.01070,  -0.01976,   0.01044,   0.01346,  -0.02580,  -0.01070,   0.02554,   0.04366,  -0.03184,  -0.00466,   0.00742,   0.00138,   0.01044,  -0.00768,   0.03158,   0.03158,   0.00742,   0.01346,   0.01648,  -0.04090,  -0.04392,  -0.03788,  -0.01372,   0.05875,  -0.00466,  -0.01070,   0.01346,  -0.02278,   0.00138,   0.01950,   0.03158,  -0.01070,  -0.02882,  -0.03788,  -0.00164,  -0.03486,  -0.01976,   0.01950,  -0.06505,  -0.06505,   0.00440,  -0.00164,   0.00440,   0.04667,  -0.01372,   0.01044,   0.04064,  -0.03486,  -0.00164,   0.00138,  -0.00768,   0.01346,  -0.06807,  -0.01976,  -0.03486,   0.00742,  -0.00466,   0.04064,   0.00138,   0.01950,  -0.01372,  -0.00768,   0.02554,   0.02252,   0.02252,   0.01346,   0.01044,   0.02252,   0.00138,   0.03460,   0.00742,  -0.06203,   0.05271,  -0.03184,  -0.00466,   0.00138,  -0.02882,   0.02554,   0.00742,  -0.03486,  -0.00466,  -0.06807,   0.02554,   0.01346,   0.02554,   0.03762,   0.01346,   0.01346,  -0.01070,   0.01346,   0.01648,   0.01950,  -0.02580,   0.00742,  -0.01070,   0.00742,  -0.01372,  -0.06505,   0.01648,   0.01044,   0.00138,   0.00742,   0.00138,  -0.02882,  -0.01674,  -0.03788,   0.07083,  -0.02278,   0.00742,  -0.00768,  -0.00164,  -0.00768,   0.00440,  -0.01674,  -0.00768,   0.00440,  -0.06505,  -0.00164,  -0.01976,  -0.00768,  -0.00164,  -0.00164,  -0.00466,   0.04969,  -0.02278,  -0.04694
   0.03460,  -0.00768,   0.01346,  -0.01372,  -0.03184,   0.00138,  -0.02278,   0.03158,  -0.01674,   0.05271,   0.01950,  -0.00466,  -0.01674,   0.00742,   0.03460,   0.04064,   0.00138,   0.01648,  -0.06203,  -0.00768,  -0.00164,   0.01044,  -0.04090,  -0.01976,  -0.04392,  -0.03184,  -0.00466,  -0.01372,  -0.01070,  -0.01372,   0.01044,   0.02554,   0.01648,  -0.00164,  -0.06505,   0.02252,   0.02554,  -0.00466,   0.00440,   0.03158,   0.04366,   0.00138,  -0.01070,  -0.00768,  -0.03788,  -0.00164,   0.01648,  -0.00466,   0.01950,  -0.00466,   0.00138,   0.00742,   0.02252,   0.00138,  -0.00768,  -0.00768,  -0.01976,  -0.02882,   0.02554,   0.01648,  -0.02882,  -0.01674,   0.02856,  -0.01372,  -0.04996,   0.01346,  -0.00466,   0.03158,   0.00440,   0.01648,  -0.01070,  -0.01372,  -0.01674,   0.01346,  -0.01372,  -0.00466,   0.00440,   0.01044,  -0.00466,  -0.01372,  -0.07109,   0.01044,   0.01648,  -0.00466,   0.01950,  -0.00768,   0.01346,   0.03460,   0.02856,   0.00138,   0.00138,   0.00440,  -0.00768,   0.01044,  -0.02580,   0.01346,   0.03762,   0.02856,  -0.00466,  -0.00768,   0.02252,  -0.01372,  -0.02882,   0.00440,  -0.01372,   0.01648,   0.01648,   0.02554,   0.00742,  -0.03184,   0.00440,  -0.02580,   0.03460,  -0.01976,  -0.00466,  -0.01674,  -0.01976,  -0.04090,  -0.00768,  -0.00164,   0.03158,  -0.02580,  -0.00164,   0.00742,   0.00440,  -0.02882,   0.01346,   0.00742
   0.02554,  -0.01976,   0.01648,  -0.00466,   0.01044,   0.00742,  -0.01674,   0.01044,   0.00440,   0.04366,  -0.01372,  -0.02580,  -0.00164,   0.01346,   0.03762,   0.04064,   0.00440,  -0.01372,  -0.01372,  -0.02882,  -0.00768,  -0.01070,  -0.06807,  -0.01372,  -0.01674,   0.05875,   0.01346,   0.01950,  -0.01372,   0.00440,  -0.01372,   0.05875,   0.02252,   0.03460,  -0.10733,  -0.01070,   0.02554,   0.01044,   0.00742,   0.04969,   0.01346,  -0.02278,  -0.02278,   0.00440,  -0.06203,  -0.01976,   0.01044,  -0.01070,  -0.01070,  -0.04392,   0.01044,  -0.01674,   0.04667,  -0.00466,  -0.00768,  -0.01674,  -0.01372,  -0.01070,   0.00742,   0.05271,   0.01346,  -0.02882,   0.01346,   0.03460,  -0.02882,   0.00742,  -0.01372,   0.02252,   0.00742,  -0.00466,   0.00138,   0.03158,   0.00440,  -0.01372,  -0.01372,   0.04366,  -0.01976,   0.02554,   0.00138,  -0.04694,  -0.05600,  -0.01976,   0.00440,  -0.04392,   0.03460,  -0.01070,  -0.01674,   0.01950,   0.05271,   0.01648,  -0.03184,   0.02554,  -0.00164,  -0.00768,  -0.02580,  -0.04996,  -0.01372,   0.01044,  -0.00768,   0.01648,   0.02856,  -0.03788,  -0.03184,  -0.01372,  -0.01976,  -0.00466,   0.01044,   0.00742,   0.00138,  -0.04090,   0.03158,  -0.01674,  -0.00466,   0.00742,  -0.01070,   0.01044,   0.02554,  -0.01070,  -0.00466,  -0.03486,   0.03460,  -0.03184,   0.00440,   0.00440,  -0.03788,  -0.02278,   0.02252,   0.05271
   0.00742,  -0.01372,  -0.04996,   0.00742,   0.00138,  -0.01674,  -0.02580,   0.00440,  -0.00768,   0.01950,  -0.01070,  -0.00466,  -0.01674,   0.01950,   0.04667,   0.02554,  -0.00768,  -0.03184,  -0.03788,  -0.02580,   0.00440,  -0.01674,  -0.03184,   0.01044,  -0.02580,  -0.00164,   0.01044,   0.00440,   0.01648,  -0.02278,   0.03460,   0.06781,  -0.00466,  -0.00164,  -0.06807,   0.04064,   0.01346,  -0.00466,   0.01044,   0.06781,   0.01044,  -0.03486,   0.00138,  -0.00466,  -0.03788,  -0.02580,  -0.00164,  -0.01674,  -0.04090,  -0.00164,  -0.01070,  -0.04090,  -0.01674,  -0.01976,   0.01648,  -0.04090,  -0.02882,  -0.00768,  -0.00164,   0.00440,  -0.01070,  -0.01070,  -0.01976,   0.02554,  -0.01976,  -0.01372,  -0.03788,   0.01950,   0.02252,  -0.02278,   0.00440,  -0.02580,  -0.00164,  -0.04694,  -0.02580,   0.05573,  -0.01674,   0.01950,   0.02252,  -0.01674,  -0.07411,   0.02252,   0.00440,  -0.00164,   0.03158,  -0.03486,  -0.01070,   0.04667,   0.01346,   0.02252,   0.02252,   0.01648,   0.01044,   0.00138,  -0.03788,   0.05573,   0.03158,   0.02554,  -0.02580,  -0.01070,   0.00440,  -0.00768,  -0.01674,   0.00440,  -0.01070,   0.01950,   0.04366,   0.00138,  -0.00164,  -0.00164,  -0.01674,  -0.01070,  -0.01674,   0.01346,   0.01346,  -0.02580,   0.00440,  -0.02580,   0.01346,  -0.01674,   0.04366,  -0.03788,   0.07083,   0.01950,  -0.02580,  -0.04996,  -0.01976,   0.03762
   0.00440,  -0.00768,   0.00742,  -0.01372,   0.00742,  -0.02580,  -0.00164,   0.01044,  -0.01674,   0.08291,  -0.01674,  -0.00164,   0.00138,   0.00440,   0.00742,   0.02856,   0.00440,   0.00440,  -0.01976,   0.02554,   0.01044,  -0.04090,  -0.03184,  -0.02580,  -0.06203,   0.06479,   0.00440,   0.00138,  -0.01070,  -0.00768,  -0.02882,   0.01346,   0.00440,   0.01044,  -0.08921,  -0.00768,   0.06177,   0.02554,   0.00440,   0.00138,   0.01044,   0.04064,  -0.02278,  -0.00466,  -0.03486,   0.02252,   0.01648,   0.00138,  -0.00466,   0.05573,   0.04667,  -0.03486,  -0.01674,  -0.01372,  -0.04090,  -0.00768,  -0.01070,  -0.00466,  -0.00164,   0.00440,  -0.01372,  -0.00164,   0.05875,   0.01950,   0.03762,   0.00742,   0.03762,   0.02554,   0.00440,   0.00138,   0.00742,   0.03158,  -0.06203,   0.01346,   0.00138,   0.03158,   0.03158,   0.04366,   0.04366,  -0.00164,  -0.06203,  -0.00768,   0.00440,   0.01648,   0.02252,   0.01950,  -0.01070,  -0.01976,   0.07687,  -0.03184,  -0.00164,   0.03460,  -0.00768,   0.01044,  -0.01674,  -0.02580,  -0.00164,   0.00440,   0.00440,   0.00440,   0.01950,   0.01044,  -0.03788,  -0.00164,  -0.01976,   0.02252,   0.00440,   0.00138,   0.04969,  -0.01372,  -0.01372,   0.02554,   0.04366,   0.01950,   0.01044,   0.01950,  -0.10431,   0.01950,  -0.04392,  -0.03486,  -0.01674,   0.00742,   0.04064,  -0.00466,  -0.03486,  -0.02580,   0.00138,  -0.01372
   0.01950,   0.04366,   0.00742,   0.01950,   0.01044,   0.01346,  -0.02882,   0.01950,  -0.03788,   0.09801,   0.02554,   0.01044,   0.00138,  -0.01976,  -0.00466,  -0.01976,   0.00440,   0.01648,   0.09197,  -0.02882,  -0.02580,  -0.05600,  -0.11941,   0.00742,  -0.16773,   0.03158,  -0.04392,   0.02252,   0.02856,  -0.09827,   0.00138,   0.00138,  -0.04996,   0.08895,  -0.07109,   0.09197,   0.00138,  -0.02882,  -0.05600,   0.01346,  -0.05902,  -0.02882,  -0.00466,  -0.02580,  -0.10129,   0.00440,  -0.00768,   0.00742,  -0.01372,  -0.01070,   0.00440,  -0.02580,  -0.01372,   0.01648,   0.06177,  -0.00466,  -0.00768,  -0.00466,   0.07989,   0.05271,   0.02856,  -0.04694,  -0.07713,   0.04667,   0.13425,  -0.00466,   0.13727,  -0.01976,  -0.02580,   0.01044,   0.02856,  -0.11337,   0.00138,  -0.02882,  -0.01976,   0.00440,  -0.04996,   0.07687,   0.02856,   0.07989,   0.01346,   0.00138,   0.03762,  -0.05298,  -0.06203,   0.02554,  -0.00768,   0.03762,  -0.01674,  -0.03788,  -0.00466,  -0.01976,   0.01346,   0.00440,  -0.01976,   0.03158,  -0.01976,  -0.03184,  -0.02278,  -0.10733,   0.01346,  -0.05902,  -0.02278,  -0.01372,  -0.00164,  -0.01372,  -0.01976,   0.02856,   0.04969,   0.00440,  -0.02580,   0.10405,   0.12217,   0.03460,   0.00440,   0.09801,  -0.00164,   0.08291,  -0.03486,  -0.07109,   0.02252,   0.01044,  -0.01674,  -0.01372,   0.04969,  -0.04996,   0.01044,   0.08593
   0.02856,   0.00742,  -0.04392,   0.00440,   0.01346,   0.02252,  -0.02580,   0.01648,  -0.01070,   0.10103,   0.00440,   0.01950,  -0.01372,   0.01044,  -0.01070,   0.01950,   0.00138,   0.00742,   0.00440,  -0.00466,   0.00440,  -0.06807,  -0.03788,   0.06479,  -0.05902,   0.03460,  -0.00164,   0.02252,   0.02856,  -0.04996,  -0.02882,   0.09499,  -0.01372,  -0.00164,  -0.11941,  -0.02580,  -0.02580,   0.01044,  -0.02580,   0.04366,  -0.00768,   0.03158,  -0.00466,  -0.01070,  -0.03486,   0.01950,   0.00742,   0.01950,  -0.01674,   0.07687,   0.02252,   0.03460,  -0.00466,  -0.00164,  -0.00164,  -0.00768,  -0.04090,   0.02252,   0.08895,   0.02554,   0.01346,  -0.01070,  -0.05298,   0.02252,   0.06177,   0.00742,   0.07385,  -0.01070,  -0.01070,   0.03762,  -0.00164,  -0.00466,   0.00440,   0.00138,  -0.04090,   0.01044,  -0.01976,   0.05875,   0.01648,   0.02554,  -0.06505,   0.00138,   0.00440,   0.01346,   0.02856,  -0.00768,   0.00138,  -0.00768,   0.03762,  -0.02580,   0.02554,  -0.01070,  -0.01372,  -0.00164,  -0.02278,   0.02554,  -0.01070,   0.01648,   0.01044,  -0.06505,  -0.00164,   0.01044,  -0.01674,  -0.01976,   0.00742,   0.00138,   0.05271,   0.01648,   0.08291,  -0.01070,   0.00138,   0.03158,   0.03762,  -0.02278,   0.00440,   0.01648,  -0.10431,   0.01950,  -0.05298,  -0.02580,  -0.00768,   0.01648,   0.03762,   0.00440,  -0.02278,  -0.01372,   0.00742,   0.00742
   0.03460,   0.02856,   0.09197,   0.00138,   0.00742,   0.01346,  -0.02278,   0.00742,  -0.01372,   0.04969,  -0.01674,  -0.01070,  -0.00768,   0.01648,   0.02252,   0.01648,  -0.01372,  -0.01070,  -0.01372,  -0.02278,  -0.00164,  -0.02278,  -0.04996,  -0.09827,  -0.08619,   0.03460,   0.02554,   0.00138,  -0.00466,  -0.01372,   0.01044,  -0.01976,   0.01346,  -0.00164,  -0.07109,   0.03158,  -0.01372,   0.01044,   0.02252,   0.02554,   0.01044,   0.04667,  -0.00466,  -0.01070,  -0.03486,  -0.01372,  -0.00164,  -0.02278,   0.00440,   0.02554,  -0.00768,   0.01346,   0.03460,  -0.00466,  -0.01372,  -0.01372,  -0.00164,   0.01950,   0.00742,   0.01346,  -0.04090,  -0.00466,  -0.02580,   0.04969,  -0.01070,   0.00742,  -0.00164,   0.00742,   0.00138,  -0.01372,   0.01346,  -0.02278,   0.02856,  -0.03184,  -0.03788,   0.01346,   0.01346,   0.03762,   0.01648,  -0.01674,  -0.09223,   0.02856,   0.01044,   0.01950,   0.04064,   0.01648,  -0.01070,   0.04667,   0.00742,   0.01044,  -0.00164,   0.04064,   0.01648,   0.01950,  -0.00466,   0.06177,  -0.02882,  -0.01372,   0.01648,  -0.01976,  -0.01372,   0.00138,  -0.02882,   0.03762,   0.00440,   0.03158,   0.02554,  -0.02278,   0.03158,  -0.02580,  -0.02882,   0.01044,   0.01648,   0.00138,  -0.00768,  -0.01674,  -0.01070,   0.01950,  -0.02580,  -0.01070,   0.01950,  -0.01976,   0.06177,  -0.00164,   0.03158,  -0.01674,   0.02252,   0.00138
   0.03460,   0.01648,   0.06479,   0.01346,  -0.01070,  -0.01674,  -0.05298,   0.04064,  -0.05600,   0.07385,  -0.00466,   0.01044,  -0.02882,   0.00138,   0.00138,   0.01346,  -0.01674,   0.01950,   0.02856,   0.01044,  -0.01976,  -0.04996,  -0.06505,  -0.13149,  -0.07109,   0.02554,   0.05271,   0.01346,   0.03762,  -0.03788,   0.01044,  -0.07109,   0.00440,   0.04667,  -0.12243,  -0.01372,  -0.00466,   0.01044,  -0.00466,   0.01346,  -0.02580,   0.00440,  -0.04996,  -0.02278,  -0.03486,  -0.00164,  -0.00466,  -0.01070,   0.00440,  -0.07411,   0.03762,   0.07989,  -0.00768,   0.01044,   0.00440,  -0.00768,  -0.04996,   0.02554,   0.11613,   0.05573,   0.02554,  -0.04090,   0.00742,   0.00138,   0.05271,   0.01346,   0.03762,  -0.00164,   0.01648,   0.03158,   0.01044,  -0.04392,   0.00138,   0.02252,  -0.01070,  -0.00164,   0.01346,   0.06177,   0.02252,   0.00138,  -0.05600,  -0.01070,   0.02554,  -0.02278,   0.01950,  -0.00768,  -0.00466,   0.00440,   0.04969,  -0.00768,  -0.04694,   0.01648,   0.00440,   0.02252,  -0.00466,   0.04969,  -0.00768,  -0.01070,  -0.02278,  -0.06203,  -0.01976,  -0.02882,  -0.01372,   0.00742,   0.00440,   0.01950,  -0.01674,   0.02252,  -0.00164,  -0.01976,  -0.03184,   0.03460,   0.02856,   0.00138,  -0.00466,   0.01648,   0.04366,   0.08291,  -0.00164,  -0.01070,   0.01346,  -0.04392,   0.05875,  -0.02882,   0.01950,  -0.04090,   0.04366,  -0.01976
   0.01346,   0.01648,   0.04366,   0.00440,  -0.04694,   0.01044,  -0.02580,   0.03158,   0.01346,   0.07687,  -0.00164,   0.04366,  -0.01372,   0.03460,   0.02252,   0.03762,   0.00138,  -0.02580,   0.01044,  -0.00466,  -0.01372,  -0.04392,  -0.04090,   0.06479,  -0.04090,   0.01648,   0.02252,   0.02554,   0.01648,  -0.02580,   0.04064,   0.02252,   0.01346,  -0.04090,  -0.11035,   0.03762,   0.00440,  -0.00768,   0.03460,   0.00440,  -0.01976,   0.01044,  -0.01976,  -0.00768,  -0.04090,   0.02252,   0.00138,  -0.00466,   0.00138,   0.02554,   0.02252,  -0.00768,   0.03158,   0.01044,  -0.01070,   0.01044,  -0.01674,   0.00440,   0.04064,   0.00440,  -0.00768,  -0.01070,   0.00440,   0.02554,   0.04969,   0.02252,   0.02554,  -0.00466,   0.02252,  -0.01674,   0.00440,  -0.02882,  -0.00768,  -0.00164,  -0.03184,   0.03158,  -0.03486,   0.04366,   0.01044,   0.04667,  -0.10129,  -0.02580,   0.01648,   0.02554,   0.06177,   0.00138,   0.00742,  -0.03486,   0.05573,   0.00138,  -0.00466,   0.00742,  -0.00466,   0.03762,  -0.01674,  -0.03788,  -0.00164,  -0.02882,  -0.01070,  -0.01674,  -0.01976,  -0.03788,  -0.01976,  -0.02278,   0.00440,   0.02252,   0.01950,   0.02252,   0.01648,  -0.03788,  -0.02278,   0.01950,   0.03158,   0.02252,  -0.00466,  -0.00466,   0.01346,   0.05573,  -0.07411,  -0.01674,   0.01044,  -0.04090,  -0.04090,   0.00742,  -0.00164,  -0.01070,   0.01044,  -0.08317
   0.01950,  -0.02278,  -0.01372,  -0.00466,  -0.00466,  -0.00164,  -0.01070,  -0.01372,  -0.00768,  -0.03184,   0.00138,   0.00440,   0.02856,   0.01950,  -0.00466,  -0.00768,  -0.01070,   0.00138,   0.00440,   0.03460,   0.01044,   0.01346,  -0.00768,   0.02252,   0.03158,   0.02554,  -0.02278,  -0.01976,  -0.01070,  -0.01976,   0.00742,   0.00742,  -0.04996,   0.01648,  -0.01070,  -0.00768,  -0.00466,  -0.00164,  -0.05298,   0.02554,   0.03158,   0.02856,   0.01346,  -0.02278,  -0.00768,  -0.03486,   0.00742,   0.01648,  -0.00164,  -0.01372,  -0.03486,   0.02856,   0.04064,   0.02252,   0.02856,  -0.00164,  -0.03184,  -0.00768,  -0.00466,  -0.02278,   0.03762,   0.01044,   0.01346,  -0.01070,  -0.00768,   0.02252,  -0.00466,  -0.00164,  -0.00466,  -0.04694,  -0.06807,   0.00138,   0.03460,   0.00138,  -0.01070,  -0.02882,  -0.01976,  -0.01674,  -0.03788,  -0.00768,   0.00138,   0.00742,   0.00742,  -0.01674,  -0.00164,   0.00742,  -0.05298,   0.01044,  -0.07109,  -0.01976,   0.02252,   0.01346,   0.02252,   0.00138,   0.01044,  -0.01070,   0.02856,   0.00440,  -0.01070,   0.01648,  -0.03486,   0.01950,  -0.01070,   0.04064,   0.02554,  -0.03184,  -0.00466,   0.01346,  -0.01070,  -0.02580,  -0.01070,   0.02856,   0.01346,  -0.00164,   0.01346,  -0.02882,  -0.01070,   0.05271,  -0.04090,   0.00440,  -0.00466,   0.02554,  -0.03486,   0.01044,  -0.02882,  -0.03486,  -0.02278,  -0.02580
  -0.02278,  -0.01976,  -0.00768,   0.01648,  -0.05600,  -0.04392,  -0.01976,   0.11311,   0.11311,  -0.06807,  -0.04392,  -0.02882,   0.01648,   0.03460,   0.05573,   0.00138,  -0.00768,   0.04064,   0.01346,   0.01648,  -0.04392,   0.00138,  -0.00466,   0.00440,   0.02554,   0.04969,   0.04064,   0.05875,  -0.03184,  -0.00164,   0.04064,   0.01346,  -0.04392,   0.04366,   0.00440,  -0.00164,   0.00742,   0.01950,   0.03158,   0.01044,  -0.03184,   0.02252,  -0.00768,   0.03158,  -0.00466,  -0.12847,  -0.01976,  -0.00164,  -0.05600,  -0.02580,  -0.04996,   0.00138,   0.01648,   0.06479,   0.03762,   0.01648,  -0.00164,   0.01346,   0.03158,  -0.01372,  -0.00466,   0.01648,  -0.00466,  -0.04090,   0.00742,   0.00440,  -0.00164,  -0.06807,  -0.03788,  -0.05600,  -0.03486,   0.01346,  -0.01372,   0.01648,  -0.02882,  -0.01372,   0.00138,  -0.02580,  -0.06807,   0.00742,  -0.00164,  -0.01070,   0.05875,  -0.01976,  -0.03788,   0.03762,  -0.05298,   0.00440,  -0.02580,   0.01950,  -0.00768,   0.01346,   0.01044,  -0.03184,   0.01044,  -0.02278,   0.02252,   0.01044,   0.01950,   0.01648,  -0.03788,   0.02856,  -0.02278,   0.07385,  -0.01070,  -0.09223,   0.00742,   0.03158,  -0.02580,   0.01044,   0.08593,   0.02252,   0.07083,  -0.03788,   0.08593,   0.00440,  -0.00466,   0.02554,  -0.02580,  -0.01372,  -0.00768,  -0.00466,   0.01648,   0.02856,   0.01950,   0.03460,   0.02252,   0.01648
  -0.03486,   0.02252,   0.00742,   0.00742,   0.01648,   0.01648,  -0.00164,   0.06781,   0.05573,  -0.01674,  -0.03788,  -0.03788,   0.01950,   0.02252,  -0.01372,  -0.03788,  -0.04996,   0.01346,  -0.02278,  -0.01070,   0.01044,   0.01648,  -0.01070,   0.00742,  -0.02882,   0.05271,   0.04064,   0.00440,  -0.03788,  -0.02278,  -0.00466,  -0.00164,  -0.05600,  -0.01372,  -0.00768,  -0.00768,  -0.00466,   0.02252,   0.01950,  -0.01070,   0.01950,   0.02856,  -0.03486,   0.02856,  -0.00164,  -0.07411,   0.00742,   0.03158,  -0.08921,   0.01044,  -0.03788,  -0.00768,  -0.04090,   0.01346,   0.02554,  -0.02580,   0.00440,  -0.01070,   0.01950,  -0.01070,   0.03460,  -0.04090,   0.00440,  -0.03788,  -0.02278,  -0.01976,   0.01648,  -0.02580,  -0.03184,  -0.00768,   0.00742,   0.00742,  -0.04090,   0.04064,  -0.02580,   0.03762,  -0.00768,   0.01346,  -0.03184,  -0.02882,   0.04064,   0.00138,   0.06177,  -0.00466,  -0.00768,   0.06177,   0.01648,  -0.00768,  -0.00768,   0.03460,   0.01648,   0.01950,   0.01950,   0.03158,  -0.01070,  -0.03486,   0.01346,   0.00440,  -0.00164,   0.01950,  -0.03184,   0.00138,   0.02252,  -0.01372,  -0.00164,  -0.01372,   0.06781,   0.03460,  -0.00466,   0.01346,   0.04064,   0.03158,   0.03158,  -0.02882,   0.01648,  -0.01976,  -0.02580,  -0.00164,  -0.05298,  -0.00466,   0.02554,  -0.03788,   0.02856,   0.01950,   0.01950,   0.03460,   0.00138,   0.01648
  -0.01976,  -0.02882,   0.01346,  -0.02580,   0.04969,  -0.01674,  -0.05902,  -0.01070,  -0.02278,  -0.02882,   0.03762,  -0.01070,   0.01950,  -0.00164,  -0.04090,  -0.01976,   0.01950,   0.01044,  -0.01674,   0.02856,  -0.01674,   0.02252,   0.02554,   0.03762,   0.05271,   0.02252,  -0.05902,   0.04667,   0.01648,  -0.00466,   0.02252,   0.00440,   0.00138,   0.01648,  -0.02278,   0.01950,   0.02856,   0.01044,  -0.03184,   0.02252,   0.06479,   0.04366,  -0.00768,  -0.00466,   0.01950,  -0.04694,  -0.00466,   0.02554,  -0.05298,  -0.00466,  -0.02278,   0.00742,   0.06479,   0.06177,   0.02252,  -0.03788,   0.00138,  -0.04996,  -0.00768,  -0.05600,   0.01044,  -0.01070,  -0.01372,  -0.01070,   0.02252,   0.02554,   0.01044,  -0.04392,   0.00742,   0.07989,  -0.08317,  -0.01674,   0.01648,  -0.01976,  -0.00466,  -0.03788,  -0.01976,  -0.01070,  -0.01372,  -0.03486,  -0.02580,  -0.01070,  -0.03788,  -0.02580,   0.04667,   0.01044,  -0.08015,  -0.00164,  -0.07109,  -0.02882,   0.00742,  -0.03486,   0.01950,   0.00440,  -0.00768,  -0.02278,   0.04667,   0.00138,   0.00440,   0.07083,  -0.00768,  -0.01372,  -0.01372,   0.03460,  -0.02580,   0.01648,  -0.00466,   0.06781,  -0.04392,  -0.02278,   0.00742,   0.02856,   0.02554,  -0.03486,  -0.01070,  -0.05298,  -0.01372,   0.04667,  -0.00768,  -0.00466,  -0.00164,   0.01346,  -0.07713,   0.05271,  -0.00466,   0.01950,  -0.03184,   0.00742
  -0.01976,  -0.05600,  -0.01372,  -0.01070,  -0.00164,  -0.02278,  -0.15263,   0.03762,  -0.02278,  -0.08619,  -0.00466,  -0.03184,   0.03460,   0.01044,  -0.06807,   0.08291,   0.06177,  -0.01070,   0.01346,  -0.00164,  -0.02278,   0.01044,   0.05573,   0.03762,   0.10405,   0.00138,   0.09197,   0.07687,   0.01648,   0.05271,   0.11009,  -0.06203,   0.00742,   0.01950,  -0.05600,  -0.08619,   0.03158,   0.01648,  -0.00164,   0.03158,  -0.02278,   0.04064,  -0.01976,   0.02554,   0.03762,  -0.08015,  -0.04090,   0.01346,  -0.11337,  -0.04090,   0.03460,   0.00138,   0.03762,   0.07989,   0.02856,  -0.00768,   0.08593,  -0.05298,   0.01346,  -0.00164,  -0.05298,   0.06177,   0.02554,  -0.05298,   0.05875,   0.03762,  -0.00768,  -0.13149,  -0.04996,   0.01044,  -0.02278,  -0.06203,   0.14935,   0.00742,   0.03460,  -0.01372,  -0.01372,   0.04969,   0.01346,   0.05573,  -0.09223,  -0.00466,  -0.06807,  -0.01070,   0.03460,   0.06781,  -0.14659,   0.04366,  -0.05902,  -0.08921,   0.01648,  -0.07411,  -0.05298,  -0.03486,  -0.00466,  -0.10733,   0.00742,   0.02554,   0.03762,   0.03762,  -0.02580,  -0.01070,  -0.03184,   0.05875,  -0.02882,  -0.12847,  -0.00466,  -0.04694,  -0.08921,   0.03158,  -0.02580,   0.02554,   0.06479,  -0.04996,   0.02856,   0.04667,   0.05271,  -0.02580,   0.03158,   0.04667,  -0.01674,   0.03460,   0.10707,   0.11311,  -0.11639,   0.04366,   0.06177,   0.02252
  -0.05902,  -0.07109,   0.00440,  -0.03788,  -0.05298,   0.02856,  -0.05600,   0.00742,   0.02856,  -0.08015,  -0.00466,  -0.04090,   0.07989,  -0.01372,  -0.03788,   0.02856,   0.04366,  -0.03184,  -0.01070,  -0.02580,  -0.01674,  -0.07411,  -0.00164,  -0.01070,   0.01648,  -0.05902,  -0.04090,   0.02856,   0.01648,  -0.00466,   0.07385,  -0.01976,  -0.03788,   0.01346,  -0.05298,   0.02856,   0.01044,   0.03460,  -0.01976,   0.02856,  -0.00768,   0.02554,  -0.00164,   0.01044,   0.00742,  -0.08619,  -0.03788,  -0.01070,  -0.09827,  -0.00466,  -0.04392,   0.02554,  -0.02882,   0.01950,   0.00742,   0.01044,   0.02856,  -0.02882,   0.01950,  -0.01372,  -0.01070,   0.01950,   0.04667,   0.00440,   0.03460,  -0.07713,   0.03460,  -0.01674,  -0.01674,  -0.10733,  -0.02580,   0.03158,   0.04667,   0.06479,   0.01346,   0.02856,  -0.02580,  -0.00466,  -0.02278,  -0.01976,  -0.02580,  -0.00164,  -0.00466,  -0.03486,  -0.01674,   0.04064,  -0.12847,  -0.00466,  -0.04392,  -0.03486,  -0.00164,  -0.05600,  -0.01372,  -0.01070,  -0.03486,  -0.06505,  -0.00768,  -0.03184,  -0.02580,   0.03158,  -0.03788,  -0.02278,  -0.03486,  -0.01674,  -0.03184,  -0.08015,   0.07385,   0.03762,  -0.07713,   0.00742,  -0.01372,   0.05271,   0.01346,   0.02252,   0.03762,  -0.04694,   0.00138,  -0.01070,   0.10103,   0.03762,  -0.03184,   0.01346,   0.04064,   0.07989,  -0.09223,  -0.02580,   0.01648,   0.01044
  -0.02278,   0.01950,   0.01950,   0.03460,   0.00440,  -0.01976,  -0.05902,   0.00440,   0.03158,   0.00742,   0.01950,  -0.04392,  -0.01976,  -0.04694,  -0.04694,  -0.02580,  -0.01070,   0.02252,  -0.02278,   0.02252,  -0.03486,  -0.01070,   0.00742,   0.01346,  -0.00466,   0.02856,  -0.01070,   0.06781,   0.01950,  -0.02882,  -0.01372,  -0.01674,  -0.01372,   0.02252,  -0.00164,   0.01346,   0.03158,   0.03762,   0.01950,  -0.01070,   0.04969,   0.01648,   0.02554,   0.01346,  -0.00768,  -0.14357,  -0.02278,   0.01044,  -0.05600,  -0.00466,   0.04969,  -0.00164,   0.06781,   0.02252,  -0.02580,  -0.08015,   0.01648,  -0.04090,  -0.01674,  -0.01976,   0.01044,  -0.00768,   0.01346,  -0.02278,  -0.00768,   0.01346,   0.01648,  -0.05600,  -0.01372,   0.01044,  -0.06203,  -0.02278,  -0.00164,  -0.01976,  -0.01674,  -0.00164,  -0.02882,   0.03460,  -0.03184,   0.01950,  -0.04090,  -0.02882,  -0.01372,   0.00138,   0.00742,   0.01346,  -0.01976,  -0.00164,  -0.06505,  -0.01372,   0.02252,   0.01346,   0.03158,   0.00440,   0.02554,   0.01648,   0.03762,   0.00440,  -0.02882,   0.02856,  -0.01976,   0.01346,  -0.00466,   0.01044,  -0.01372,   0.02554,   0.02856,   0.02554,   0.03158,  -0.02580,  -0.02882,   0.01648,   0.00138,  -0.00466,  -0.00164,   0.01648,  -0.00466,   0.04667,   0.00138,  -0.03486,   0.02554,  -0.02580,  -0.02580,  -0.02882,   0.00138,   0.01648,  -0.08921,  -0.00164
  -0.00768,   0.05271,  -0.00466,   0.03762,   0.00742,   0.00742,  -0.14659,   0.09499,  -0.04996,  -0.01372,   0.12217,  -0.03788,  -0.02278,   0.03158,  -0.04694,  -0.06203,   0.06479,  -0.02580,  -0.02278,  -0.00164,  -0.01674,  -0.01372,   0.03762,  -0.00164,  -0.01372,   0.03460,   0.00440,   0.18860,   0.09499,   0.05573,   0.04366,  -0.03184,   0.04366,   0.01044,   0.02252,  -0.01976,   0.05875,   0.02554,   0.01346,  -0.00768,   0.05271,   0.04969,   0.01648,   0.04366,   0.04667,  -0.21000,  -0.08317,   0.03460,  -0.07109,   0.00138,   0.07385,   0.01950,   0.01648,   0.02554,   0.01950,  -0.06203,   0.00742,   0.00440,   0.01346,  -0.01070,  -0.05298,   0.03158,  -0.02580,  -0.01976,   0.01346,   0.02856,   0.00742,  -0.11035,  -0.00768,   0.02554,  -0.06203,  -0.00768,  -0.01372,   0.01044,  -0.01372,  -0.01070,   0.03762,   0.00742,   0.01346,  -0.01070,  -0.06807,  -0.01976,  -0.02278,  -0.01372,   0.06781,   0.02252,  -0.04392,   0.00138,  -0.06505,  -0.05600,   0.04064,   0.02554,   0.08291,  -0.00466,   0.02856,  -0.07411,   0.02856,   0.03762,  -0.01674,   0.02856,  -0.07411,  -0.00768,   0.01044,   0.00138,   0.01044,   0.04667,   0.05573,   0.03158,   0.11009,  -0.01070,  -0.04392,   0.03460,  -0.00768,  -0.03184,  -0.03788,   0.03460,  -0.00466,  -0.01674,   0.01950,  -0.00768,   0.00138,  -0.02278,  -0.10129,   0.03762,   0.02554,   0.03460,  -0.08317,   0.03158
   0.00440,   0.02252,   0.00742,  -0.01372,   0.01648,  -0.00164,  -0.07713,   0.00742,  -0.03184,  -0.02580,   0.01648,   0.00440,   0.02554,   0.02554,  -0.05902,  -0.06807,   0.03158,  -0.02580,  -0.02882,  -0.01070,  -0.00768,  -0.06203,   0.00138,  -0.02278,  -0.02278,  -0.03486,  -0.06203,   0.06479,   0.07687,   0.01346,   0.04064,  -0.01674,  -0.03788,   0.00440,   0.00138,   0.00440,   0.04969,   0.01950,   0.00440,   0.00440,   0.00138,   0.03762,   0.00440,   0.00440,  -0.00466,  -0.13753,  -0.08015,   0.01346,  -0.03486,   0.01346,   0.02252,  -0.01976,  -0.03184,   0.02856,   0.03158,  -0.01976,   0.02252,  -0.02278,   0.00440,  -0.00768,  -0.01674,   0.00138,   0.00440,   0.01044,   0.03460,   0.00440,   0.05271,   0.01346,   0.01950,   0.04366,  -0.06505,   0.02554,   0.04366,  -0.00164,  -0.01976,  -0.02278,  -0.02580,  -0.02882,   0.00440,   0.01044,  -0.06807,   0.00138,  -0.04996,   0.00440,   0.01346,  -0.02278,  -0.10431,   0.01346,  -0.07411,  -0.03184,   0.03460,  -0.02882,   0.02252,  -0.00466,  -0.02580,  -0.00466,   0.01950,   0.00440,  -0.03184,   0.00742,  -0.04392,   0.00440,  -0.02278,   0.01346,  -0.01372,   0.01346,   0.04064,  -0.03184,   0.05875,  -0.01674,  -0.00466,   0.01346,   0.01044,   0.01648,  -0.01674,  -0.01070,  -0.01674,  -0.00164,   0.00440,   0.02252,   0.02554,  -0.01372,  -0.01070,   0.06781,  -0.03486,   0.01044,  -0.03486,   0.01346
   0.00742,  -0.04392,  -0.03184,  -0.00466,  -0.01976,  -0.01674,   0.00440,   0.03158,   0.02554,   0.03460,  -0.04996,   0.00138,  -0.00164,   0.03460,  -0.01674,   0.04969,   0.02554,  -0.00164,  -0.00768,   0.04969,  -0.01674,  -0.05600,  -0.02580,  -0.02580,   0.01648,   0.03762,  -0.00164,   0.00440,  -0.02278,   0.01044,  -0.00768,   0.01044,  -0.01070,  -0.04392,  -0.00466,  -0.03184,   0.08593,  -0.02278,   0.02252,  -0.15263,   0.03762,   0.00440,   0.00440,  -0.01674,  -0.02580,   0.01346,   0.03762,   0.01346,  -0.00768,   0.03158,   0.00742,   0.05875,   0.00440,  -0.00768,   0.03158,   0.00742,  -0.02882,  -0.04694,   0.00440,  -0.04392,   0.00742,   0.00742,   0.01346,   0.03460,  -0.03788,   0.01648,  -0.02882,   0.01044,   0.01648,   0.00742,   0.05271,   0.00742,  -0.04392,   0.04667,   0.01648,   0.02856,   0.03158,   0.01346,  -0.02882,  -0.03788,   0.06781,   0.01648,   0.01950,  -0.02882,   0.06177,  -0.03184,   0.00440,   0.02252,   0.05271,   0.01648,  -0.02278,  -0.01070,   0.00138,   0.01346,   0.00440,  -0.00164,   0.03158,   0.02856,   0.02554,   0.02252,   0.01346,  -0.02580,   0.01950,   0.01950,   0.01044,   0.01044,  -0.06203,   0.03762,  -0.00164,   0.03460,   0.01044,  -0.01372,  -0.01070,  -0.04996,  -0.01674,  -0.00768,   0.00138,  -0.00768,   0.00742,  -0.01070,   0.01346,  -0.07109,  -0.03184,   0.00742,  -0.01070,   0.00742,  -0.01976,   0.01950
   0.00440,   0.01346,  -0.08921,  -0.02580,   0.03762,   0.04969,  -0.01674,   0.00440,   0.02252,   0.01044,  -0.02580,  -0.01070,   0.01346,  -0.01372,   0.00440,   0.00440,   0.01346,  -0.01372,   0.03762,   0.01950,  -0.03788,  -0.06807,  -0.00466,   0.07989,  -0.01674,  -0.07713,  -0.01372,   0.01044,  -0.00466,   0.05271,   0.00440,   0.12217,   0.03460,  -0.00768,  -0.13753,   0.02856,   0.03762,  -0.02580,   0.01648,  -0.20698,  -0.00768,   0.02856,   0.01044,   0.01648,  -0.01674,   0.01044,  -0.00164,   0.01648,   0.01950,  -0.00768,   0.02252,   0.01346,  -0.00164,   0.01346,   0.03762,   0.03158,  -0.01070,  -0.02580,   0.02554,  -0.07411,   0.05573,  -0.02580,  -0.05600,   0.05875,   0.00440,   0.00440,   0.03460,   0.02554,  -0.02882,  -0.01976,   0.01044,  -0.02278,  -0.04090,   0.03460,  -0.03486,   0.07083,  -0.04090,   0.03762,  -0.00768,  -0.04996,   0.07385,  -0.01674,   0.01346,  -0.02278,   0.00138,   0.00138,  -0.02278,   0.00440,   0.02554,   0.00742,   0.02856,  -0.01674,   0.00742,  -0.02278,   0.01044,  -0.08619,   0.03460,   0.01648,   0.00742,  -0.03788,   0.03460,  -0.02278,   0.02252,   0.01346,   0.00742,   0.03460,  -0.06203,   0.00138,  -0.00164,   0.01648,   0.01950,  -0.03486,   0.21880,  -0.08015,   0.02554,   0.02856,  -0.04090,   0.01950,   0.00742,   0.01044,  -0.08015,  -0.01372,  -0.04090,   0.00440,  -0.08317,   0.01044,   0.01044,   0.02252
   0.01346,  -0.04694,  -0.17678,  -0.00164,   0.01648,  -0.01976,  -0.01372,  -0.03184,  -0.04090,   0.04064,   0.00742,  -0.00164,   0.00138,  -0.04090,   0.01346,  -0.01372,   0.02554,  -0.01372,   0.01346,  -0.00466,  -0.00768,  -0.05600,   0.01346,   0.10103,  -0.02580,  -0.07411,  -0.01372,  -0.00466,   0.01950,   0.01648,  -0.00768,   0.11009,   0.01044,   0.00742,  -0.01372,  -0.03184,  -0.04694,  -0.02580,   0.01950,  -0.12847,   0.00742,   0.04366,   0.00742,   0.02252,   0.00138,  -0.01976,  -0.04996,   0.01346,  -0.01070,   0.01346,  -0.01674,   0.02252,  -0.04392,  -0.01674,   0.06781,  -0.02278,  -0.05600,  -0.02580,   0.00440,  -0.07109,   0.04667,   0.01346,  -0.09525,  -0.00164,  -0.04694,   0.02856,  -0.04090,   0.04366,  -0.00466,   0.01044,  -0.01070,   0.02252,  -0.00164,  -0.07411,   0.00742,   0.03762,   0.06781,   0.01950,  -0.00466,   0.01950,   0.00742,   0.00138,  -0.02278,  -0.03184,  -0.04694,  -0.01372,  -0.03184,   0.03460,  -0.02278,   0.01346,   0.04667,  -0.08015,   0.00742,  -0.01976,  -0.01674,   0.03762,   0.03460,   0.01346,   0.00440,  -0.03788,  -0.00466,  -0.01976,   0.01950,   0.00742,   0.00742,  -0.01674,   0.11613,  -0.01372,   0.02252,   0.03762,   0.01346,   0.01648,   0.03158,  -0.03486,  -0.00466,  -0.03788,   0.01346,  -0.02882,   0.00742,   0.04064,  -0.00164,   0.01950,   0.02554,  -0.00768,  -0.03788,   0.03158,  -0.01070,   0.01346
  -0.01674,   0.01648,   0.11915,  -0.00768,  -0.04090,   0.06479,   0.01648,  -0.01070,  -0.00164,   0.01346,  -0.02882,  -0.01674,   0.03158,   0.01346,  -0.00164,  -0.02278,   0.00440,  -0.03486,   0.01648,  -0.01372,  -0.01976,  -0.06807,  -0.00466,  -0.12847,  -0.02580,   0.04064,   0.05875,  -0.01070,  -0.01070,   0.01950,  -0.06505,  -0.00768,   0.06781,   0.00138,  -0.08317,  -0.01372,   0.09801,  -0.05902,  -0.01674,  -0.22510,  -0.02580,  -0.00164,  -0.01976,  -0.01976,   0.00742,   0.01044,   0.00742,   0.00440,   0.04969,   0.00742,  -0.00466,  -0.01976,   0.00440,   0.01044,   0.06177,   0.02252,   0.02856,   0.00742,  -0.00466,  -0.09223,   0.01346,   0.04667,   0.02252,   0.04064,   0.00742,  -0.02580,   0.04366,  -0.00164,   0.00742,  -0.05600,   0.02856,   0.01044,  -0.03486,   0.07083,  -0.06203,  -0.00768,  -0.01674,  -0.03184,   0.01044,  -0.00466,   0.02856,  -0.01070,   0.00440,  -0.00466,   0.04064,   0.03158,   0.02856,  -0.04392,  -0.00466,   0.01044,   0.02252,  -0.02278,   0.04366,  -0.01372,   0.00440,  -0.04392,  -0.06203,   0.00742,   0.01648,   0.01346,   0.03460,  -0.02580,  -0.00466,  -0.01070,  -0.01976,   0.05271,  -0.10431,  -0.01070,  -0.03184,  -0.02278,   0.02856,  -0.01372,   0.21880,  -0.01070,   0.01648,   0.01346,  -0.01372,  -0.06203,  -0.04996,   0.00138,  -0.09525,   0.00440,   0.02856,   0.00742,   0.00440,   0.01044,  -0.02278,  -0.01674
   0.00742,   0.03762,   0.08593,  -0.00768,  -0.04694,  -0.05600,   0.02252,  -0.00466,  -0.00466,   0.00138,   0.05573,  -0.00466,   0.00138,  -0.03184,  -0.02278,   0.02554,   0.00440,   0.01950,   0.08593,   0.04667,  -0.01674,  -0.03184,  -0.02278,   0.08291,  -0.02882,  -0.08921,  -0.03788,  -0.01674,   0.04667,  -0.01070,   0.01648,  -0.01070,   0.01950,   0.11915,  -0.16471,   0.01044,   0.00742,  -0.02278,  -0.03486,  -0.21604,  -0.11941,   0.00138,  -0.02882,   0.00440,  -0.01674,   0.01648,   0.00440,   0.01648,   0.12217,  -0.06505,  -0.00466,  -0.05298,  -0.05600,   0.01950,   0.03762,   0.04969,   0.02252,  -0.00164,   0.17652,  -0.07411,   0.04667,   0.03762,   0.04667,  -0.01070,   0.11311,  -0.01976,   0.15538,  -0.01070,  -0.00466,  -0.01674,   0.03460,  -0.12243,  -0.01976,  -0.00164,  -0.06505,  -0.00768,  -0.01674,  -0.03788,   0.04064,  -0.03184,   0.09499,   0.03460,   0.01346,  -0.04392,  -0.03184,   0.02252,   0.01044,   0.03762,   0.01950,   0.01648,  -0.00768,  -0.10733,   0.01648,   0.04064,  -0.00164,   0.03762,  -0.01372,   0.01648,  -0.00466,  -0.15263,   0.00742,  -0.08317,  -0.02580,  -0.02580,   0.01648,   0.07687,  -0.01976,  -0.04090,  -0.02580,  -0.01372,   0.02856,  -0.02882,   0.42716,   0.08291,   0.03460,   0.10405,   0.00440,  -0.07411,   0.02554,  -0.03788,  -0.13451,   0.04667,  -0.05902,  -0.01372,   0.06781,  -0.00466,  -0.01372,  -0.02580
   0.00440,  -0.01976,  -0.07713,  -0.01070,   0.01950,  -0.06505,   0.05875,   0.00138,   0.01648,   0.02554,  -0.01976,  -0.03486,  -0.01372,  -0.01372,  -0.00164,   0.01950,   0.00742,   0.00440,   0.03460,   0.05875,  -0.01070,  -0.00768,   0.02856,   0.08291,  -0.00466,  -0.02278,  -0.00164,  -0.00466,   0.02856,   0.01044,  -0.07713,  -0.00164,   0.02252,   0.05573,  -0.04392,  -0.00768,  -0.02580,  -0.01372,  -0.01372,  -0.27644,  -0.03486,   0.04366,  -0.02278,   0.01648,  -0.02882,  -0.01674,  -0.01070,   0.03158,   0.02252,   0.04064,   0.02252,  -0.03184,   0.00440,  -0.00466,  -0.03486,  -0.04090,   0.01044,  -0.03788,   0.02856,  -0.03486,   0.03762,   0.02252,  -0.07109,  -0.04392,   0.03460,  -0.01372,  -0.01372,   0.00138,  -0.00466,  -0.04090,   0.00440,   0.03158,  -0.02882,  -0.08317,   0.01044,   0.01346,   0.05271,   0.04969,   0.01044,  -0.01070,   0.05271,   0.00138,   0.02554,  -0.00466,  -0.02278,  -0.02278,   0.00440,  -0.04392,   0.03460,   0.01346,  -0.01674,  -0.01674,  -0.00164,   0.01346,  -0.02580,  -0.01674,   0.02856,  -0.00164,  -0.01070,   0.01950,  -0.00466,  -0.06203,  -0.00164,  -0.00466,   0.03460,  -0.02278,   0.19464,  -0.04694,  -0.02580,   0.01950,   0.01346,   0.00440,   0.13123,   0.02554,  -0.01372,  -0.02278,  -0.01372,  -0.09827,   0.01648,  -0.01976,  -0.04996,  -0.01976,  -0.01372,  -0.00164,   0.00138,   0.01648,  -0.03184,  -0.02580
  -0.01070,  -0.06203,   0.08895,   0.01346,   0.01044,  -0.00768,  -0.02278,  -0.01372,  -0.03184,   0.01044,  -0.00466,   0.00440,   0.03460,   0.00742,  -0.01976,  -0.01372,  -0.03486,  -0.03184,   0.00440,  -0.03486,  -0.01070,   0.02252,   0.00138,  -0.14659,  -0.01070,  -0.02882,   0.00138,   0.00742,  -0.01070,  -0.01372,   0.00440,  -0.10733,   0.01648,   0.01950,   0.01346,  -0.01976,   0.03158,  -0.03788,   0.00742,  -0.11941,  -0.00466,  -0.01372,  -0.01976,   0.00440,   0.01648,   0.01044,   0.00440,  -0.00466,   0.03158,   0.01648,  -0.02580,   0.02554,   0.07687,  -0.01070,   0.05271,  -0.01070,  -0.00768,   0.00742,   0.02252,   0.01044,   0.01044,  -0.02278,  -0.01976,  -0.02882,  -0.02882,  -0.00768,  -0.04090,  -0.01674,   0.02252,   0.01950,  -0.00164,  -0.00466,  -0.00164,   0.00440,  -0.05902,  -0.04694,  -0.01372,  -0.06505,   0.02252,  -0.03486,   0.01346,  -0.01070,  -0.00164,   0.00742,   0.05875,  -0.01070,  -0.00164,   0.08895,  -0.04392,   0.00138,   0.00742,  -0.03486,   0.01044,  -0.00164,   0.00138,   0.06781,  -0.01976,  -0.01070,   0.03158,   0.00138,   0.02554,  -0.03486,  -0.00164,   0.02554,  -0.01070,   0.03460,  -0.06807,  -0.04090,   0.04064,   0.02252,  -0.02580,   0.00138,   0.01346,   0.02856,  -0.00164,  -0.00768,  -0.01372,  -0.08317,   0.10405,   0.04064,  -0.00466,  -0.00768,   0.03158,   0.01346,   0.02554,   0.00440,  -0.04694,   0.01044
  -0.03184,  -0.01070,  -0.02882,  -0.00466,  -0.03486,  -0.08921,   0.06479,   0.02554,  -0.03184,  -0.01372,  -0.00768,  -0.03788,   0.03460,  -0.03486,   0.00138,   0.00440,   0.00138,   0.02856,   0.03158,   0.00138,  -0.00164,  -0.00466,   0.00440,  -0.05600,   0.03460,  -0.00466,  -0.01372,   0.00440,   0.01346,   0.02856,   0.01648,  -0.15565,   0.01950,   0.08291,  -0.04392,  -0.08015,  -0.05600,  -0.02580,   0.02252,  -0.27644,   0.00742,   0.00138,  -0.03184,   0.01950,  -0.01976,   0.00742,   0.00742,  -0.00164,   0.01648,  -0.03486,  -0.00164,   0.00138,   0.05271,   0.00742,   0.06177,  -0.01372,   0.03158,  -0.01674,   0.08593,   0.00742,   0.01346,  -0.03486,   0.02856,  -0.02278,   0.01044,  -0.00768,   0.03158,   0.00742,   0.03460,   0.01044,   0.01950,   0.02554,  -0.00466,  -0.05298,  -0.03486,  -0.01976,   0.07083,  -0.03184,   0.01648,  -0.03486,   0.06781,   0.00138,   0.00440,   0.00742,   0.02252,  -0.00164,   0.02554,  -0.05902,   0.02554,  -0.01070,  -0.01976,  -0.04090,   0.01950,   0.04667,  -0.01976,  -0.07109,   0.00138,  -0.00466,   0.01346,  -0.00768,   0.01044,  -0.08015,  -0.01372,   0.00440,   0.00138,   0.05573,   0.01346,  -0.04392,   0.00440,  -0.01070,  -0.01372,   0.01044,   0.01648,   0.04366,  -0.00768,  -0.01674,  -0.00466,  -0.10733,  -0.03184,  -0.01674,  -0.09525,  -0.02278,  -0.01372,   0.01346,  -0.01372,   0.01648,  -0.02278,   0.02856
  -0.00768,   0.02554,  -0.03486,  -0.03486,   0.00440,  -0.01976,   0.01950,  -0.00466,   0.02252,   0.00440,  -0.02580,  -0.03788,   0.00440,  -0.00466,  -0.01976,  -0.01372,  -0.00164,   0.01648,  -0.03486,  -0.03184,  -0.00768,   0.04667,  -0.01372,   0.01346,   0.01346,  -0.01372,  -0.01070,  -0.00466,  -0.00466,   0.01950,   0.01044,  -0.09525,   0.00440,   0.00742,   0.02554,   0.01044,   0.01346,   0.01044,  -0.00768,  -0.23114,  -0.01070,   0.00742,  -0.00164,  -0.00466,  -0.02882,  -0.02580,   0.01044,   0.01648,  -0.00466,   0.01648,  -0.00466,  -0.03486,   0.09499,   0.00742,   0.02554,  -0.02882,   0.04064,  -0.03788,   0.01950,  -0.01372,   0.01648,   0.02856,  -0.08921,   0.06177,  -0.00466,   0.01044,  -0.00164,   0.02554,   0.01346,   0.02554,  -0.00466,   0.02856,   0.00138,  -0.00768,   0.05875,   0.01044,  -0.01674,   0.02252,   0.00138,  -0.02882,   0.05875,   0.02252,   0.05271,   0.04366,   0.00440,  -0.00768,  -0.01372,  -0.01070,   0.00138,  -0.00164,  -0.03486,  -0.02882,  -0.00466,  -0.00768,  -0.03184,  -0.01674,  -0.00164,  -0.02580,   0.01950,   0.06781,   0.00742,  -0.08015,   0.02856,   0.00742,  -0.00466,  -0.03788,   0.09197,  -0.05902,   0.01648,   0.01044,   0.00138,   0.02554,  -0.01372,   0.00138,  -0.01674,   0.00138,   0.04969,  -0.07109,  -0.07713,   0.01950,   0.02856,  -0.02278,  -0.00768,  -0.00466,  -0.00768,   0.02252,  -0.03184,   0.00742
   0.03158,   0.02252,  -0.04694,   0.01648,   0.01648,   0.02554,   0.03460,   0.00440,   0.01950,  -0.05298,   0.01044,  -0.05298,   0.00440,   0.01044,   0.01950,  -0.03184,   0.01648,  -0.00164,  -0.01070,   0.00138,   0.00742,   0.00440,   0.02554,  -0.00768,  -0.00466,   0.05573,  -0.01372,   0.01044,   0.01648,  -0.02580,  -0.03184,   0.01950,   0.04366,   0.01346,   0.00138,  -0.00466,   0.03762,   0.02252,  -0.00164,   0.01044,   0.01346,   0.02856,   0.03460,   0.04366,   0.02252,  -0.02278,   0.01950,   0.02856,  -0.02278,   0.01346,  -0.03184,  -0.01372,  -0.00466,  -0.00768,   0.02554,  -0.01372,   0.02252,  -0.05298,   0.01950,   0.03460,  -0.00466,   0.00440,  -0.01372,   0.03158,  -0.02278,  -0.02580,  -0.03486,   0.01044,  -0.02882,   0.04064,   0.01044,  -0.01372,   0.00440,   0.02252,   0.00138,  -0.00466,   0.00742,   0.02554,  -0.01976,  -0.01070,  -0.02580,  -0.01674,   0.02856,  -0.00466,   0.01044,   0.02252,   0.02554,  -0.01674,   0.04667,  -0.00466,   0.01346,   0.02252,   0.03158,  -0.06505,   0.01648,  -0.01976,   0.02856,   0.00742,   0.00440,  -0.00466,  -0.00768,   0.01346,  -0.00768,  -0.00466,   0.00440,  -0.02580,  -0.01070,   0.00138,   0.00138,  -0.00466,  -0.00164,   0.01346,  -0.00164,  -0.00768,  -0.03486,  -0.05298,  -0.00466,  -0.00164,   0.02252,  -0.02580,   0.02856,  -0.00768,  -0.00768,  -0.00768,   0.01950,  -0.00466,   0.01044,  -0.00164
   0.02856,   0.01044,  -0.04996,   0.01648,   0.04064,   0.04969,   0.01346,  -0.00164,   0.07385,  -0.08015,   0.03460,  -0.01674,   0.00440,   0.00742,   0.01044,   0.01950,   0.03158,   0.01346,   0.00138,  -0.01976,   0.02554,  -0.01372,   0.03762,   0.01950,   0.07083,  -0.02580,   0.01648,  -0.01372,  -0.00466,  -0.07109,  -0.02278,   0.06479,   0.03762,   0.03762,  -0.00466,  -0.03788,   0.01950,   0.02554,  -0.00768,  -0.02278,   0.01648,   0.01346,   0.01044,   0.05573,   0.05573,  -0.00768,   0.02856,  -0.01070,  -0.00466,  -0.01372,  -0.03184,  -0.02580,   0.00742,   0.01044,   0.04667,   0.02252,   0.04969,  -0.00164,   0.01950,   0.04366,  -0.02278,   0.00742,   0.01950,   0.00138,  -0.01372,  -0.02580,   0.00440,   0.02554,  -0.00466,   0.00742,   0.00440,  -0.04392,   0.01044,   0.00138,   0.03158,   0.02554,  -0.05902,   0.04667,   0.01346,  -0.00466,  -0.04090,  -0.03486,   0.01648,   0.00742,  -0.02580,   0.02856,   0.03762,  -0.01070,  -0.02882,  -0.03486,   0.00440,  -0.01976,   0.01346,  -0.01976,  -0.02882,  -0.01372,   0.01346,   0.01044,   0.01950,   0.02252,  -0.02882,   0.04366,   0.00742,  -0.01372,   0.02252,   0.00440,  -0.02882,   0.00742,  -0.00466,  -0.02580,   0.01044,  -0.00768,   0.04064,  -0.10129,   0.01044,  -0.03788,  -0.02278,   0.01950,  -0.01070,  -0.00466,  -0.01674,  -0.00466,   0.01044,  -0.01976,   0.03460,  -0.02278,  -0.03788,   0.01648
  -0.00768,   0.01044,  -0.03184,  -0.00164,   0.04969,  -0.04090,  -0.01372,  -0.01070,   0.01044,  -0.08015,  -0.01372,  -0.02580,  -0.00466,   0.04969,  -0.00164,   0.00440,   0.03460,   0.00138,  -0.01070,  -0.01372,   0.01950,   0.00138,  -0.00768,   0.02252,   0.01648,  -0.00164,  -0.02278,  -0.00466,   0.01648,  -0.03486,  -0.00164,   0.00742,  -0.01070,  -0.00164,   0.01950,  -0.00466,  -0.00164,   0.04064,   0.02856,  -0.00466,   0.01044,   0.00138,   0.01044,  -0.00466,   0.04366,   0.03762,   0.00138,  -0.00466,   0.05573,  -0.00768,  -0.03184,   0.01044,   0.00440,  -0.02278,   0.05271,   0.00138,   0.01950,  -0.00768,   0.01044,  -0.00466,  -0.01070,   0.01346,  -0.01372,   0.00742,  -0.04090,   0.01346,  -0.01372,  -0.00768,  -0.02882,  -0.00768,   0.01044,  -0.02278,   0.01950,   0.01044,   0.00742,   0.00138,   0.00742,   0.03158,   0.01950,  -0.03184,  -0.04996,   0.00742,  -0.00768,   0.01648,  -0.01070,   0.01346,   0.02252,   0.03460,  -0.02580,  -0.04090,   0.02856,  -0.00466,   0.01346,   0.04667,  -0.00164,   0.00138,  -0.02580,   0.00742,   0.00742,   0.00138,   0.00440,  -0.03486,   0.01346,  -0.03184,   0.00440,   0.00440,   0.01950,  -0.01372,  -0.00768,  -0.02278,   0.00742,   0.01346,  -0.00466,  -0.06203,  -0.01674,  -0.01372,  -0.01070,   0.01044,  -0.03788,  -0.01976,  -0.02278,   0.00742,   0.01346,  -0.01976,   0.01648,   0.01346,  -0.01372,   0.01346
   0.03460,   0.01950,   0.01648,   0.04667,   0.00138,   0.05573,   0.03460,  -0.01674,   0.01648,  -0.07109,  -0.00466,  -0.00164,  -0.00466,  -0.01674,   0.03460,   0.00138,   0.00138,  -0.01372,   0.02554,  -0.04090,   0.04064,  -0.01976,  -0.00466,  -0.05298,   0.06781,   0.01044,   0.04667,   0.01044,  -0.02278,  -0.01070,  -0.05902,  -0.00466,   0.07687,  -0.00768,   0.01648,   0.00742,   0.05875,   0.04064,   0.01044,  -0.01674,   0.03460,   0.02554,   0.02856,   0.04064,   0.05573,   0.01044,   0.01346,   0.07083,  -0.00164,   0.00742,  -0.00768,  -0.03184,   0.03762,   0.03158,   0.07989,   0.03158,  -0.01976,  -0.00466,   0.01648,   0.01648,  -0.01674,   0.07385,  -0.03788,   0.00138,  -0.02278,  -0.05902,   0.01648,   0.01648,   0.01950,  -0.02580,   0.01950,  -0.02882,   0.01044,   0.04366,   0.00138,  -0.02278,  -0.00466,  -0.01976,  -0.00164,  -0.01674,  -0.02278,   0.02252,   0.00138,  -0.00466,  -0.01674,   0.00440,   0.04969,   0.01648,  -0.02278,  -0.00164,   0.03762,   0.02856,  -0.01976,  -0.04694,  -0.02278,  -0.01976,   0.00138,   0.03158,  -0.03486,   0.01648,  -0.07109,   0.03460,   0.03762,  -0.01674,   0.01648,   0.00742,  -0.01372,  -0.00768,  -0.01070,  -0.01070,  -0.02278,  -0.00164,   0.00138,  -0.10129,  -0.01674,   0.01044,  -0.03486,  -0.00164,  -0.04694,   0.03460,  -0.02278,   0.02554,  -0.02278,   0.00742,  -0.00768,  -0.01070,   0.00742,   0.02554
   0.04064,   0.00742,   0.07385,   0.00138,   0.02252,  -0.02882,  -0.06807,   0.00440,  -0.03788,  -0.09223,  -0.00164,   0.07687,   0.00440,  -0.00164,  -0.03184,   0.03158,   0.00742,  -0.00466,   0.01648,  -0.00768,   0.02856,   0.00138,   0.01044,   0.02554,   0.11915,   0.01648,   0.13727,   0.03158,   0.01044,  -0.02882,  -0.14055,   0.05573,   0.01346,  -0.04996,  -0.02882,  -0.03486,   0.03762,   0.01346,  -0.03788,  -0.05298,  -0.00768,   0.01346,  -0.05298,   0.05271,   0.05875,  -0.01070,   0.03158,   0.03158,   0.07989,  -0.01070,  -0.04090,   0.01346,   0.02856,   0.04969,   0.07385,   0.08291,   0.06781,  -0.00466,   0.04969,   0.01950,  -0.08317,   0.03158,  -0.00164,   0.00440,  -0.11337,   0.04064,   0.14633,  -0.03184,   0.07083,   0.00138,   0.02856,  -0.05600,   0.02856,   0.09499,  -0.00768,   0.01346,  -0.03486,   0.05875,   0.00138,   0.00742,  -0.05902,  -0.02580,  -0.02278,   0.03460,  -0.06203,   0.03460,   0.05875,   0.05875,  -0.02580,  -0.02580,   0.01648,   0.00440,   0.02554,   0.00440,  -0.04392,   0.06479,   0.00742,   0.04064,   0.02856,   0.02554,  -0.07411,   0.07687,   0.11915,  -0.02580,  -0.00164,   0.01346,   0.00440,  -0.06505,  -0.04694,  -0.01976,  -0.01674,  -0.01070,   0.01648,   0.02554,   0.00440,   0.05573,  -0.01674,   0.07687,  -0.00768,   0.03158,  -0.05298,   0.03460,  -0.04694,   0.01044,  -0.02882,   0.01044,   0.02554,   0.02856
  -0.04694,  -0.01070,  -0.03184,   0.00138,   0.05875,  -0.00164,  -0.02278,   0.01648,  -0.01674,  -0.06807,  -0.00768,   0.02252,   0.00138,  -0.01674,  -0.01372,  -0.00466,  -0.04090,  -0.04996,  -0.00768,  -0.02882,  -0.00466,   0.05573,  -0.05600,   0.03460,   0.01950,   0.02856,   0.01950,   0.00440,   0.01648,  -0.01070,  -0.11035,  -0.01674,  -0.04996,  -0.02580,  -0.02278,   0.00440,   0.02554,   0.02856,   0.00440,  -0.03486,   0.01346,  -0.00164,  -0.00768,  -0.00164,   0.04064,  -0.02580,   0.02252,   0.06479,   0.02856,   0.03158,  -0.06203,  -0.03486,  -0.01976,  -0.01070,   0.03460,   0.02856,   0.00440,  -0.03486,   0.01648,  -0.02278,  -0.06203,  -0.00768,  -0.03486,   0.02554,  -0.11337,   0.07687,   0.03158,  -0.00466,  -0.01070,  -0.00164,   0.03460,  -0.06505,  -0.02278,   0.00138,   0.00138,  -0.04392,  -0.00768,   0.08895,   0.01346,   0.02856,  -0.08317,  -0.01976,  -0.03788,  -0.02278,  -0.05298,   0.01648,   0.02252,   0.00138,  -0.00768,  -0.04090,   0.04667,   0.02252,   0.01648,   0.01346,  -0.04090,  -0.02882,  -0.01070,   0.03460,  -0.04090,   0.04667,  -0.07713,  -0.00466,   0.05573,  -0.03184,   0.00138,   0.04969,   0.04667,  -0.01372,  -0.06807,  -0.02882,  -0.00768,  -0.01372,  -0.01372,   0.00138,  -0.03486,  -0.01372,  -0.02278,   0.05271,  -0.01070,  -0.02882,   0.00440,   0.01648,   0.00440,  -0.01976,   0.01648,   0.00440,  -0.00466,   0.03158
  -0.01070,  -0.00768,   0.01648,   0.00742,   0.02252,   0.03460,  -0.01674,   0.00138,  -0.02580,  -0.05902,  -0.01070,  -0.01372,  -0.01674,   0.01648,   0.03158,  -0.01372,   0.04064,  -0.02278,   0.00440,  -0.01674,  -0.00466,  -0.01674,  -0.01372,  -0.05298,  -0.00768,  -0.00466,  -0.05298,   0.00440,   0.02554,  -0.02278,  -0.03788,  -0.02278,  -0.03486,  -0.03486,   0.00440,  -0.01674,   0.01648,   0.01044,   0.00440,  -0.04996,   0.03460,   0.00742,   0.01648,   0.01648,   0.02252,  -0.02278,   0.01950,  -0.01070,   0.06177,   0.00138,  -0.02580,  -0.00164,   0.07083,  -0.02278,   0.04366,   0.01346,  -0.01976,   0.00138,   0.02252,  -0.02580,  -0.01674,   0.01346,  -0.03486,  -0.03788,  -0.03788,  -0.07109,   0.01044,   0.04667,   0.01044,   0.03460,  -0.01372,   0.01950,  -0.00466,   0.01950,  -0.00466,  -0.03788,  -0.01976,   0.02856,  -0.03486,  -0.03486,  -0.02278,   0.01044,  -0.02278,  -0.03486,  -0.00768,  -0.03788,   0.01346,   0.03762,  -0.06203,  -0.02278,   0.01346,   0.03460,   0.00138,  -0.00466,  -0.00768,   0.02554,   0.00440,  -0.01070,  -0.01976,   0.00138,  -0.04694,   0.00138,   0.03158,  -0.02278,  -0.01674,   0.00742,   0.01648,  -0.03184,   0.01346,   0.00138,  -0.03486,   0.01648,   0.00742,  -0.00768,  -0.02278,  -0.00768,  -0.00768,   0.02554,   0.03762,  -0.01372,   0.00138,   0.00742,   0.01950,  -0.02278,   0.02252,  -0.00768,   0.02252,   0.01950
  -0.05902,  -0.01674,   0.02554,  -0.00768,  -0.00768,  -0.00466,  -0.00466,   0.07385,  -0.02882,  -0.06807,  -0.02580,  -0.00768,  -0.01070,   0.03762,   0.01044,  -0.00164,   0.00440,  -0.02882,  -0.01674,  -0.02882,  -0.01976,   0.01346,  -0.00164,  -0.01674,   0.01346,   0.00440,  -0.03184,   0.04969,  -0.01070,  -0.03486,  -0.04694,  -0.03184,  -0.05298,  -0.00466,  -0.00466,  -0.05600,   0.02252,   0.02554,  -0.02882,  -0.03184,   0.00440,  -0.01372,  -0.00466,   0.02554,   0.01346,  -0.03486,   0.02856,   0.01044,   0.01346,  -0.01070,  -0.04996,   0.01044,   0.06479,  -0.02580,   0.01950,   0.02856,   0.01346,  -0.02580,   0.04667,   0.02252,  -0.04996,  -0.01372,  -0.01070,  -0.01976,  -0.07109,  -0.00768,   0.03158,   0.00440,   0.06177,   0.02252,   0.03158,  -0.01674,   0.01950,  -0.01070,  -0.04392,  -0.00768,   0.00440,   0.04969,  -0.00768,  -0.01372,  -0.04996,  -0.02580,  -0.06505,  -0.03184,  -0.01372,  -0.00164,   0.05271,  -0.00768,  -0.00768,  -0.03486,   0.04366,   0.01648,  -0.00164,   0.02856,  -0.02580,   0.01950,   0.01950,   0.00742,   0.01950,   0.02856,  -0.08015,   0.04366,   0.01648,  -0.03486,   0.01044,   0.05875,   0.02252,  -0.02882,   0.01950,   0.01044,  -0.00466,   0.00440,  -0.02580,  -0.01372,  -0.01372,  -0.03788,  -0.01976,   0.05573,   0.02856,  -0.02278,  -0.01674,   0.04969,   0.01950,  -0.04392,  -0.00164,   0.00440,  -0.00768,   0.03158
  -0.00164,  -0.00164,  -0.04090,   0.00742,   0.00138,   0.01648,  -0.01674,   0.02554,   0.03460,  -0.04392,  -0.01372,  -0.00466,  -0.00164,   0.02252,   0.04064,   0.01950,  -0.02278,  -0.05600,   0.01346,  -0.01674,   0.01044,   0.01346,   0.04667,   0.04064,  -0.01976,   0.04667,  -0.04090,   0.01346,   0.01044,  -0.00466,  -0.06505,  -0.03788,  -0.00768,   0.01950,  -0.00768,  -0.00768,   0.01648,   0.04366,  -0.01372,  -0.01372,   0.01648,  -0.00466,   0.01950,  -0.00768,   0.01346,  -0.04090,  -0.01070,   0.02856,   0.02252,   0.00138,  -0.00164,   0.01950,   0.02554,  -0.00164,   0.01346,   0.03762,   0.01648,  -0.03184,   0.00138,   0.01950,  -0.03184,  -0.03788,  -0.00164,   0.01044,  -0.07109,  -0.04090,   0.01648,  -0.01070,  -0.00768,   0.00742,   0.01648,  -0.04392,   0.01346,  -0.00164,  -0.03486,  -0.01674,  -0.03486,   0.10405,   0.02856,   0.01648,  -0.04694,  -0.01674,  -0.10129,  -0.01070,   0.00138,  -0.00466,  -0.00768,  -0.01674,   0.00742,   0.00440,   0.04667,  -0.02278,   0.03158,  -0.04996,  -0.01372,  -0.04694,   0.00742,   0.00742,  -0.04392,   0.01648,  -0.01372,   0.01648,  -0.00768,  -0.00466,   0.00742,   0.03158,   0.03158,  -0.01372,  -0.00466,   0.00138,   0.01648,   0.02252,  -0.01372,  -0.07411,   0.01950,  -0.00466,  -0.00164,   0.03158,  -0.01976,  -0.04090,   0.04667,   0.04064,  -0.00768,  -0.03788,   0.03762,  -0.02882,  -0.01070,   0.02252
   0.01950,   0.00440,   0.00742,  -0.03788,  -0.00768,  -0.00466,  -0.01372,  -0.01070,   0.01648,   0.02856,   0.02554,   0.02252,  -0.03184,  -0.00164,  -0.00466,  -0.00164,  -0.02580,   0.00138,   0.01648,   0.01346,  -0.01070,  -0.00466,   0.00742,   0.00138,   0.01044,   0.00138,   0.02856,   0.04064,  -0.00768,   0.01950,  -0.01070,   0.02554,   0.01648,  -0.00768,   0.02554,   0.00138,   0.01648,   0.01044,   0.01044,  -0.02278,  -0.02580,  -0.02580,  -0.01070,   0.00742,  -0.01674,  -0.02278,  -0.03788,  -0.01674,  -0.00164,  -0.01070,  -0.00466,   0.03460,  -0.00466,  -0.03788,  -0.01070,   0.01346,   0.00138,  -0.01674,  -0.01070,   0.04064,   0.00742,   0.01648,   0.00138,   0.04064,  -0.01674,   0.00742,   0.02554,  -0.01372,   0.02252,  -0.01674,   0.02856,   0.03460,   0.00138,  -0.01070,  -0.00164,  -0.00768,  -0.00466,  -0.02882,   0.00742,   0.00138,   0.02554,   0.00440,   0.00440,  -0.00164,   0.00138,   0.01648,  -0.05600,   0.01044,   0.01950,   0.00138,  -0.00164,  -0.01070,   0.02554,  -0.01674,  -0.00164,  -0.01372,  -0.01070,   0.01648,   0.02252,  -0.00768,  -0.01976,  -0.00466,   0.01044,   0.01648,  -0.00466,  -0.03184,  -0.02278,  -0.02580,  -0.00466,   0.02856,   0.03762,  -0.01674,  -0.01372,   0.01346,  -0.01070,   0.01346,   0.00742,   0.00742,  -0.01070,   0.04366,  -0.03486,   0.00138,  -0.00164,  -0.02580,   0.03460,  -0.00768,   0.02554,  -0.00768
   0.04969,  -0.01976,   0.00138,  -0.03486,  -0.00466,   0.00138,   0.00138,   0.00440,  -0.00164,   0.04366,   0.01648,  -0.00768,  -0.01976,   0.02252,   0.00742,  -0.00466,   0.01346,   0.01044,   0.01648,   0.01044,   0.01648,   0.01346,   0.04667,  -0.00768,   0.02252,   0.01346,   0.03762,   0.11311,   0.03158,   0.02554,   0.01950,   0.02252,   0.04366,  -0.01674,   0.04969,   0.02554,   0.01044,   0.02252,  -0.02580,   0.01950,  -0.05600,  -0.00768,   0.12217,   0.01648,  -0.01070,  -0.02580,  -0.07109,  -0.00768,  -0.03486,  -0.00466,   0.04366,   0.01950,  -0.00466,  -0.10431,   0.00742,   0.05875,  -0.00466,   0.00440,  -0.00768,   0.01044,  -0.02278,   0.04667,   0.03158,   0.02856,  -0.01674,   0.00742,  -0.01372,  -0.00768,   0.00138,   0.02554,   0.01346,  -0.00164,  -0.00768,  -0.00768,  -0.03184,  -0.00466,  -0.04090,   0.00440,   0.02554,  -0.01070,   0.02252,  -0.08317,   0.01950,  -0.01070,   0.03460,  -0.00466,  -0.04392,   0.01648,  -0.01372,   0.04667,  -0.00164,   0.04969,   0.01648,  -0.01372,   0.10707,  -0.02278,  -0.01674,   0.01648,  -0.01070,   0.01044,  -0.01674,   0.00742,  -0.02882,  -0.03184,   0.01346,  -0.02580,   0.01044,  -0.00164,  -0.02882,   0.05573,   0.05271,  -0.02278,   0.01044,  -0.00466,   0.11613,   0.00138,   0.01950,  -0.01674,  -0.02580,   0.00440,  -0.02580,  -0.00164,  -0.00466,  -0.01372,   0.06479,   0.00138,   0.01950,   0.02856
  -0.01070,  -0.00768,  -0.01372,  -0.02882,  -0.01372,   0.04064,  -0.00466,  -0.01070,   0.01346,   0.02856,   0.01648,   0.00138,  -0.04694,   0.01346,  -0.03184,   0.00138,   0.00440,   0.03158,   0.00742,   0.01648,  -0.01372,   0.01950,   0.01044,  -0.01372,   0.00138,   0.00138,   0.01648,  -0.00466,   0.02554,   0.01950,   0.00138,  -0.00768,   0.01346,  -0.01372,   0.02856,   0.00138,   0.00440,  -0.00164,  -0.01674,   0.01346,  -0.03486,  -0.01976,  -0.08317,  -0.00164,  -0.03184,  -0.04090,  -0.05600,  -0.01070,  -0.01070,  -0.00466,   0.02554,  -0.02580,  -0.01674,  -0.01372,  -0.03184,   0.01044,  -0.03486,  -0.02882,  -0.01372,   0.03158,   0.00440,   0.04366,   0.01346,   0.03460,   0.00742,   0.02252,  -0.00768,   0.03158,   0.01044,   0.00138,   0.01648,  -0.00768,   0.03158,  -0.00768,  -0.00466,  -0.01372,  -0.01070,  -0.00768,   0.01950,   0.00440,   0.02554,  -0.02580,   0.00440,  -0.01070,   0.01648,  -0.00164,  -0.06505,   0.02856,   0.01648,   0.04366,  -0.00164,   0.02252,   0.02252,   0.01950,   0.00440,   0.00138,  -0.01372,   0.00138,   0.01950,   0.00440,   0.01950,   0.00440,   0.00138,  -0.02882,   0.00440,  -0.00768,  -0.00164,   0.00742,   0.00742,   0.03460,   0.04064,  -0.03788,   0.00742,  -0.02278,  -0.02882,  -0.00466,   0.02252,  -0.01372,  -0.03486,   0.00138,  -0.05298,   0.01044,  -0.00466,  -0.00768,   0.01044,   0.02252,   0.00440,   0.01950
   0.02554,  -0.01070,   0.02856,  -0.03788,  -0.02580,   0.00440,  -0.00466,  -0.04996,   0.01346,   0.01044,   0.00440,   0.02554,   0.02554,   0.03460,  -0.00768,  -0.02882,   0.00742,  -0.01674,   0.05271,   0.01648,   0.01346,   0.02554,  -0.01372,   0.04667,   0.00138,  -0.01674,  -0.00768,   0.04064,  -0.00466,   0.03158,   0.03460,   0.00138,   0.01044,   0.01648,   0.02252,   0.02856,   0.03158,   0.01648,  -0.02278,  -0.00466,   0.00440,  -0.04392,  -0.03788,  -0.01070,  -0.03486,  -0.04392,  -0.02882,   0.03460,   0.00138,   0.01346,  -0.07713,   0.01044,  -0.00164,  -0.10129,  -0.01674,  -0.02278,  -0.00466,  -0.02882,   0.01648,   0.01346,  -0.01372,   0.02856,  -0.01070,  -0.01070,   0.05573,  -0.00466,  -0.01674,  -0.02278,  -0.00466,   0.07083,  -0.05298,   0.00138,  -0.01372,  -0.01674,   0.00138,  -0.03486,   0.00138,   0.00440,   0.05875,  -0.00466,   0.04366,   0.03158,  -0.01372,   0.00742,   0.00138,   0.02554,  -0.07411,   0.04667,  -0.00768,   0.03158,   0.00440,  -0.01976,   0.02252,  -0.04392,   0.02856,   0.00440,  -0.03486,  -0.00164,   0.05875,   0.04667,  -0.02278,  -0.01372,  -0.00164,   0.00440,  -0.02278,  -0.03486,  -0.01674,   0.00742,  -0.03788,   0.01044,   0.01044,   0.02856,  -0.00466,  -0.02580,   0.03158,   0.03158,  -0.00768,   0.01044,   0.02554,   0.03158,   0.02554,   0.02554,   0.00138,  -0.06505,   0.03158,  -0.00164,   0.00742,  -0.00466
   0.08291,   0.01346,   0.00138,  -0.00164,   0.01346,   0.03158,  -0.02882,  -0.07411,   0.07083,   0.00138,  -0.01070,   0.00138,   0.11009,   0.02554,   0.00440,   0.02252,  -0.01372,  -0.01372,   0.00138,   0.01044,   0.00742,  -0.01976,   0.01648,   0.05875,   0.02554,   0.00742,   0.01648,   0.09197,  -0.00768,   0.07687,   0.07083,   0.01648,   0.10707,  -0.02278,   0.02554,  -0.00164,   0.03158,   0.04366,  -0.00164,  -0.00466,  -0.10129,  -0.01976,   0.03158,   0.01044,  -0.02580,  -0.06203,   0.02856,  -0.00768,   0.01648,  -0.00768,  -0.03788,  -0.03184,   0.02554,  -0.18282,  -0.03486,  -0.01372,   0.04667,  -0.05902,   0.01648,   0.00440,  -0.08317,   0.13727,   0.04366,  -0.01976,   0.01346,   0.01044,  -0.01070,  -0.06505,  -0.05600,   0.02252,  -0.03788,  -0.00466,   0.09801,   0.01346,  -0.04090,  -0.01674,  -0.01976,  -0.00768,   0.06781,   0.00138,  -0.05298,  -0.09223,  -0.02882,  -0.00466,   0.01346,   0.02252,  -0.17980,   0.01648,   0.02252,   0.09197,   0.01648,   0.03460,  -0.05902,  -0.04694,   0.19162,  -0.04090,  -0.02882,   0.00138,  -0.03788,   0.07083,  -0.00466,  -0.01674,   0.08593,   0.02252,  -0.02580,  -0.11035,   0.01044,  -0.05902,  -0.10431,   0.01044,  -0.04694,   0.02554,   0.02856,  -0.00164,   0.23692,   0.04969,   0.03158,  -0.03486,   0.09801,   0.04064,   0.01950,   0.03762,   0.01950,  -0.04694,   0.02856,   0.03460,   0.02252,   0.00138
   0.03158,   0.02856,  -0.00466,  -0.03486,   0.04064,   0.02856,  -0.00466,  -0.06203,   0.01648,   0.00440,   0.00138,  -0.01372,   0.01044,   0.00440,  -0.02882,  -0.02882,  -0.01976,   0.05271,   0.00440,   0.01950,  -0.01674,  -0.06203,   0.00440,  -0.01976,   0.01044,  -0.06203,  -0.01372,   0.03460,  -0.00164,   0.04366,   0.05271,   0.04064,   0.05573,   0.01648,   0.00742,   0.04667,   0.04667,   0.01950,  -0.02278,  -0.01070,  -0.01070,  -0.01976,  -0.06505,   0.02252,  -0.02580,  -0.04392,  -0.03486,  -0.04996,   0.01346,   0.01044,  -0.06505,   0.00138,   0.00138,  -0.10431,  -0.04392,  -0.00466,  -0.00466,  -0.04996,   0.01346,   0.02252,  -0.03788,   0.01950,  -0.00466,  -0.00466,   0.00440,   0.00138,  -0.00466,  -0.00768,   0.00742,  -0.01674,   0.04064,   0.00742,   0.04064,   0.01346,  -0.00466,   0.01044,  -0.01976,   0.01950,   0.01648,   0.01648,   0.02554,  -0.04090,  -0.01976,  -0.01070,   0.01950,  -0.00466,  -0.11941,  -0.00466,  -0.01070,   0.04667,  -0.00466,  -0.00466,  -0.00164,   0.04667,   0.00440,   0.00440,  -0.02278,  -0.01976,   0.02554,   0.02554,  -0.02580,   0.00742,   0.02554,   0.02554,  -0.01976,  -0.03184,   0.03762,   0.01044,  -0.06203,   0.03762,  -0.04090,   0.00138,  -0.00164,   0.03460,   0.04667,   0.01950,   0.01044,  -0.02882,   0.03460,   0.03762,  -0.02278,  -0.00164,   0.00440,  -0.02882,  -0.00164,   0.01346,   0.01346,   0.00742
   0.01950,   0.00440,  -0.00164,  -0.01976,   0.01950,  -0.03184,  -0.00164,  -0.05298,  -0.00466,  -0.00466,   0.02856,   0.02856,   0.01648,   0.01950,  -0.03184,   0.00138,  -0.00466,   0.01648,   0.01044,  -0.00164,  -0.02580,  -0.00768,  -0.00466,   0.01950,  -0.02278,   0.00440,  -0.02882,   0.00440,  -0.03184,   0.03762,  -0.00164,  -0.01372,   0.00138,   0.01648,   0.00138,  -0.01976,  -0.01372,  -0.03184,  -0.00164,   0.00138,   0.00138,   0.00138,   0.01346,  -0.02278,  -0.00466,   0.00440,  -0.03486,  -0.01674,   0.01950,   0.01044,  -0.01372,  -0.00466,   0.00440,  -0.00164,  -0.03184,  -0.07109,  -0.04392,  -0.02882,  -0.01976,   0.02554,   0.02252,  -0.00164,   0.03762,  -0.02882,   0.00440,  -0.01070,  -0.02580,  -0.01070,   0.00742,   0.01044,  -0.02882,   0.02856,  -0.01674,  -0.00164,   0.03762,  -0.02278,   0.01648,   0.00742,   0.01044,  -0.01976,   0.03158,   0.00742,   0.00440,   0.01346,   0.00138,   0.01950,  -0.03788,  -0.01674,   0.01346,   0.03158,   0.00440,   0.00742,   0.01648,  -0.00768,   0.00440,  -0.04090,  -0.01372,  -0.01070,   0.01044,   0.02856,  -0.00768,   0.00138,   0.00440,  -0.00768,  -0.00768,  -0.01070,   0.03158,  -0.00164,  -0.00164,  -0.00164,  -0.00164,  -0.00164,   0.00440,   0.00440,   0.03158,   0.00742,   0.02554,   0.04064,   0.02252,  -0.01372,  -0.03788,   0.00742,  -0.00768,  -0.04392,   0.00742,  -0.01070,   0.00138,   0.01648
   0.01044,   0.05573,  -0.00164,  -0.03184,  -0.01372,  -0.01070,   0.04064,  -0.02580,   0.00138,   0.01044,   0.01648,   0.04064,   0.03158,   0.03158,  -0.04090,   0.00742,   0.00742,   0.01044,   0.01950,   0.01044,  -0.09223,  -0.03788,  -0.01070,   0.00742,  -0.02278,  -0.03184,  -0.01976,   0.18256,  -0.01372,   0.05573,   0.06479,  -0.01674,  -0.01372,  -0.02580,   0.00742,  -0.00466,   0.02554,   0.01648,  -0.00164,  -0.00466,  -0.04694,  -0.00466,   0.01044,   0.01950,  -0.02278,  -0.00164,  -0.11337,  -0.00768,   0.00138,  -0.01070,  -0.03486,   0.01950,  -0.01674,   0.00742,  -0.01372,  -0.10431,  -0.01674,  -0.02882,  -0.02580,   0.00742,  -0.02278,   0.05573,  -0.01070,  -0.01070,   0.02252,   0.00742,  -0.01372,  -0.01674,  -0.01674,   0.00742,  -0.02580,   0.02252,   0.02856,  -0.01070,   0.00742,  -0.01070,  -0.00768,  -0.02580,   0.00138,  -0.00466,   0.02252,  -0.02882,  -0.01070,   0.00440,   0.03158,  -0.00768,  -0.02580,   0.02252,  -0.01976,   0.03158,   0.04366,   0.02856,   0.04366,   0.01346,   0.02856,  -0.04996,  -0.01070,  -0.01674,  -0.02278,  -0.00164,  -0.04694,  -0.03486,  -0.00164,   0.00742,  -0.03184,  -0.04392,   0.03460,   0.00138,   0.04667,  -0.01070,  -0.01070,  -0.01070,   0.00742,  -0.00768,  -0.05600,  -0.01372,   0.03762,  -0.01372,   0.01346,  -0.00164,  -0.03486,   0.03158,  -0.00768,  -0.04996,   0.01950,   0.00742,  -0.00164,   0.01950
   0.01346,   0.04667,  -0.00466,  -0.00466,  -0.00164,   0.00138,   0.01346,  -0.05298,  -0.02278,   0.00138,   0.00742,   0.01950,   0.02252,   0.01044,  -0.04090,  -0.01372,  -0.00466,   0.03460,  -0.02278,  -0.00768,  -0.01070,  -0.01372,   0.00138,  -0.02580,  -0.01976,  -0.03486,  -0.00164,   0.01950,   0.01950,   0.03460,   0.03762,   0.01044,  -0.00768,  -0.00466,   0.00440,   0.01044,   0.02856,  -0.00768,  -0.00768,   0.00138,  -0.02580,  -0.02882,   0.00742,  -0.01976,  -0.01674,   0.00138,  -0.04694,  -0.00164,  -0.00768,   0.00742,  -0.01372,  -0.01070,  -0.02580,   0.01648,  -0.04392,  -0.04996,   0.01044,  -0.01976,  -0.01976,   0.01648,   0.00440,   0.00138,  -0.00164,  -0.01070,   0.00742,  -0.00164,   0.01950,   0.02554,   0.01346,   0.02856,  -0.00466,   0.00742,   0.01044,   0.02252,   0.02554,   0.01044,  -0.01070,   0.02856,  -0.01372,  -0.00164,   0.03158,  -0.04694,   0.00138,   0.01346,   0.02554,  -0.00768,  -0.04996,   0.03460,  -0.02882,   0.01950,   0.00440,  -0.00466,   0.03460,   0.04366,   0.01648,  -0.01976,  -0.02278,  -0.03184,   0.01950,   0.01950,  -0.02882,  -0.03184,   0.02856,   0.03158,  -0.02580,  -0.01070,   0.03762,  -0.01070,   0.01346,  -0.00768,  -0.00768,  -0.01674,  -0.01070,   0.00440,  -0.02882,  -0.00164,   0.00138,  -0.00768,   0.01044,   0.00138,  -0.04090,   0.00138,   0.04667,  -0.01976,   0.00138,   0.00440,   0.01648,   0.02554
   0.01950,  -0.01976,   0.01044,   0.02252,  -0.00466,  -0.02580,  -0.00164,  -0.04694,  -0.00164,   0.02252,   0.01950,   0.00138,   0.00742,   0.03762,  -0.00164,   0.05875,   0.01044,   0.02554,   0.01648,  -0.01070,   0.00742,   0.01950,  -0.02580,   0.00440,  -0.01674,  -0.01674,  -0.04392,   0.02252,  -0.01372,  -0.02580,   0.02554,  -0.00466,   0.01346,   0.01950,   0.00440,  -0.00164,   0.00742,   0.01648,   0.01346,  -0.03184,   0.00440,  -0.01070,   0.02252,   0.01044,   0.01346,  -0.00164,   0.00440,  -0.03184,  -0.04996,  -0.00768,   0.01044,  -0.01372,   0.04366,   0.02554,  -0.00768,  -0.01976,  -0.01976,  -0.00466,   0.03460,   0.00742,   0.02856,  -0.00164,   0.00440,   0.01044,  -0.00768,  -0.03788,  -0.02580,  -0.02580,  -0.03486,   0.00742,  -0.00466,   0.02856,  -0.00466,   0.02856,   0.04969,   0.02554,  -0.02278,   0.00440,   0.00138,   0.00440,  -0.01070,  -0.00164,  -0.00164,  -0.00164,   0.04969,   0.01648,  -0.02580,   0.02252,   0.01950,   0.01044,  -0.01070,   0.01044,  -0.00164,  -0.02580,   0.01950,  -0.00164,  -0.01070,   0.01648,   0.02554,  -0.00466,   0.01346,  -0.02882,  -0.00768,  -0.03486,  -0.00164,  -0.00768,  -0.02278,  -0.02580,  -0.01070,   0.00138,   0.01950,   0.01346,   0.02252,  -0.01070,  -0.01976,  -0.01372,   0.01648,   0.02252,   0.00440,   0.02856,  -0.03184,  -0.02278,   0.00138,   0.00742,  -0.03184,  -0.01674,  -0.00164,  -0.01070
  -0.00164,  -0.03486,   0.00440,   0.04366,   0.01648,   0.04064,  -0.00768,  -0.00768,   0.02554,   0.00742,   0.03158,   0.03158,   0.03762,   0.04667,   0.01950,   0.03762,   0.02554,  -0.05298,  -0.00164,  -0.01976,   0.00440,  -0.01070,  -0.01070,   0.03460,   0.02252,  -0.00768,   0.02554,   0.00742,   0.01950,  -0.01674,   0.00440,   0.02554,  -0.00164,   0.02252,  -0.00466,  -0.01976,  -0.01674,   0.03460,  -0.03788,  -0.00164,   0.01346,  -0.00466,  -0.00768,   0.04366,  -0.01372,  -0.01372,   0.03158,  -0.01976,  -0.01976,  -0.01674,   0.00138,  -0.01070,  -0.01070,  -0.01372,  -0.00164,  -0.01674,   0.00440,   0.01648,   0.00440,   0.03158,  -0.01976,   0.01950,   0.01648,  -0.01070,  -0.00164,  -0.04090,  -0.00768,   0.02252,  -0.01976,  -0.01070,   0.00138,   0.04366,  -0.01070,  -0.01070,   0.00742,   0.04064,  -0.01070,   0.00440,   0.01648,   0.01346,  -0.04090,  -0.02882,   0.00742,  -0.01070,   0.02856,  -0.01372,  -0.01070,  -0.00768,   0.00742,  -0.01070,  -0.02882,  -0.01976,  -0.01070,   0.01648,   0.00138,   0.01044,  -0.02882,   0.04667,   0.00440,  -0.01070,  -0.02580,   0.01346,  -0.01070,  -0.06203,   0.00742,   0.01044,  -0.00164,   0.02856,  -0.02278,   0.00138,   0.00440,   0.00138,  -0.00164,  -0.00466,  -0.01674,  -0.01372,   0.01346,  -0.00466,  -0.02580,   0.00440,   0.00440,   0.01346,   0.01648,   0.00138,   0.04366,  -0.01372,   0.01044,   0.02252
  -0.03486,  -0.02580,  -0.02580,   0.01648,  -0.00164,  -0.00768,   0.03762,  -0.03184,  -0.01976,   0.00138,  -0.00768,   0.04366,   0.00440,   0.03762,   0.02856,   0.02252,   0.01648,  -0.07109,   0.00440,  -0.01372,  -0.01976,  -0.01372,  -0.00768,   0.01044,   0.00440,  -0.07713,  -0.01976,   0.00440,  -0.00164,  -0.00768,  -0.01674,   0.01648,  -0.01976,  -0.01372,   0.01044,  -0.01372,  -0.02580,  -0.00466,   0.03762,  -0.00466,   0.02252,  -0.02580,   0.01044,   0.00440,  -0.03184,  -0.00466,   0.01648,  -0.05902,   0.02554,   0.01044,  -0.01976,   0.00742,   0.01044,  -0.00164,   0.02554,   0.00138,   0.00440,  -0.03184,  -0.00768,  -0.01372,  -0.00768,   0.01044,  -0.02278,  -0.02580,   0.01346,  -0.01372,  -0.02278,  -0.01372,  -0.00466,  -0.00768,  -0.01070,  -0.01674,  -0.00164,  -0.00164,   0.00440,  -0.01372,   0.00440,  -0.00466,   0.00742,  -0.01674,  -0.01674,   0.00440,  -0.00768,  -0.01070,   0.00440,  -0.02580,  -0.01674,  -0.01674,  -0.01976,  -0.02882,  -0.03486,   0.00138,   0.01044,   0.05271,  -0.00768,   0.00138,  -0.02580,   0.04969,   0.00440,   0.03460,  -0.04694,   0.00138,   0.03460,  -0.04996,  -0.01976,   0.00742,  -0.02278,   0.00440,  -0.01976,   0.01044,   0.02856,   0.01044,  -0.00466,  -0.03184,  -0.00466,  -0.02278,   0.04064,  -0.01976,   0.00138,   0.01648,  -0.02580,   0.03158,   0.03762,  -0.01372,   0.04366,  -0.00768,   0.03460,   0.02252
  -0.00164,   0.01648,   0.00440,   0.06177,   0.05875,   0.00742,  -0.02278,  -0.00164,  -0.04996,   0.00742,   0.01950,   0.03158,   0.01346,  -0.02882,   0.04366,  -0.00466,   0.01044,  -0.00164,  -0.00768,  -0.02882,   0.02554,  -0.00164,  -0.01976,  -0.03486,  -0.01372,   0.01648,  -0.03788,   0.03460,  -0.02580,  -0.01070,  -0.01070,  -0.01070,   0.05875,   0.04667,   0.00138,   0.00742,  -0.02278,   0.02252,   0.03762,   0.01648,   0.01346,  -0.00466,  -0.04090,   0.03158,   0.00138,   0.00742,   0.02856,  -0.00164,   0.01346,  -0.00768,  -0.00768,  -0.00164,   0.03762,   0.00138,  -0.02278,  -0.01674,  -0.01372,   0.02554,   0.03460,  -0.01070,   0.02252,   0.00742,   0.03158,  -0.01372,  -0.02580,  -0.09827,   0.02252,  -0.00768,  -0.00164,   0.02856,  -0.01976,   0.04667,   0.01044,   0.01044,   0.02554,   0.00440,   0.00742,  -0.01976,   0.01950,  -0.01976,  -0.07713,   0.02252,   0.01044,   0.00138,   0.00742,  -0.02882,  -0.01372,   0.00138,   0.02554,  -0.01070,  -0.00466,  -0.02580,  -0.03486,   0.01044,   0.01346,   0.02252,  -0.00466,   0.03460,   0.03460,   0.01044,  -0.03486,  -0.00164,   0.04969,  -0.04090,  -0.04090,  -0.00768,   0.00440,  -0.01372,   0.01044,   0.02554,   0.03158,   0.03158,   0.00742,   0.03158,  -0.01372,   0.00742,  -0.01070,   0.05573,  -0.03184,   0.02856,  -0.01070,   0.01950,   0.01648,  -0.00768,   0.02554,   0.00742,   0.02554,   0.00742
  -0.00466,   0.00440,   0.02252,   0.02554,   0.07083,   0.03158,   0.00138,   0.03158,  -0.11337,   0.07687,   0.04064,   0.14331,   0.02856,  -0.03486,   0.02554,  -0.08015,   0.01950,  -0.08619,  -0.04392,  -0.04090,   0.06479,  -0.02278,   0.00138,   0.00138,  -0.01976,   0.04064,   0.10103,   0.00742,   0.06479,  -0.03788,  -0.06203,   0.00742,   0.10707,  -0.06203,   0.00138,  -0.04090,  -0.00466,  -0.04090,  -0.08921,  -0.01674,   0.02856,  -0.01674,  -0.04996,   0.04667,   0.00742,  -0.02580,   0.03762,  -0.01372,   0.06479,  -0.03788,   0.01648,  -0.01070,  -0.01070,  -0.04090,   0.03460,  -0.01070,  -0.04090,   0.04667,  -0.00164,   0.02554,  -0.04694,  -0.01674,   0.02252,   0.02554,  -0.11035,   0.00742,   0.07687,   0.05271,  -0.01976,   0.04064,  -0.02278,   0.16444,   0.01950,   0.04366,  -0.01372,  -0.01372,  -0.01372,   0.03158,  -0.00768,   0.02554,  -0.12545,  -0.04996,   0.02856,  -0.04090,   0.07989,  -0.01372,   0.02856,  -0.00466,  -0.06203,  -0.04996,  -0.04392,  -0.08921,  -0.00768,   0.02856,  -0.01372,   0.00742,  -0.03184,   0.05573,  -0.01372,   0.03762,  -0.13753,   0.04667,   0.07385,  -0.07713,  -0.02278,  -0.03788,  -0.01070,   0.04667,   0.00138,   0.02252,   0.02554,  -0.04694,  -0.08921,   0.08895,   0.03158,   0.03460,  -0.01070,   0.09197,  -0.03788,   0.06177,   0.00138,   0.03460,  -0.01372,  -0.04392,   0.05573,   0.01648,  -0.03486,  -0.01372
  -0.02882,   0.03158,   0.01044,   0.02856,   0.01648,  -0.00768,   0.06781,   0.02856,  -0.07109,  -0.01372,  -0.04996,   0.04064,  -0.01070,  -0.02882,   0.06177,  -0.01674,   0.03762,  -0.08619,  -0.01674,  -0.02278,  -0.01976,  -0.02278,  -0.03486,   0.04064,  -0.02278,  -0.03788,   0.10103,   0.00742,   0.03158,  -0.03788,   0.01346,  -0.00164,   0.00138,  -0.04090,  -0.01674,   0.01044,  -0.01070,   0.02554,   0.02252,  -0.03184,  -0.03184,  -0.04392,  -0.01976,   0.00138,  -0.02882,  -0.04090,  -0.01372,  -0.01674,   0.05875,   0.00742,  -0.04090,   0.01346,   0.00138,  -0.01372,   0.00742,   0.02252,  -0.05298,  -0.02580,   0.04064,  -0.00768,  -0.02882,  -0.02278,  -0.07411,   0.02252,  -0.05902,   0.10405,   0.06479,  -0.00768,  -0.00164,   0.01044,  -0.04090,   0.04667,   0.01044,  -0.01070,  -0.02278,  -0.02882,   0.00742,   0.07083,  -0.02278,  -0.01070,  -0.06807,  -0.01976,   0.01950,  -0.02882,   0.02554,  -0.02882,   0.01346,   0.02856,  -0.04392,  -0.04694,  -0.02882,  -0.05298,   0.01044,   0.05573,  -0.02278,   0.01044,  -0.01674,   0.02554,  -0.01976,   0.01950,  -0.14357,   0.03158,   0.12821,  -0.03184,  -0.00164,  -0.03788,  -0.08015,   0.06479,   0.01648,   0.01044,  -0.01372,  -0.02882,  -0.01372,   0.03158,  -0.04090,  -0.01674,  -0.04392,   0.04366,  -0.04392,   0.01648,   0.01950,   0.04667,   0.00742,  -0.03486,   0.00138,   0.04366,   0.00440,  -0.01372
   0.00440,   0.01346,  -0.00164,  -0.00768,   0.02554,   0.01950,   0.00742,   0.00440,  -0.03184,   0.01648,  -0.00466,   0.01346,  -0.00466,  -0.01674,   0.02856,   0.01648,   0.01648,  -0.00466,  -0.02580,   0.01044,  -0.01372,  -0.02278,  -0.02278,  -0.04392,  -0.01372,  -0.02278,  -0.04694,   0.01648,  -0.00466,   0.00138,  -0.01372,  -0.02580,   0.01648,  -0.00164,   0.02252,  -0.00768,  -0.01976,   0.00742,   0.02856,  -0.00164,   0.03762,  -0.05600,  -0.01976,   0.01346,  -0.01372,   0.03460,   0.01648,  -0.05600,   0.03460,   0.01950,  -0.04090,   0.01648,   0.02252,  -0.01372,   0.02856,   0.00742,  -0.02278,   0.00138,  -0.01070,  -0.04090,   0.00138,   0.00742,  -0.01070,  -0.04694,  -0.00768,  -0.04392,   0.01950,   0.04969,  -0.02278,   0.01044,  -0.01372,  -0.00466,   0.00138,   0.03762,  -0.01976,  -0.01976,   0.00742,   0.00742,  -0.01372,  -0.03184,  -0.04996,   0.00138,   0.00742,   0.00440,  -0.00768,  -0.01070,   0.00138,  -0.00466,   0.01346,  -0.01976,  -0.00768,   0.01648,  -0.02580,   0.06479,   0.01044,   0.00138,   0.00138,   0.03158,   0.01648,   0.01648,  -0.11035,  -0.00768,   0.06781,  -0.04392,  -0.01674,  -0.03486,   0.03460,   0.02252,   0.02554,   0.01648,  -0.01976,   0.02856,   0.01044,   0.04064,  -0.01976,  -0.01674,   0.04366,   0.03762,  -0.01976,  -0.02278,  -0.03184,  -0.00768,   0.01648,  -0.04090,   0.02252,  -0.00768,  -0.00164,   0.03460
  -0.01976,  -0.02278,   0.02252,  -0.01372,  -0.01976,  -0.01372,   0.06177,   0.04366,   0.01044,   0.01044,  -0.04392,   0.10707,  -0.00164,  -0.01070,   0.04667,   0.02554,   0.00742,  -0.08015,  -0.00164,   0.02252,  -0.01674,   0.01044,  -0.01070,  -0.00768,  -0.00466,   0.01648,   0.00742,  -0.00768,   0.01346,  -0.01070,  -0.02580,  -0.03184,   0.01346,  -0.00768,  -0.03486,  -0.01674,  -0.03486,  -0.01372,  -0.06505,   0.00742,  -0.00768,  -0.04392,   0.01044,  -0.00466,  -0.01976,  -0.01674,   0.03460,  -0.01976,   0.03762,  -0.06505,  -0.07411,   0.00138,  -0.01070,   0.02856,  -0.01372,   0.02554,  -0.06203,  -0.01070,   0.02856,  -0.01070,  -0.07109,   0.01346,   0.01044,  -0.02278,  -0.05298,   0.00138,   0.06177,   0.04064,   0.01950,   0.00742,  -0.02278,   0.01950,  -0.03184,   0.01648,  -0.05600,  -0.04090,  -0.03184,   0.01346,  -0.01070,   0.00440,  -0.03788,   0.00138,   0.01950,  -0.08317,  -0.01976,  -0.01976,   0.00138,   0.01044,  -0.01976,  -0.03184,  -0.02278,  -0.05298,  -0.02882,   0.04366,   0.00138,   0.00742,   0.01950,   0.01044,   0.00440,  -0.00466,  -0.18282,   0.01044,   0.09499,  -0.07109,  -0.01372,  -0.05600,  -0.00768,   0.03158,   0.02252,   0.02252,  -0.04090,   0.01648,  -0.02278,   0.02554,  -0.01976,  -0.01674,   0.00742,   0.08291,   0.00138,  -0.04090,  -0.01976,   0.06781,   0.02856,  -0.01674,   0.00440,  -0.00466,   0.01044,  -0.01976
  -0.01674,   0.01648,  -0.02278,   0.04969,  -0.03788,  -0.04996,   0.09801,   0.05271,   0.03460,  -0.02882,  -0.03486,   0.02554,   0.01346,   0.01346,   0.02856,   0.06479,   0.01346,  -0.00466,   0.02252,  -0.02278,  -0.03184,   0.05875,  -0.06203,   0.04969,  -0.01070,  -0.01070,   0.00742,   0.00138,  -0.02278,   0.01648,  -0.08317,  -0.02882,  -0.06203,  -0.00768,  -0.01976,   0.01044,   0.02554,   0.06479,   0.00440,  -0.05600,  -0.00466,  -0.01674,  -0.02278,   0.00440,  -0.04090,  -0.00164,   0.00440,  -0.00164,  -0.00164,   0.00742,  -0.05298,  -0.00164,   0.05573,   0.04064,  -0.00164,   0.04969,  -0.04996,  -0.02882,   0.01950,   0.03460,  -0.01976,   0.01950,  -0.05600,  -0.01070,  -0.08619,   0.09801,   0.00742,  -0.03184,  -0.00466,  -0.00768,  -0.01976,   0.04969,   0.01044,   0.04064,  -0.05298,  -0.04392,  -0.05298,   0.07687,  -0.00164,  -0.01070,   0.01044,  -0.03184,  -0.02580,  -0.02580,  -0.01372,  -0.02882,   0.02252,   0.00138,  -0.04392,   0.00440,   0.04667,   0.03158,  -0.00466,   0.01648,   0.02252,  -0.00164,  -0.01674,   0.01648,   0.00138,   0.00138,  -0.04090,   0.04064,  -0.01070,  -0.01976,  -0.00164,  -0.04392,  -0.03788,   0.00742,   0.04064,   0.01346,   0.00138,   0.01950,   0.02252,  -0.00164,  -0.02580,   0.01346,   0.00742,   0.07989,   0.03460,  -0.03486,   0.00138,   0.05573,   0.00742,   0.03158,   0.00138,   0.01950,   0.04667,  -0.00164
  -0.00768,  -0.01070,  -0.00768,  -0.03184,  -0.01976,   0.01950,  -0.00768,   0.01346,   0.01648,   0.01950,   0.02252,   0.00440,  -0.01070,  -0.01070,  -0.01372,   0.00138,  -0.00768,  -0.01070,  -0.00466,  -0.00466,   0.00138,  -0.00466,  -0.01372,  -0.00466,   0.02554,  -0.03486,  -0.03184,  -0.00466,  -0.01070,   0.03158,   0.02252,   0.00440,  -0.00164,  -0.01976,   0.00138,   0.03762,   0.00440,   0.01346,  -0.01372,   0.01044,  -0.00164,   0.00742,  -0.00466,  -0.01070,  -0.00466,  -0.00164,  -0.00768,   0.01648,  -0.02580,   0.00440,  -0.00768,  -0.01372,   0.01044,  -0.00164,   0.01044,   0.01346,  -0.01372,  -0.00466,   0.02554,  -0.01070,  -0.01070,  -0.01372,  -0.00164,  -0.01976,   0.01950,   0.00440,  -0.02882,  -0.00466,   0.01346,   0.00440,  -0.00466,   0.01044,  -0.00466,   0.01648,  -0.00768,  -0.00164,   0.01346,   0.04969,   0.00138,  -0.03184,   0.00440,  -0.00164,   0.01346,  -0.01674,   0.01044,   0.00138,  -0.00768,  -0.01070,   0.01648,  -0.01070,   0.03460,  -0.01372,  -0.00164,  -0.02580,   0.00440,   0.02856,   0.02252,  -0.00768,  -0.01372,  -0.01976,  -0.00164,  -0.00164,   0.01648,  -0.00466,  -0.01070,  -0.01674,   0.01648,  -0.01070,  -0.02580,  -0.00768,  -0.02278,   0.01044,   0.01044,  -0.01372,  -0.01070,  -0.00768,  -0.00164,  -0.00768,  -0.00466,   0.00440,   0.02252,  -0.00466,   0.01044,   0.00138,  -0.02882,  -0.00164,   0.01648,  -0.01070
   0.01950,  -0.02882,  -0.04694,  -0.01070,  -0.01674,  -0.00768,   0.01044,   0.01044,  -0.01070,   0.02252,   0.02252,   0.02252,  -0.01674,   0.00742,   0.01648,  -0.04090,  -0.01372,  -0.02580,   0.01648,  -0.03184,  -0.01070,  -0.01070,   0.00440,  -0.00466,   0.00138,  -0.00164,  -0.00466,   0.01648,  -0.00164,   0.06781,   0.02856,  -0.04694,   0.00742,  -0.02882,   0.02554,  -0.01674,   0.01648,   0.02554,  -0.00164,   0.01950,  -0.00768,   0.00742,   0.00138,   0.01044,   0.02554,   0.00742,  -0.01372,   0.01044,   0.00138,   0.01648,   0.00742,   0.01044,  -0.00164,   0.03762,   0.04064,   0.02252,  -0.00466,  -0.01070,   0.02252,   0.01044,  -0.04090,   0.01346,  -0.01674,  -0.03788,   0.01346,  -0.00466,   0.03762,   0.04064,  -0.01070,   0.04667,  -0.00768,  -0.01070,  -0.02278,   0.04366,   0.02856,   0.00138,   0.01346,   0.06781,  -0.00466,   0.01648,  -0.01372,   0.04667,   0.01648,  -0.00466,   0.01044,  -0.01976,  -0.01674,   0.01044,   0.01950,  -0.00768,   0.03158,   0.01346,   0.01950,  -0.02278,   0.01346,  -0.03788,   0.03460,   0.00742,   0.01346,  -0.00768,  -0.02882,   0.00440,  -0.02882,  -0.00466,   0.02554,   0.01950,  -0.02580,  -0.01976,  -0.00164,   0.01950,   0.04064,   0.00440,  -0.03486,   0.00440,   0.03762,  -0.03184,  -0.01674,  -0.02580,   0.01044,  -0.00768,   0.00138,   0.00440,   0.00742,   0.02252,  -0.04996,   0.00138,   0.04969,  -0.03486
   0.00440,  -0.04392,  -0.01070,  -0.00466,  -0.01674,   0.01044,  -0.00466,  -0.04392,  -0.02580,   0.02554,   0.01044,  -0.03486,  -0.01070,  -0.01976,  -0.01070,  -0.03486,  -0.02278,  -0.01070,   0.00440,  -0.00768,  -0.00466,  -0.00164,   0.03158,   0.00742,   0.02252,   0.03762,   0.00138,   0.00138,   0.01346,   0.01648,  -0.01070,  -0.02278,   0.02554,  -0.01674,   0.03158,  -0.00768,   0.00742,   0.02856,  -0.01372,   0.01346,   0.01044,  -0.01372,   0.01648,  -0.02882,   0.00138,  -0.02278,  -0.01070,  -0.01070,  -0.01674,  -0.00466,   0.04064,  -0.00164,   0.00440,  -0.01070,   0.00138,  -0.01070,  -0.01070,   0.00138,  -0.03788,  -0.01674,  -0.03486,  -0.02278,   0.00138,   0.00440,   0.03158,  -0.01674,   0.03762,  -0.01070,  -0.01372,   0.04064,  -0.01070,   0.00138,  -0.00466,   0.01950,  -0.00164,   0.02252,   0.00138,   0.01346,  -0.02882,  -0.04694,   0.00742,   0.02856,   0.02554,  -0.01372,   0.00440,  -0.00164,  -0.03184,   0.02856,   0.04064,  -0.02882,  -0.00768,   0.00440,  -0.00768,  -0.02278,  -0.00466,  -0.05298,   0.04366,   0.01346,   0.02252,   0.01950,   0.00138,   0.00440,  -0.01674,  -0.00164,   0.02554,   0.02856,  -0.02882,  -0.00164,  -0.01070,   0.02554,   0.01950,   0.01044,  -0.02278,   0.03158,   0.00138,  -0.01372,  -0.01674,  -0.01674,  -0.00164,  -0.01070,  -0.01976,  -0.04090,  -0.00164,  -0.00164,  -0.02580,  -0.00466,   0.00440,  -0.00164
  -0.01674,  -0.03486,   0.02554,  -0.01674,   0.00138,  -0.02580,   0.00138,   0.00138,  -0.00466,   0.01346,   0.01648,  -0.00164,  -0.00466,  -0.03184,  -0.00466,  -0.01674,  -0.00466,  -0.01976,   0.02856,  -0.00164,  -0.00466,  -0.04694,  -0.00466,  -0.03486,  -0.01372,   0.11613,   0.01648,  -0.01372,   0.00440,   0.03460,  -0.04996,  -0.01372,   0.00138,  -0.01674,  -0.01674,  -0.01372,   0.01648,   0.02554,  -0.00466,  -0.00768,  -0.00768,  -0.05298,  -0.02580,  -0.01070,  -0.02882,  -0.03184,  -0.01976,  -0.01674,   0.02554,   0.03158,  -0.00164,   0.00138,  -0.00466,  -0.01070,   0.01044,  -0.01976,  -0.01070,   0.01044,   0.02856,  -0.00164,  -0.03486,   0.02252,   0.01346,  -0.02882,  -0.02882,   0.01950,   0.01648,   0.01346,  -0.04090,   0.02554,  -0.00164,  -0.03486,   0.00742,   0.01950,   0.01950,   0.00742,   0.01346,   0.02554,   0.00440,  -0.02278,  -0.01070,   0.01648,   0.04064,  -0.02882,  -0.00466,  -0.00768,  -0.00768,   0.03460,   0.01648,  -0.00164,   0.00138,   0.05271,  -0.01372,  -0.01976,  -0.01674,  -0.00164,   0.03762,   0.00440,  -0.01976,   0.03460,  -0.00466,   0.01950,  -0.02580,   0.01346,  -0.01070,   0.02856,  -0.02278,   0.01044,  -0.04694,   0.03460,   0.04064,   0.01044,   0.01044,  -0.02278,   0.02554,   0.01648,   0.01044,   0.00440,   0.00440,  -0.01070,  -0.02882,  -0.00768,   0.00742,  -0.01976,  -0.00164,  -0.00466,  -0.01976,  -0.02278
  -0.00768,  -0.06807,   0.03158,   0.01648,  -0.00768,   0.02554,  -0.00164,  -0.09223,   0.10103,  -0.00466,   0.01346,  -0.01674,  -0.01674,  -0.01372,  -0.01976,   0.01648,   0.00440,   0.03460,   0.04969,   0.01346,  -0.04694,  -0.01372,  -0.04090,   0.08291,  -0.00164,   0.03158,   0.03762,   0.01648,   0.00742,  -0.02278,  -0.12545,  -0.03486,   0.00742,  -0.04694,  -0.04694,  -0.02882,  -0.02278,   0.06177,   0.06479,  -0.07411,  -0.12847,  -0.04090,   0.00138,   0.00138,  -0.03486,  -0.01070,  -0.03184,  -0.04392,   0.01346,  -0.03486,   0.02856,   0.05271,   0.00742,  -0.01070,   0.01648,  -0.00466,   0.03158,  -0.00466,  -0.03184,   0.00742,  -0.10129,   0.04064,   0.01950,  -0.04694,  -0.12545,  -0.02580,   0.07385,  -0.03184,  -0.07411,   0.01950,  -0.01976,  -0.07411,  -0.04694,   0.01346,  -0.01372,   0.04064,  -0.02580,  -0.00466,   0.01950,   0.11009,  -0.01070,   0.04064,   0.10405,   0.00138,  -0.04694,   0.04064,   0.02252,   0.09801,   0.04064,   0.00440,  -0.02278,   0.02554,  -0.01070,  -0.00768,  -0.03184,  -0.17980,   0.11311,   0.01648,  -0.01674,   0.05271,   0.09197,   0.00742,  -0.00466,   0.04064,  -0.00466,  -0.00466,  -0.02580,   0.02554,  -0.03788,   0.01648,   0.03762,  -0.01976,  -0.06807,   0.08593,   0.02554,   0.01648,   0.01950,   0.06177,   0.00138,  -0.01372,  -0.03788,  -0.03486,   0.05573,   0.00138,   0.04667,   0.00138,  -0.01372,   0.01648
  -0.01070,  -0.08015,  -0.04090,   0.01950,  -0.02580,  -0.01372,  -0.00768,  -0.04090,   0.01044,  -0.03486,   0.02252,  -0.04090,  -0.00466,  -0.04694,  -0.04392,   0.00742,  -0.00768,   0.04064,   0.02856,  -0.03184,  -0.00768,  -0.04392,  -0.01674,   0.01950,  -0.02278,  -0.08015,   0.03460,   0.00440,  -0.00768,  -0.05298,  -0.07109,  -0.01674,   0.00742,  -0.02278,   0.00440,   0.00138,  -0.02278,   0.02554,   0.02554,  -0.04392,  -0.10733,  -0.04090,  -0.00466,  -0.00466,  -0.00164,  -0.00466,   0.00742,   0.02554,  -0.00164,   0.02856,  -0.02580,   0.01044,  -0.01070,  -0.03486,   0.04969,  -0.00466,  -0.01674,   0.00138,  -0.04090,  -0.03486,  -0.05298,   0.00440,  -0.10733,  -0.09827,  -0.04392,   0.00138,   0.03762,   0.00742,  -0.03486,   0.04064,  -0.00768,  -0.05298,   0.00440,  -0.03486,  -0.03486,   0.05271,  -0.03788,   0.01044,  -0.01070,  -0.00768,  -0.00164,   0.05875,   0.06781,  -0.01070,  -0.05600,   0.05573,   0.02252,   0.15840,  -0.00164,  -0.02580,  -0.01976,   0.03158,  -0.03788,  -0.02278,  -0.01070,  -0.10431,   0.06479,   0.01950,   0.00440,   0.04667,   0.01648,   0.01648,  -0.01372,   0.04366,   0.00742,   0.04064,   0.00440,   0.00742,  -0.01976,   0.02252,  -0.02278,  -0.01674,  -0.00466,   0.03460,  -0.03184,  -0.02882,   0.03460,   0.00440,  -0.03788,   0.04064,  -0.05600,  -0.00466,   0.04366,  -0.02580,   0.07687,   0.00440,  -0.04090,   0.00742
  -0.01372,  -0.04392,   0.04667,   0.02554,  -0.03184,   0.07083,  -0.01674,  -0.02278,  -0.01070,  -0.02278,  -0.03486,  -0.01070,  -0.04392,   0.00742,   0.01648,   0.00440,   0.00138,  -0.03486,  -0.00466,  -0.01070,   0.00440,   0.00440,  -0.00164,  -0.08317,  -0.02580,   0.00742,  -0.03184,  -0.01070,   0.00742,  -0.03184,  -0.00768,  -0.03788,   0.00440,  -0.02580,  -0.01674,  -0.01070,  -0.01976,  -0.00164,  -0.00164,  -0.07713,  -0.06203,  -0.03486,   0.01044,  -0.02580,   0.00440,  -0.02278,  -0.01372,  -0.01674,  -0.01372,  -0.00768,  -0.01976,  -0.02278,   0.05573,  -0.00768,   0.01044,  -0.00164,  -0.00466,  -0.00164,   0.02554,   0.02252,  -0.00768,  -0.00164,  -0.00466,  -0.06807,  -0.00768,  -0.01976,  -0.00466,  -0.02580,  -0.00466,  -0.02882,  -0.00164,  -0.04694,   0.02252,   0.00138,  -0.04090,  -0.02580,   0.02252,  -0.02278,  -0.01372,  -0.01372,   0.00138,   0.03460,   0.05875,  -0.03486,  -0.04392,  -0.01674,   0.02856,   0.09197,  -0.02882,  -0.01674,  -0.01674,   0.04667,  -0.05600,  -0.01372,   0.01950,  -0.00768,   0.06479,  -0.02580,   0.00440,   0.01346,   0.03158,  -0.00164,  -0.00164,  -0.00164,   0.00138,  -0.00768,   0.00138,  -0.04090,   0.08291,   0.01346,  -0.01372,  -0.00466,  -0.02882,   0.01648,   0.01044,  -0.00164,   0.03762,   0.01950,  -0.03788,   0.01648,  -0.05600,   0.00138,   0.03762,  -0.01976,   0.03762,  -0.01976,  -0.03184,  -0.01674
   0.00440,  -0.04996,  -0.00164,   0.04064,  -0.01372,  -0.01372,  -0.00466,   0.04667,  -0.01070,  -0.03184,   0.04667,   0.01044,  -0.01674,  -0.00164,   0.00138,   0.02554,   0.00440,   0.02554,   0.01648,  -0.07713,  -0.01674,   0.05271,   0.02554,   0.14633,   0.01648,   0.01044,  -0.01976,  -0.03788,   0.00742,  -0.01976,  -0.10431,  -0.10431,   0.01950,   0.00440,  -0.02580,   0.00138,  -0.01070,   0.01044,   0.02554,  -0.07411,  -0.17980,   0.01648,  -0.00768,   0.01346,  -0.02882,  -0.04694,  -0.00466,   0.00440,  -0.00164,  -0.04694,  -0.03486,  -0.01674,   0.02856,  -0.01070,   0.00742,   0.04667,   0.03158,   0.00440,   0.03460,   0.00440,  -0.07109,   0.00440,  -0.01070,  -0.10733,  -0.10129,  -0.02882,   0.08291,  -0.03184,  -0.00466,  -0.05298,   0.02252,   0.00138,   0.01648,  -0.08317,  -0.09223,   0.02856,  -0.01372,  -0.00466,   0.04366,   0.03158,   0.01950,   0.06781,   0.09499,  -0.03486,  -0.04392,  -0.05600,   0.05875,   0.12217,   0.06177,  -0.01070,   0.01950,   0.01648,  -0.03184,  -0.03486,  -0.01070,  -0.15867,   0.06781,   0.01648,   0.01346,   0.00742,   0.12821,  -0.00768,   0.01044,   0.04064,   0.00440,   0.02554,   0.00440,  -0.01372,   0.13425,  -0.00164,   0.03158,  -0.03184,  -0.03486,  -0.04090,  -0.00164,  -0.00768,  -0.03184,   0.03460,  -0.05298,   0.01346,  -0.00768,   0.02252,   0.01648,  -0.01674,   0.09499,   0.02554,   0.00138,   0.00742
